tree
version=v2
num_class=1
num_tree_per_iteration=1
label_index=0
max_feature_idx=10
objective=regression
feature_names=Item_Identifier Item_Weight Item_Fat_Content Item_Visibility Item_Type Item_MRP Outlet_Identifier Outlet_Establishment_Year Outlet_Size Outlet_Location_Type Outlet_Type
feature_infos=153:174:198:500:674:776:966:1220:1489:18:28:44:53:78:96:168:191:200:214:218:224:239:244:340:341:348:408:485:508:521:532:534:538:541:555:558:563:602:628:704:723:727:740:855:914:917:930:941:976:984:994:1028:1147:1154:1159:1261:1279:1288:0:7:8:12:15:20:21:26:35:52:54:68:79:94:98:100:104:130:141:151:154:156:160:161:162:170:171:190:192:204:211:227:246:247:260:264:270:274:284:290:303:310:319:335:358:359:380:387:392:394:397:404:425:438:442:449:471:473:493:498:503:511:525:536:549:556:593:609:619:626:647:648:654:661:666:667:676:680:697:701:703:721:722:733:734:755:778:783:784:791:813:844:848:857:859:866:868:869:881:898:923:925:932:940:964:981:1001:1018:1033:1040:1050:1051:1053:1055:1063:1066:1069:1080:1081:1121:1142:1144:1157:1182:1189:1193:1195:1199:1203:1208:1210:1216:1225:1233:1239:1249:1264:1281:1291:1307:1315:1317:1389:1405:1412:1415:4:6:11:14:23:29:31:32:33:39:40:45:46:51:58:63:64:72:73:77:81:82:89:90:91:93:95:107:116:117:120:126:129:133:134:135:136:142:157:158:164:173:175:176:178:185:193:195:196:215:216:221:222:225:229:230:232:235:241:245:250:251:269:273:280:282:285:289:293:294:305:308:313:315:317:318:321:324:327:345:352:354:356:360:361:372:377:381:386:396:401:402:412:414:417:422:430:433:434:435:437:444:446:458:466:467:468:474:476:478:487:491:496:501:515:524:526:530:540:548:550:560:562:565:567:570:572:582:585:590:595:605:612:625:629:630:641:643:644:646:650:651:652:665:671:677:682:686:706:707:716:719:720:725:726:728:736:752:757:758:761:763:770:786:789:793:794:800:802:805:807:812:820:823:830:832:837:841:842:846:851:863:864:872:874:877:879:902:909:918:933:934:935:937:944:946:947:949:961:968:971:973:975:977:978:980:982:992:996:999:1011:1013:1016:1022:1032:1037:1048:1049:1057:1059:1067:1074:1077:1079:1087:1095:1100:1102:1106:1114:1122:1123:1125:1135:1138:1139:1163:1166:1167:1172:1173:1175:1179:1180:1183:1185:1187:1190:1192:1194:1200:1204:1211:1219:1224:1227:1232:1234:1235:1236:1248:1251:1253:1259:1268:1271:1273:1286:1289:1308:1310:1314:1319:1320:1340:1342:1346:1347:1351:1358:1359:1363:1365:1394:1396:1399:1408:1416:1420:1424:1442:1456:1463:1468:1478:1487:1502:1504:1515:3:9:10:16:17:25:27:34:38:55:56:57:61:62:66:75:76:80:83:84:86:87:88:97:99:101:102:103:106:108:111:112:113:118:121:122:128:137:140:143:147:148:152:155:159:163:165:167:179:181:183:184:186:187:188:189:199:206:208:209:210:212:226:231:236:240:243:248:253:255:259:261:262:266:268:271:272:275:283:287:288:292:297:298:300:302:304:307:309:314:320:322:325:326:328:330:336:343:344:346:350:351:362:365:368:369:373:374:375:382:383:389:390:391:393:395:398:399:405:406:407:418:421:427:431:436:439:440:441:443:445:447:456:457:462:465:469:470:475:480:481:484:488:490:494:499:502:504:505:507:510:514:517:518:522:527:533:542:545:547:551:553:559:569:571:573:576:577:578:579:580:583:586:592:598:599:601:604:614:618:621:622:623:634:635:636:639:640:649:657:659:673:675:678:683:690:693:694:698:699:700:708:710:715:717:718:730:739:741:742:744:745:746:747:753:756:759:762:764:767:768:769:771:773:775:779:780:781:787:790:799:801:803:806:808:815:818:821:822:826:833:834:835:849:850:853:870:873:878:884:889:891:894:897:903:905:907:912:915:920:921:922:927:928:929:942:945:950:951:953:959:960:965:967:972:987:990:993:997:1002:1003:1010:1014:1015:1017:1019:1023:1027:1029:1034:1036:1047:1054:1060:1065:1072:1073:1078:1082:1084:1085:1086:1089:1092:1099:1101:1104:1108:1109:1110:1113:1115:1117:1118:1119:1120:1124:1127:1128:1129:1133:1136:1137:1143:1146:1151:1155:1158:1162:1165:1174:1191:1198:1202:1205:1206:1207:1213:1215:1217:1218:1221:1222:1223:1238:1241:1243:1245:1252:1258:1265:1272:1274:1282:1287:1292:1293:1300:1303:1304:1305:1311:1312:1323:1324:1328:1330:1331:1333:1335:1336:1339:1343:1344:1357:1367:1368:1369:1371:1373:1377:1380:1392:1395:1403:1409:1411:1413:1423:1427:1436:1437:1441:1445:1446:1448:1451:1452:1453:1457:1460:1464:1472:1473:1474:1475:1477:1486:1492:1497:1501:1505:1509:1510:1511:1513:1516:1518:1519:1520:1522:1524:1538:1551:1552:1:2:13:19:22:24:36:41:42:48:60:67:69:70:74:92:105:110:114:115:119:123:124:125:127:139:144:146:149:150:166:172:180:182:201:203:205:207:213:219:223:237:242:257:265:277:279:296:299:301:312:331:333:337:338:339:349:355:363:367:376:384:385:388:400:409:410:413:415:416:420:423:426:428:429:432:448:452:454:455:459:460:461:463:464:477:479:489:495:497:509:512:513:516:520:523:529:531:535:539:543:546:552:554:561:566:574:581:589:591:594:596:603:606:607:608:613:615:616:617:620:624:631:632:633:637:645:658:660:662:663:669:681:684:685:691:692:695:702:713:714:724:731:732:737:749:751:754:760:765:766:777:782:788:792:796:798:804:810:814:816:827:829:840:843:847:852:854:860:862:875:876:882:883:888:890:892:900:901:906:908:911:913:919:924:931:936:939:948:954:955:957:963:969:970:974:983:986:988:991:995:998:1000:1005:1006:1007:1008:1009:1020:1024:1031:1035:1039:1056:1058:1061:1068:1071:1090:1097:1103:1107:1111:1112:1116:1126:1145:1148:1150:1161:1169:1170:1171:1176:1178:1186:1196:1197:1201:1214:1228:1240:1242:1244:1247:1250:1254:1260:1262:1263:1269:1270:1275:1276:1277:1283:1284:1296:1297:1298:1306:1313:1322:1325:1326:1337:1345:1348:1350:1352:1353:1360:1364:1370:1372:1375:1383:1384:1385:1387:1390:1397:1400:1404:1407:1410:1417:1425:1426:1429:1430:1432:1433:1434:1438:1440:1444:1447:1449:1454:1459:1462:1465:1467:1471:1476:1480:1482:1483:1484:1485:1490:1491:1493:1498:1507:1514:1517:1526:1527:1529:1535:1537:1543:1546:1548:1554 [-999:21.350000000000001] 1:0:3:2:4 [0:0.32111500999999998] 6:3:4:7:0:5:11:9:1:2:12:10:14:13:8:15 [31.289999999999999:266.6884] 3:4:0:7:8:5:1:6:2:9 [1985:2009] 3:0:2:-1 1:2:0 2:0:3:1
tree_sizes=877 889 879 892 867 886 889 889 890 877 894 878 904 897 892 881 868 874 880 864 856 891 872 857 852 865 899 898 863 865 862 846 885 869 863 880 881 870 865 860 872 866 886 879 871 878 868 844 887 874 888 862 885 876 887 890 890 887 867 879 898 876 876 877 869 878 880 869 857 894 905 877 879 887 880 888 886 881 886 888 869 899 861 895 900 894 878 880 884 887 899

Tree=0
num_leaves=10
num_cat=2
split_feature=5 10 7 10 5 5 5 7 5
split_gain=2.37179e+09 1.06467e+09 5.52689e+08 3.72317e+08 3.7857e+08 3.52684e+08 1.06996e+08 1.03872e+08 4.67168e+07
threshold=152.45240000000004 0 1986.0000000000002 1 93.727800000000016 220.74690000000001 220.74690000000001 1986.0000000000002 140.29960000000003
decision_type=2 1 2 1 2 2 2 2 2
left_child=3 -2 6 -1 -5 -4 -3 -6 -9
right_child=1 2 5 4 7 -7 -8 8 -10
leaf_value=2041.6338775778956 2065.4255226068517 2405.4288748806962 2253.0492970407108 2108.2966173311856 2269.1191917958149 2353.6450325295855 2555.2580882729885 2167.8841902514482 2216.0020070331743
leaf_count=220 131 118 720 651 95 322 41 513 172
internal_value=0 994.502 1289.77 -799.153 -612.955 1024.78 3026.39 -143.065 -278.964
internal_count=2983 1332 1201 1651 1431 1042 159 780 685
cat_boundaries=0 1 2
cat_threshold=4 4
shrinkage=1


Tree=1
num_leaves=10
num_cat=2
split_feature=5 10 1 10 5 5 5 1 5
split_gain=2.00792e+09 9.01333e+08 4.67897e+08 3.15197e+08 3.20491e+08 2.98577e+08 9.24374e+07 8.7936e+07 4.14813e+07
threshold=152.45240000000004 0 1.0000000180025095e-35 1 93.727800000000016 220.74690000000001 199.25840000000002 1.0000000180025095e-35 58.574600000000011
decision_type=2 1 2 1 2 2 2 2 2
left_child=3 -2 6 -1 8 -4 -3 -6 -5
right_child=1 2 5 4 7 -7 -8 -9 -10
leaf_value=-146.31015679205933 -124.63837165614471 175.17679645552255 46.267936546925689 -105.28018535799809 60.905989885811941 137.90049177728619 300.94387256503455 -20.30326611772821 -65.34194107874869
leaf_count=220 131 102 720 330 95 322 57 685 321
internal_value=0 915.041 1186.72 -735.301 -563.98 942.9 2784.58 -131.634 -1082
internal_count=2983 1332 1201 1651 1431 1042 159 780 651
cat_boundaries=0 1 2
cat_threshold=4 4
shrinkage=0.079101


Tree=2
num_leaves=10
num_cat=2
split_feature=5 5 5 8 1 1 1 9 7
split_gain=1.70282e+09 3.42821e+08 2.44408e+08 1.51461e+08 2.14747e+08 1.68793e+08 7.36112e+07 6.87266e+07 1.34671e+08
threshold=152.45240000000004 220.74690000000001 90.233000000000018 0 1.0000000180025095e-35 4.892500000000001 4.892500000000001 1 1997.5000000000002
decision_type=2 2 2 9 2 2 2 1 2
left_child=2 3 -1 4 -2 -5 -3 8 -7
right_child=1 6 -4 5 -6 7 -8 -9 -10
leaf_value=-88.102145997660102 168.16611061365867 215.44691778704774 -27.144598043291268 -117.11570183506306 35.078632428512535 39.333606789647739 114.53639941656387 46.547595219599287 -115.61670710624152
leaf_count=701 118 51 950 52 201 98 339 420 53
internal_value=0 842.661 -677.138 516.232 1076.6 229.302 1631.11 386.38 -192.222
internal_count=2983 1332 1651 942 319 623 390 571 151
cat_boundaries=0 1 2
cat_threshold=1 2
shrinkage=0.07831


Tree=3
num_leaves=10
num_cat=2
split_feature=5 10 1 10 5 5 5 1 5
split_gain=1.44657e+09 6.82046e+08 3.44445e+08 2.67075e+08 2.44481e+08 2.20007e+08 7.49424e+07 7.22186e+07 6.21762e+07
threshold=152.45240000000004 0 1.0000000180025095e-35 1 108.34250000000002 220.74690000000001 220.74690000000001 1.0000000180025095e-35 62.018100000000011
decision_type=2 1 2 1 2 2 2 2 2
left_child=3 -2 6 -1 8 -4 -3 -6 -5
right_child=1 2 5 4 7 -7 -8 -9 -10
leaf_value=-127.91047030523357 -107.76136938769488 153.44705398728112 38.49347468451996 -86.468191946587822 79.128892312824419 115.58562142567449 275.11660281475429 -6.6145614544626676 -44.385318289146873
leaf_count=220 131 118 720 363 67 322 41 497 504
internal_value=0 776.672 1013 -624.111 -466.41 803.806 2383.96 46.065 -799.784
internal_count=2983 1332 1201 1651 1431 1042 159 564 867
cat_boundaries=0 1 2
cat_threshold=4 4
shrinkage=0.0775269


Tree=4
num_leaves=10
num_cat=4
split_feature=10 1 10 3 6 4 1 3 3
split_gain=8.17774e+08 3.61578e+08 3.62864e+07 1.70884e+07 1.05647e+07 1.01077e+07 9.86533e+06 9.83255e+06 1.2697e+07
threshold=0 1.0000000180025095e-35 1 0.076840415000000009 2 3 8.9925000000000015 0.039107700000000009 0.028552082000000006
decision_type=1 2 1 2 1 1 2 2 2
left_child=-1 3 4 -2 5 6 -3 8 -8
right_child=1 2 -4 -5 -6 -7 7 -9 -10
leaf_value=-109.94636961942921 77.888485311284683 3.5538164967335462 -19.547827697448827 115.43097984454282 3.7845345358336484 5.0831434642198161 33.991573903481601 20.936933567743903 93.302448843433339
leaf_count=351 228 92 331 104 1303 309 73 162 30
internal_value=0 192.48 51.66 1168.04 103.159 204.701 319.485 426.381 667.954
internal_count=2983 2632 2300 332 1969 666 357 265 103
cat_boundaries=0 1 2 3 4
cat_threshold=4 1 264 8793
shrinkage=0.0767516


Tree=5
num_leaves=10
num_cat=2
split_feature=5 8 1 1 5 5 9 7 7
split_gain=1.14735e+09 1.69802e+08 2.18879e+08 1.92324e+08 1.4524e+08 1.15827e+08 5.04565e+07 9.82923e+07 4.90871e+07
threshold=141.13120000000004 0 1.0000000180025095e-35 5.0650000000000004 76.432800000000015 198.22680000000003 1 1997.5000000000002 2003.0000000000002
decision_type=2 9 2 2 2 2 1 2 2
left_child=4 3 -3 -2 -1 6 7 -4 -7
right_child=1 2 5 -5 -6 8 -8 -9 -10
leaf_value=-81.415703470298723 146.42735451809065 -93.861135228537933 26.510209938730128 48.526492410687808 -30.606963361261815 52.149879945022825 33.165525056788233 -90.436309132472275 112.49534349021442
leaf_count=492 176 78 118 339 956 209 427 64 124
internal_value=0 610.888 374.556 1078.96 -630.009 507.854 248.56 -192.328 982.059
internal_count=2983 1535 1020 515 1448 942 609 182 333
cat_boundaries=0 1 2
cat_threshold=1 2
shrinkage=0.0759841


Tree=6
num_leaves=10
num_cat=2
split_feature=5 10 1 5 10 5 1 5 3
split_gain=9.81794e+08 5.67966e+08 2.15425e+08 1.57552e+08 1.18045e+08 1.14022e+08 6.3613e+07 3.85812e+07 2.20476e+07
threshold=129.78100000000003 0 5.0650000000000004 180.58050000000003 1 76.432800000000015 5.0650000000000004 190.83460000000002 0.038105698500000007
decision_type=2 1 2 2 1 2 2 2 2
left_child=4 -2 7 -4 -1 -6 -7 -3 -9
right_child=1 2 3 -5 5 6 -8 8 -10
leaf_value=-101.82203399649238 -85.241206112683827 105.77072549106578 16.220667820726931 70.378769504821392 -69.135041944294159 35.388596048288527 -28.489999974696701 231.29389680784394 143.92135818863014
leaf_count=183 179 117 562 662 412 101 697 26 44
internal_value=0 544.869 757.745 605.018 -605.038 -491.829 -271.257 1757.41 2344.64
internal_count=2983 1590 1411 1224 1393 1210 798 187 70
cat_boundaries=0 1 2
cat_threshold=4 4
shrinkage=0.0752243


Tree=7
num_leaves=10
num_cat=2
split_feature=5 6 1 7 5 5 6 1 5
split_gain=8.3964e+08 3.56301e+08 1.63867e+08 1.58881e+08 1.14933e+08 9.64537e+07 7.6212e+07 5.44025e+07 4.0832e+07
threshold=129.78100000000003 0 1.0000000180025095e-35 2008.0000000000002 180.58050000000003 76.432800000000015 1 5.0650000000000004 190.83460000000002
decision_type=2 1 2 2 2 2 1 2 2
left_child=5 3 8 -2 -4 -1 -7 -8 -3
right_child=1 2 4 -5 -6 6 7 -9 -10
leaf_value=-68.187896643862388 -78.040709777416083 96.120017484918378 18.451144121964141 20.90908227072854 67.934422331916494 -84.854425972678129 32.39925002796695 -26.083391716905716 170.33319457283093
leaf_count=492 179 115 475 181 576 103 101 697 64
internal_value=0 503.882 756.396 -369.62 611.913 -559.524 -365.076 -247.747 1646.99
internal_count=2983 1590 1230 360 1051 1393 901 798 179
cat_boundaries=0 1 2
cat_threshold=518 516
shrinkage=0.074472


Tree=8
num_leaves=10
num_cat=2
split_feature=5 10 1 10 5 5 1 5 5
split_gain=7.22066e+08 4.01349e+08 1.42065e+08 1.07266e+08 1.01332e+08 9.42868e+07 3.71907e+07 2.72316e+07 2.62707e+07
threshold=144.06280000000001 0 5.0650000000000004 1 99.52000000000001 180.58050000000003 1.0000000180025095e-35 177.78700000000001 50.850800000000007
decision_type=2 1 2 1 2 2 2 2 2
left_child=3 -2 7 -1 8 -4 -6 -3 -5
right_child=1 2 5 4 6 -7 -8 -9 -10
leaf_value=-86.207354366490023 -70.754863497789671 78.5192311026141 16.027029621440843 -67.012800475324823 42.994368314196173 59.262599172312953 -12.468681772140357 137.26884379266031 -36.76567105641535
leaf_count=196 166 74 468 232 75 662 531 102 477
internal_value=0 504.936 691.098 -479.14 -376.276 560.934 -76.0158 1526.81 -632.916
internal_count=2983 1472 1306 1511 1315 1130 606 176 709
cat_boundaries=0 1 2
cat_threshold=4 4
shrinkage=0.0737273


Tree=9
num_leaves=10
num_cat=3
split_feature=10 1 4 7 7 7 1 4 3
split_gain=4.12023e+08 1.8934e+08 2.0405e+07 1.5337e+07 1.41771e+07 1.28364e+07 1.77179e+07 1.25009e+07 8.04672e+06
threshold=0 5.0650000000000004 1 2008.0000000000002 2003.0000000000002 2005.5000000000002 12.125000000000002 2 0.033971541500000015
decision_type=1 2 1 2 2 2 2 1 2
left_child=-1 7 -3 4 8 -6 -7 -2 -4
right_child=1 2 3 -5 5 6 -8 -9 -10
leaf_value=-72.555117415229887 29.369691227517496 -5.2125966955952041 -4.0865019664051685 -10.174312476945481 36.266523027138767 -18.035507948895269 28.328107325385933 71.787464767064264 11.672465762807445
leaf_count=362 103 942 262 194 200 74 108 232 506
internal_value=0 144.108 41.2184 119.802 164.569 322.002 129.839 846.214 86.2633
internal_count=2983 2621 2286 1344 1150 382 182 335 768
cat_boundaries=0 1 2 3
cat_threshold=4 10147 5190
shrinkage=0.07299


Tree=10
num_leaves=10
num_cat=2
split_feature=10 1 7 4 3 3 3 3 1
split_gain=3.51751e+08 1.82537e+08 1.77868e+07 1.65689e+07 8.0661e+06 1.60449e+07 1.39291e+07 1.40742e+07 7.84198e+06
threshold=0 1.0000000180025095e-35 2008.0000000000002 1 0.021236404500000004 0.052175590000000008 0.081252732000000008 0.13338375650000003 8.9000000000000004
decision_type=1 2 2 1 2 2 2 2 2
left_child=-1 4 3 -3 -2 -6 -7 -8 -5
right_child=1 2 -4 8 5 6 7 -9 -10
leaf_value=-66.445549696106355 37.378875981205958 14.884341786627102 -13.12812020367671 -8.6686831475353436 88.968273174971955 29.020118328453069 90.543174781310682 28.818744352313043 4.0236461925821745
leaf_count=356 63 641 312 340 100 74 62 28 1007
internal_value=0 139.695 40.3024 75.1405 838.789 915.512 723.005 987.267 11.2634
internal_count=2983 2627 2300 1988 327 264 164 90 1347
cat_boundaries=0 1 2
cat_threshold=4 8476
shrinkage=0.0722601


Tree=11
num_leaves=10
num_cat=3
split_feature=5 10 5 1 10 5 1 10 5
split_gain=6.00017e+08 2.37056e+08 1.3327e+08 9.06393e+07 8.0042e+07 5.08931e+07 4.08892e+07 3.6812e+07 2.11668e+07
threshold=165.33550000000002 0 102.16740000000001 1.0000000180025095e-35 1 199.25840000000002 1.0000000180025095e-35 2 58.574600000000011
decision_type=2 1 2 2 1 2 2 1 2
left_child=2 -2 7 -3 -4 -5 -6 -1 -9
right_child=1 3 4 5 6 -7 -8 8 -10
leaf_value=-0.33742462581582905 -52.345727034437729 113.38488820348422 -61.50981467441148 29.447939598976586 41.144231387596768 64.280216069140891 -4.1423496377163262 -61.815423795693398 -38.400357561117168
leaf_count=91 119 118 115 438 118 421 754 343 466
internal_value=0 600.859 -329.428 763.17 -75.6568 650.28 27.76 -607.73 -675.56
internal_count=2983 1096 1887 977 987 859 872 900 809
cat_boundaries=0 1 2 3
cat_threshold=4 4 8
shrinkage=0.0715375


Tree=12
num_leaves=10
num_cat=2
split_feature=5 6 5 5 1 6 1 1 5
split_gain=5.18406e+08 2.19902e+08 1.01735e+08 7.19368e+07 5.60197e+07 4.82233e+07 4.44585e+07 3.23111e+07 1.53413e+07
threshold=143.54570000000004 0 190.03720000000001 76.432800000000015 1.0000000180025095e-35 1 1.0000000180025095e-35 1.0000000180025095e-35 113.28470000000002
decision_type=2 1 2 2 2 1 2 2 2
left_child=3 -2 6 -1 -4 -5 -3 -7 -9
right_child=1 2 4 5 -6 7 -8 8 -10
leaf_value=-50.397435178914144 -45.97936866474565 65.982597367198537 120.90648689954658 -45.469408627272159 53.639034395636429 26.998965527102801 14.514436032664392 -23.471132653269073 -1.6844748491279895
leaf_count=499 161 98 70 228 550 109 597 397 274
internal_value=0 432.721 565.822 -401.079 864.613 -247.356 307.415 -122.194 -205.792
internal_count=2983 1476 1315 1507 620 1008 695 780 671
cat_boundaries=0 1 2
cat_threshold=516 518
shrinkage=0.0708222


Tree=13
num_leaves=10
num_cat=2
split_feature=5 5 8 1 1 5 8 1 1
split_gain=4.52195e+08 9.96818e+07 3.98827e+07 5.8539e+07 5.65886e+07 3.98851e+07 2.69482e+07 3.10085e+07 2.27924e+07
threshold=165.33550000000002 93.097500000000011 0 1.0000000180025095e-35 1.0000000180025095e-35 199.25840000000002 1 1.0000000180025095e-35 4.6250000000000009
decision_type=2 2 9 2 2 2 9 2 2
left_child=1 -1 3 -2 -4 -6 7 -3 -8
right_child=2 6 4 -5 5 -7 8 -9 -10
leaf_value=-40.029415733629016 96.267919867120781 34.537238299524397 -43.916770318794086 35.655488529814185 16.600191789500197 50.257668707507854 -53.30993085405774 -6.6109046211147779 -11.006127509376768
leaf_count=745 118 138 51 233 364 330 69 259 676
internal_value=0 -286.358 521.246 799.161 390.309 465.021 -100.719 109.714 -212.856
internal_count=2983 1887 1096 351 745 694 1142 397 745
cat_boundaries=0 1 2
cat_threshold=1 1
shrinkage=0.0701139


Tree=14
num_leaves=10
num_cat=2
split_feature=5 10 5 5 10 1 1 1 5
split_gain=3.93058e+08 1.8407e+08 7.72221e+07 5.5673e+07 4.50308e+07 4.32961e+07 3.20226e+07 3.14574e+07 1.53528e+07
threshold=143.54570000000004 0 190.03720000000001 63.866800000000005 1 5.7425000000000006 1.0000000180025095e-35 5.6650000000000009 112.67020000000001
decision_type=2 1 2 2 1 2 2 2 2
left_child=3 -2 6 -1 -5 -4 -3 -6 -9
right_child=1 2 5 4 7 -7 -8 8 -10
leaf_value=-44.910182405634025 -43.925691240297766 55.593455838601962 99.172155359166993 -54.780184717495246 18.364054502326358 45.303850625875405 12.782016836651392 -23.778930810240752 -3.8631575139130323
leaf_count=444 161 98 83 125 153 537 597 480 305
internal_value=0 376.43 499.995 -349.602 -225.382 756.564 271.113 -150.247 -231.095
internal_count=2983 1476 1315 1507 1063 620 695 938 785
cat_boundaries=0 1 2
cat_threshold=4 4
shrinkage=0.0694128


Tree=15
num_leaves=10
num_cat=3
split_feature=10 1 7 4 3 4 3 7 7
split_gain=1.97555e+08 6.98177e+07 1.37451e+07 9.74722e+06 2.63147e+07 8.3722e+06 7.49347e+06 7.4048e+06 9.41925e+06
threshold=0 1.0000000180025095e-35 2008.0000000000002 1 0.016197938000000005 2 0.13979033650000003 2003.0000000000002 2005.5000000000002
decision_type=1 2 2 1 2 1 2 2 2
left_child=-1 3 5 4 -2 6 -3 -7 -9
right_child=1 2 -4 -5 -6 7 -8 8 -10
leaf_value=-46.469291640387006 123.59689547327942 -5.5230087334462148 -9.0163580005937636 24.17343640078219 43.469886286747851 5.231901166057435 33.397966395916917 24.220998945865855 5.8272488221997056
leaf_count=353 24 356 322 190 100 1087 25 267 259
internal_value=0 120.494 60.5007 562.99 794.209 91.4585 -42.1021 122.508 220.668
internal_count=2983 2630 2316 314 124 1994 381 1613 526
cat_boundaries=0 1 2 3
cat_threshold=4 152 17538
shrinkage=0.0687187


Tree=16
num_leaves=10
num_cat=4
split_feature=5 10 5 5 1 6 5 4 10
split_gain=3.69851e+08 1.798e+08 6.35817e+07 4.06269e+07 3.18017e+07 2.45162e+07 1.98105e+07 1.97664e+07 1.50651e+07
threshold=140.29960000000003 0 198.22680000000003 111.53860000000002 1.0000000180025095e-35 1 50.850800000000007 2 3
decision_type=2 1 2 2 2 1 2 1 1
left_child=3 -2 5 6 -4 -3 -1 -6 -5
right_child=1 2 4 8 7 -7 -8 -9 -10
leaf_value=-45.913728542137406 -37.696646067625259 33.453845379523969 102.46213584849532 -45.979470488971401 17.356554364668195 10.317256071732386 -24.658830224008451 55.955815119766093 1.0173039723155324
leaf_count=273 189 456 54 35 116 446 791 301 322
internal_value=0 360.34 486.218 -344.681 784.018 330.716 -442.624 690.511 -52.773
internal_count=2983 1562 1373 1421 471 902 1064 417 357
cat_boundaries=0 1 2 3 4
cat_threshold=4 281 8272 4
shrinkage=0.0680315


Tree=17
num_leaves=10
num_cat=4
split_feature=5 6 5 5 1 5 4 6 6
split_gain=3.22659e+08 1.48534e+08 5.14853e+07 4.09989e+07 2.74943e+07 1.76029e+07 1.71652e+07 1.68516e+07 1.51706e+07
threshold=143.54570000000004 0 198.22680000000003 112.67020000000001 1.0000000180025095e-35 50.850800000000007 1 2 3
decision_type=2 1 2 2 2 2 1 1 1
left_child=3 -2 7 5 -4 -1 -6 -3 -5
right_child=1 2 4 8 6 -7 -8 -9 -10
leaf_value=-42.362248145374274 -32.807868703821235 30.777875011400102 94.536572552116681 -20.142009456204324 16.106780963792492 -22.586765795716619 51.748747885552085 10.98732714196067 7.1288233255479057
leaf_count=273 181 436 54 130 116 810 301 418 264
internal_value=0 348.922 463.308 -308.881 732.236 -409.373 645.292 320.413 -32.6565
internal_count=2983 1506 1325 1477 471 1083 417 854 394
cat_boundaries=0 1 2 3 4
cat_threshold=516 8272 281 550
shrinkage=0.0673512


Tree=18
num_leaves=10
num_cat=3
split_feature=5 10 5 5 7 1 5 4 10
split_gain=2.81208e+08 1.34029e+08 4.56389e+07 3.55953e+07 2.52762e+07 2.04112e+07 1.67016e+07 1.65899e+07 1.652e+07
threshold=143.54570000000004 0 233.96290000000002 112.67020000000001 2005.5000000000002 1.0000000180025095e-35 177.78700000000001 1 2
decision_type=2 1 2 2 2 2 2 1 1
left_child=3 -2 5 8 -4 6 -3 -7 -1
right_child=1 2 4 -5 -6 7 -8 -9 -10
leaf_value=-1.2097871004159688 -32.086701530277402 23.94198680798884 66.979103005020562 -2.0528251047737283 19.794616643319983 -4.6661230901033868 72.493650114545957 22.770790940484364 -28.254448888733364
leaf_count=112 181 63 188 394 69 114 63 828 971
internal_value=0 325.932 436.192 -288.166 814.529 345.151 723.148 294.59 -381.801
internal_count=2983 1506 1325 1477 257 1068 126 942 1083
cat_boundaries=0 1 2 3
cat_threshold=4 17536 8
shrinkage=0.0666776


Tree=19
num_leaves=10
num_cat=4
split_feature=5 10 5 5 10 6 3 4 1
split_gain=2.4506e+08 1.16789e+08 4.06566e+07 3.30165e+07 2.51453e+07 2.42177e+07 2.07549e+07 1.71843e+07 1.52071e+07
threshold=143.54570000000004 0 199.25840000000002 76.432800000000015 1 2 0.025910030500000004 3 5.4625000000000012
decision_type=2 1 2 2 1 1 2 1 2
left_child=3 -2 8 -1 -5 6 -4 -7 -3
right_child=1 2 5 4 -6 7 -8 -9 -10
leaf_value=-31.46670694329368 -29.647763530712496 40.137449925309816 120.64360885132238 -41.66020086044248 -7.019146865707099 6.8782534454278688 58.193571560429731 41.105179326025734 14.902160791175174
leaf_count=504 181 121 33 102 871 108 78 242 743
internal_value=0 304.32 407.245 -268.951 -161.346 647.053 1066.73 470.046 279.291
internal_count=2983 1506 1325 1477 973 461 111 350 864
cat_boundaries=0 1 2 3 4
cat_threshold=4 4 272 12368
shrinkage=0.0660109


Tree=20
num_leaves=10
num_cat=5
split_feature=5 10 5 6 5 4 4 1 10
split_gain=2.13791e+08 8.77687e+07 4.17754e+07 3.15045e+07 2.93892e+07 1.69463e+07 1.57435e+07 1.59647e+07 1.35113e+07
threshold=158.22750000000005 0 98.688400000000016 1 198.22680000000003 2 3 5.3225000000000007 4
decision_type=2 1 2 1 2 1 1 2 1
left_child=2 -2 8 -4 6 -6 -3 -8 -1
right_child=1 4 3 -5 5 -7 7 -9 -10
leaf_value=-0.43418317833507952 -26.892249674639327 5.7988998778728256 -25.330031310883641 2.171283984705775 12.457451678279305 47.77799509008797 64.648832293125636 23.198721414841707 -27.225536892640804
leaf_count=90 138 255 224 741 100 347 46 289 753
internal_value=0 337.699 -210.204 -68.1312 437.4 630.809 290.868 429.268 -372.838
internal_count=2983 1175 1808 965 1037 447 590 335 843
cat_boundaries=0 1 2 3 4 5
cat_threshold=4 518 13332 17096 8
shrinkage=0.0653508


Tree=21
num_leaves=10
num_cat=2
split_feature=5 6 5 6 5 1 1 1 1
split_gain=1.87265e+08 7.37553e+07 3.71112e+07 2.95204e+07 2.58758e+07 1.63365e+07 1.38699e+07 1.06408e+07 1.16617e+07
threshold=158.22750000000005 0 81.113100000000017 1 198.22680000000003 1.0000000180025095e-35 5.3225000000000007 16.050000000000004 17.425000000000004
decision_type=2 1 2 1 2 2 2 2 2
left_child=2 -2 -1 -4 6 -5 -3 -6 -9
right_child=1 4 3 5 7 -7 -8 8 -10
leaf_value=-26.719267284044975 -23.202156761140454 43.199011211846972 -24.176361706425336 19.621301949980293 32.081391897262499 -4.4264518670924184 13.751821591448548 87.3313686061569 42.369746577132219
leaf_count=551 138 77 293 138 324 826 513 33 90
internal_value=0 316.192 -196.595 -101.74 405.542 -15.0521 271.958 590.933 841.344
internal_count=2983 1175 1808 1257 1037 964 590 447 123
cat_boundaries=0 1 2
cat_threshold=516 518
shrinkage=0.0646973


Tree=22
num_leaves=10
num_cat=4
split_feature=10 1 6 3 3 4 1 4 3
split_gain=8.75322e+07 3.46838e+07 1.04031e+07 1.03324e+07 1.49639e+07 1.05574e+07 9.21453e+06 8.0562e+06 7.66205e+06
threshold=0 1.0000000180025095e-35 1 0.079471710000000015 0.092147634500000006 2 6.1850000000000014 3 0.080099943000000007
decision_type=1 2 1 2 2 1 2 1 2
left_child=-1 3 6 5 -5 -2 8 -4 -3
right_child=1 2 7 4 -6 -7 -8 -9 -10
leaf_value=-28.934828315494478 29.971025043519351 -2.0103477080059968 -8.5995678640085025 86.121244839752549 26.279856987677459 2.5574108958688697 6.5874079761254007 2.9986009020526896 -49.069921874165949
leaf_count=368 117 40 532 24 60 123 1252 445 22
internal_value=0 69.144 25.8341 375.388 677.24 269.74 83.5763 -52.1469 -292.097
internal_count=2983 2615 2291 324 84 240 1314 977 62
cat_boundaries=0 1 2 3 4
cat_threshold=4 393 2206 14576
shrinkage=0.0640503


Tree=23
num_leaves=10
num_cat=5
split_feature=5 6 5 5 6 6 6 5 4
split_gain=1.63068e+08 6.00091e+07 3.26118e+07 2.36166e+07 2.04977e+07 1.64533e+07 1.41496e+07 1.02022e+07 9.52257e+06
threshold=156.88010000000003 0 111.53860000000002 182.03050000000005 1 2 3 52.065300000000001 4
decision_type=2 1 2 2 1 1 1 2 1
left_child=2 -2 6 -3 -5 -4 7 -1 -6
right_child=1 3 5 4 8 -7 -8 -9 -10
leaf_value=-36.159035948905519 -19.693334011849512 10.947914140089908 -11.920459467327035 41.237841621933569 29.471893330297767 7.3422946250534027 -21.176689944024169 11.714769566342929 6.5480681360019037
leaf_count=22 142 376 310 359 141 393 964 96 180
internal_value=0 290.057 -186.883 370.259 484.968 -19.1938 -295.834 40.5496 271.308
internal_count=2983 1198 1785 1056 680 703 1082 118 321
cat_boundaries=0 1 2 3 4 5
cat_threshold=516 408 902 16 139
shrinkage=0.0634098


Tree=24
num_leaves=10
num_cat=5
split_feature=5 6 5 6 7 4 5 10 4
split_gain=1.43883e+08 5.51839e+07 3.81506e+07 2.06957e+07 2.06754e+07 1.45914e+07 2.36759e+07 1.34327e+07 9.90359e+06
threshold=171.54350000000002 0 111.53860000000002 1 2000.5000000000002 2 198.22680000000003 3 4
decision_type=2 1 2 1 2 1 2 1 1
left_child=2 -2 7 -4 -3 6 -6 -1 -5
right_child=1 4 3 8 5 -7 -8 -9 -10
leaf_value=2.5861630380723635 32.70102177859296 -19.36201368477553 -16.797414603701924 -9.540726123148275 4.3619374142851672 0.15853696515895832 61.591667783458547 -19.853020234140299 8.8955770757135557
leaf_count=118 555 121 210 136 63 199 52 964 565
internal_value=0 316.084 -150.318 0.46477 41.8075 178.104 443.174 -277.271 83.3905
internal_count=2983 990 1993 911 435 314 115 1082 701
cat_boundaries=0 1 2 3 4 5
cat_threshold=409 518 15 8 1793
shrinkage=0.0627757


Tree=25
num_leaves=10
num_cat=5
split_feature=6 4 7 1 4 8 4 1 1
split_gain=7.86423e+07 1.83573e+07 1.32982e+07 9.57988e+06 6.96796e+06 8.41617e+06 6.63669e+06 4.68487e+06 6.43134e+06
threshold=0 1 2000.5000000000002 5.7425000000000006 2 3 4 1.0000000180025095e-35 12.425000000000002
decision_type=1 1 2 2 1 9 1 2 2
left_child=2 7 -1 -3 -5 -6 -4 -2 -9
right_child=1 3 6 4 5 -7 -8 8 -10
leaf_value=-24.601848256969053 22.592251756487098 13.215606982174524 -1.5797792888370392 3.2355049396804731 -18.380299308791312 -0.41315699517583587 -14.967909083958688 4.7405522784053638 16.421363674502107
leaf_count=367 163 202 255 496 170 247 352 343 388
internal_value=0 101.693 -243.091 15.4473 -28.0138 -121.592 -154.731 207.897 176.04
internal_count=2983 2009 974 1115 913 417 607 894 731
cat_boundaries=0 1 2 3 4 5
cat_threshold=550 6728 8368 8 8871
shrinkage=0.0621479


Tree=26
num_leaves=10
num_cat=1
split_feature=5 6 5 5 3 5 3 3 3
split_gain=9.99075e+07 7.07043e+07 4.24416e+07 1.67983e+07 1.47393e+07 1.88896e+07 1.63367e+07 1.78432e+07 1.15969e+07
threshold=120.66110000000002 0 198.22680000000003 53.944300000000005 0.13669928500000003 247.66050000000004 0.064216457500000004 0.077615634500000016 0.044480850500000009
decision_type=2 1 2 2 2 2 2 2 2
left_child=3 -2 -3 -1 5 8 -7 -8 -4
right_child=1 2 4 -5 -6 6 7 -9 -10
leaf_value=-26.633557696555044 -8.9735897708173056 9.954619444775556 45.031362294590693 -9.9371924090035773 -14.36943195723695 38.59011035309733 129.68852859125332 52.758307402323702 16.657520572263174
leaf_count=301 566 827 95 942 21 57 21 25 128
internal_value=0 143.982 282.549 -227.225 578.484 630.792 984.982 1428.31 467.198
internal_count=2983 1740 1174 1243 347 326 103 46 223
cat_boundaries=0 1
cat_threshold=550
shrinkage=0.0615264


Tree=27
num_leaves=10
num_cat=1
split_feature=5 6 5 5 3 3 5 3 5
split_gain=8.81118e+07 6.242e+07 3.51455e+07 1.60417e+07 1.41152e+07 1.52288e+07 1.70129e+07 2.08873e+07 2.09317e+07
threshold=123.98750000000001 0 198.22680000000003 53.944300000000005 0.011079774500000002 0.13669928500000003 247.66050000000004 0.044480850500000009 228.36940000000004
decision_type=2 1 2 2 2 2 2 2 2
left_child=3 -2 -3 -1 -4 6 7 -6 -9
right_child=1 2 4 -5 5 -7 -8 8 -10
leaf_value=-24.744940641674983 -8.2245116581012123 9.7482778410852973 -7.6127403374964047 -8.733363662054062 55.624354342615369 -13.350478891644203 62.084116375527174 36.18258405910764 -13.825006569568583
leaf_count=301 544 776 29 1015 77 21 92 75 53
internal_value=0 142.634 275.883 -203.503 542.892 603.798 661.988 501.654 254.08
internal_count=2983 1667 1123 1316 347 318 297 205 128
cat_boundaries=0 1
cat_threshold=550
shrinkage=0.0609112


Tree=28
num_leaves=10
num_cat=4
split_feature=5 6 5 10 4 5 8 5 3
split_gain=7.78854e+07 5.76673e+07 3.17921e+07 1.46569e+07 1.56577e+07 3.013e+07 1.49444e+07 1.2312e+07 1.13075e+07
threshold=119.06110000000001 0 198.22680000000003 1 2 232.81160000000003 3 53.944300000000005 0.092844638000000021
decision_type=2 1 2 1 1 2 9 2 2
left_child=7 2 -2 -3 5 -5 -7 -1 -6
right_child=1 3 -4 4 8 6 -8 -9 -10
leaf_value=-23.005320143676052 10.372085578094019 -18.124577169338263 34.300308298214851 2.0996702200259523 -15.003317954759749 19.359297168478474 90.63266344920703 -8.9148803256959024 14.035860366489329
leaf_count=301 724 221 280 211 243 20 23 899 61
internal_value=0 123.077 279.878 -81.5578 3.71929 183.091 953.239 -206.448 -147.327
internal_count=2983 1783 1004 779 558 254 43 1200 304
cat_boundaries=0 1 2 3 4
cat_threshold=345 4 10920 1
shrinkage=0.0603021


Tree=29
num_leaves=10
num_cat=4
split_feature=5 6 5 4 5 10 9 3 1
split_gain=6.89324e+07 4.86648e+07 2.71258e+07 1.35366e+07 1.2668e+07 1.1392e+07 1.03508e+07 1.47172e+07 9.77427e+06
threshold=123.98750000000001 0 198.22680000000003 1 59.607500000000009 2 3 0.044480850500000009 8.3600000000000012
decision_type=2 1 2 1 2 1 1 2 2
left_child=4 8 -3 6 -1 -6 -4 -8 -2
right_child=1 2 3 -5 5 -7 7 -9 -10
leaf_value=-19.754953131418368 -18.1145351289979 8.4801882870619796 -16.790892191787695 35.788502575789423 -25.159810214876096 -4.5290478968658272 54.080741073404617 -3.0653309479233037 -1.3494805408475914
leaf_count=391 191 776 38 244 108 817 29 36 353
internal_value=0 126.154 243.807 478.395 -180.002 -116.213 121.544 375.728 -119.016
internal_count=2983 1667 1123 347 1316 925 103 65 544
cat_boundaries=0 1 2 3 4
cat_threshold=550 8213 4 1
shrinkage=0.0596991


Tree=30
num_leaves=10
num_cat=4
split_feature=5 6 5 6 1 6 4 1 1
split_gain=1.03761e+08 3.90324e+07 1.59929e+07 1.55067e+07 1.54091e+07 1.13422e+07 1.10431e+07 1.13067e+07 1.30441e+07
threshold=157.54460000000003 0 220.74690000000001 1 17.425000000000004 2 3 17.800000000000004 13.125000000000002
decision_type=2 1 2 1 2 1 1 2 2
left_child=3 2 -2 -1 -4 -3 7 8 -7
right_child=1 5 4 -5 -6 6 -8 -9 -10
leaf_value=7.0907814552346231 18.0047889082519 -11.302454059366029 47.94952860913957 -11.187006665374268 3.7421559944011227 -9.9093127402365386 13.772372410196763 -31.872128110588605 23.841153118570205
leaf_count=177 367 138 145 1581 34 104 332 40 65
internal_value=0 220.57 416.536 -158.54 669.225 56.0299 121.429 -58.3913 51.9717
internal_count=2983 1225 546 1758 179 679 541 209 169
cat_boundaries=0 1 2 3 4
cat_threshold=281 16 516 19042
shrinkage=0.0591021


Tree=31
num_leaves=10
num_cat=6
split_feature=10 10 1 1 4 7 4 4 4
split_gain=3.67978e+07 2.48728e+07 8.95678e+06 1.23772e+07 1.60794e+07 1.05543e+07 1.04673e+07 9.369e+06 8.44462e+06
threshold=0 1 18.050000000000004 12.725000000000003 2 2005.5000000000002 3 4 5
decision_type=1 1 2 2 1 2 1 1 1
left_child=8 -2 3 6 5 -5 -3 -4 -1
right_child=1 2 7 4 -6 -7 -8 -9 -10
leaf_value=29.957886941475163 -16.863724266068502 -6.7792001402805298 -22.47398644659474 24.743840688139183 -0.19218569264303845 1.0518924729096026 4.566449479535418 -2.4998501310960206 9.3254498425550345
leaf_count=124 355 691 102 220 423 91 454 317 206
internal_value=0 -41.8631 -3.80619 25.675 127.044 294.929 -39.3071 -136.014 312.226
internal_count=2983 2653 2298 1879 734 311 1145 419 330
cat_boundaries=0 1 2 3 4 5 6
cat_threshold=8 4 8280 13041 65 2061
shrinkage=0.058511


Tree=32
num_leaves=10
num_cat=2
split_feature=5 6 5 5 6 1 1 5 5
split_gain=9.0902e+07 3.2475e+07 1.43665e+07 1.42194e+07 1.36233e+07 1.31028e+07 1.01754e+07 1.16076e+07 9.60434e+06
threshold=157.54460000000003 0 220.74690000000001 76.432800000000015 1 17.425000000000004 9.8475000000000019 227.08910000000003 211.82310000000004
decision_type=2 1 2 2 1 2 2 2 2
left_child=3 2 -2 -1 -5 -4 8 -8 -3
right_child=1 6 5 4 -6 -7 7 -9 -10
leaf_value=-16.656745857808314 16.171918982453615 2.1244911616780926 43.77728776181349 12.722846107591989 -7.1932873351474234 3.8235376979299356 2.8712738526639456 24.140159348486499 -22.416697955812662
leaf_count=517 367 154 145 120 1121 34 326 117 82
internal_value=0 206.629 385.409 -148.214 -90.1654 624.734 56.3614 146.542 -110.53
internal_count=2983 1225 546 1758 1241 179 679 443 236
cat_boundaries=0 1 2
cat_threshold=281 16
shrinkage=0.0579259


Tree=33
num_leaves=10
num_cat=4
split_feature=5 6 5 5 10 1 10 4 5
split_gain=8.06607e+07 2.88217e+07 1.27503e+07 1.26258e+07 1.27762e+07 1.16288e+07 9.14231e+06 9.26117e+06 1.27028e+07
threshold=157.54460000000003 0 220.74690000000001 76.432800000000015 1 17.425000000000004 2 3 192.20040000000003
decision_type=2 1 2 2 1 2 1 1 2
left_child=3 2 -2 -1 -5 -4 -3 -8 -9
right_child=1 6 5 4 -6 -7 7 8 -10
leaf_value=-15.534969534896417 15.082794252274899 -10.085541160311974 40.829033262625707 12.915639134394528 -6.7723701659474607 3.5660352222089369 -2.6359977747862064 0.69886315302165747 23.667489863866425
leaf_count=517 367 138 145 120 1121 34 223 149 169
internal_value=0 194.66 363.084 -139.597 -84.8979 588.546 53.0966 112.483 218.182
internal_count=2983 1225 546 1758 1241 179 679 541 318
cat_boundaries=0 1 2 3 4
cat_threshold=281 8 4 23138
shrinkage=0.0573467


Tree=34
num_leaves=10
num_cat=5
split_feature=10 10 1 4 1 4 3 3 4
split_gain=2.73511e+07 1.96496e+07 7.74706e+06 1.07628e+07 1.18394e+07 8.50412e+06 8.31864e+06 9.71238e+06 7.52683e+06
threshold=0 1 18.050000000000004 2 11.925000000000002 3 0.032854486500000009 0.03635649450000001 4
decision_type=1 1 2 1 2 1 2 2 1
left_child=8 -2 3 -3 -5 -4 -6 -8 -1
right_child=1 2 5 4 6 -7 7 -9 -10
leaf_value=25.905670296658776 -14.473733412157365 -3.7817994540107773 -20.516087037583649 -0.43361345776013849 0.86298783827969816 -2.0741896101272439 49.610956902334912 13.554574330788503 7.2867160086330811
leaf_count=124 355 756 102 603 168 317 26 326 206
internal_value=0 -35.9775 -2.15178 25.2663 86.9378 -125.108 198.281 285.66 269.295
internal_count=2983 2653 2298 1879 1123 419 520 352 330
cat_boundaries=0 1 2 3 4 5
cat_threshold=8 4 4771 65 2061
shrinkage=0.0567732


Tree=35
num_leaves=10
num_cat=3
split_feature=5 6 5 6 4 3 3 5 5
split_gain=7.31426e+07 2.55294e+07 1.84165e+07 1.55978e+07 1.5573e+07 1.24874e+07 1.53973e+07 1.32684e+07 2.14693e+07
threshold=166.09870000000004 0 81.113100000000017 1 2 0.073672846500000014 0.08632360800000001 198.22680000000003 186.83980000000005
decision_type=2 1 2 1 1 2 2 2 2
left_child=2 -2 -1 -4 -3 7 -7 8 -6
right_child=1 4 3 -5 5 6 -8 -9 -10
leaf_value=-14.364005551434888 0.38257179689977455 9.3191450054693608 -12.88364150702632 1.2411943027410277 41.601280676326866 -15.854069828537787 25.96281058932653 48.544199863757242 -7.9703377034368188
leaf_count=557 377 346 316 1017 69 39 97 119 46
internal_value=0 222.136 -102.855 -39.0455 330.799 476.667 248.574 629.605 387.376
internal_count=2983 1093 1890 1333 716 370 136 234 115
cat_boundaries=0 1 2 3
cat_threshold=646 518 29336
shrinkage=0.0562055


Tree=36
num_leaves=10
num_cat=3
split_feature=5 6 5 6 4 5 3 3 3
split_gain=6.52155e+07 2.27578e+07 1.63904e+07 1.39415e+07 1.38418e+07 1.23986e+07 1.11232e+07 1.37151e+07 1.25763e+07
threshold=166.09870000000004 0 81.113100000000017 1 2 256.3830000000001 0.073672846500000014 0.08632360800000001 0.015668748000000003
decision_type=2 1 2 1 1 2 2 2 2
left_child=2 -2 -1 -4 5 -3 8 -8 -6
right_child=1 4 3 -5 6 -7 7 -9 -10
leaf_value=-13.421103149268003 0.35800853420279771 5.788157740755385 -12.059905719074589 1.1603905769555456 8.6287117486020186 43.79915079033352 -14.813354752928399 24.258523197985973 39.874211162483093
leaf_count=557 377 317 316 1017 51 29 39 97 183
internal_value=0 209.739 -97.1355 -36.9382 312.335 156.748 449.876 234.603 594.218
internal_count=2983 1093 1890 1333 716 346 370 136 234
cat_boundaries=0 1 2 3
cat_threshold=646 518 29336
shrinkage=0.0556434


Tree=37
num_leaves=10
num_cat=4
split_feature=5 6 5 6 2 10 3 3 3
split_gain=5.81843e+07 2.02943e+07 1.46048e+07 1.25425e+07 6.35501e+06 5.9296e+06 8.50424e+06 5.85338e+06 6.66382e+06
threshold=166.09870000000004 0 81.113100000000017 1 2 3 0.040221080000000006 0.062601987500000011 0.12752966350000003
decision_type=2 1 2 1 1 1 2 2 2
left_child=2 5 -1 -4 -5 -2 -7 -8 -9
right_child=1 -3 3 4 -6 6 7 8 -10
leaf_value=-12.547563984218744 -8.9056823159921379 16.248198643880158 -9.3559460088356321 -1.7114639071562447 7.8281775727616036 -6.6972341652662397 33.061441704579153 -0.70770371799489673 31.097642874704849
leaf_count=557 135 716 445 558 330 101 37 77 27
internal_value=0 198.072 -91.7883 -34.9646 34.1527 6.08522 99.9168 258.574 137.046
internal_count=2983 1093 1890 1333 888 377 242 141 104
cat_boundaries=0 1 2 3 4
cat_threshold=646 550 21 4
shrinkage=0.055087


Tree=38
num_leaves=10
num_cat=4
split_feature=5 5 6 4 5 5 4 10 5
split_gain=5.20134e+07 1.95174e+07 1.81322e+07 1.62415e+07 1.42048e+07 1.32953e+07 1.23716e+07 1.43385e+07 1.08565e+07
threshold=166.09870000000004 263.85810000000009 0 1 256.3830000000001 98.688400000000016 2 3 188.83720000000002
decision_type=2 2 1 1 2 2 1 1 2
left_child=5 2 3 -2 -5 -1 7 8 -4
right_child=1 -3 6 4 -6 -7 -8 -9 -10
leaf_value=-9.911190649754456 5.4318671963992431 63.594099978233658 -3.9869229557054253 28.423771859518737 -17.06945340599691 -0.6921302516193778 -6.8475810133407213 -2.8528616288171089 33.488270216447873
leaf_count=828 272 20 31 283 22 1062 256 120 89
internal_value=0 187.309 169.065 287.392 446.385 -86.7491 25.1152 184.43 436.54
internal_count=2983 1093 1073 577 305 1890 496 240 120
cat_boundaries=0 1 2 3 4
cat_threshold=121 12952 13025 1
shrinkage=0.0545361


Tree=39
num_leaves=10
num_cat=4
split_feature=6 1 4 3 4 1 4 1 3
split_gain=2.44766e+07 5.02015e+06 9.15399e+06 1.02182e+07 4.89701e+06 3.98789e+06 4.2704e+06 9.4998e+06 3.93567e+06
threshold=0 5.6225000000000014 1 0.0106318505 2 5.8825000000000012 3 6.392500000000001 0.092147634500000006
decision_type=1 2 1 2 1 2 1 2 2
left_child=-1 2 -2 -4 8 -3 -7 -8 -5
right_child=1 5 3 4 -6 6 7 -9 -10
leaf_value=-8.0113013436605023 -4.6970140728987095 -14.526397242390058 -16.511232229191194 3.2889080095177405 26.358885913831152 5.0859006139920844 32.726398434299426 -1.0401423912768823 26.191025355078278
leaf_count=707 100 40 27 89 113 1001 25 852 29
internal_value=0 63.3972 172.382 265.979 344.327 43.3855 50.0402 -1.42079 152.262
internal_count=2983 2276 358 258 231 1918 1878 877 118
cat_boundaries=0 1 2 3 4
cat_threshold=518 674 2072 8426
shrinkage=0.0539908


Tree=40
num_leaves=10
num_cat=3
split_feature=5 10 10 5 4 5 5 3 3
split_gain=5.18239e+07 3.62502e+07 2.42018e+07 1.39596e+07 1.25948e+07 1.08405e+07 1.06912e+07 1.14417e+07 1.13972e+07
threshold=177.15410000000003 0 1 59.607500000000009 2 239.26960000000005 255.30140000000003 0.055463981500000002 0.015949533500000005
decision_type=2 1 1 2 1 2 2 2 2
left_child=3 5 4 -1 6 -2 7 8 -3
right_child=1 2 -4 -5 -6 -7 -8 -9 -10
leaf_value=-13.148997223027248 31.84969477172632 -13.455616893481023 -7.9091770905263763 -1.8617860621627718 18.484113669852444 73.011749262968991 -26.32367410719452 -5.5746188746634422 31.59336851376754
leaf_count=385 68 21 211 1675 401 25 32 97 68
internal_value=0 210.842 144.504 -74.298 244.201 802.883 39.6073 133.279 392.208
internal_count=2983 923 830 2060 619 93 218 186 89
cat_boundaries=0 1 2 3
cat_threshold=8 1 17969
shrinkage=0.0534508


Tree=41
num_leaves=10
num_cat=4
split_feature=5 10 10 6 5 3 4 3 5
split_gain=4.65009e+07 3.24554e+07 2.17187e+07 1.46078e+07 1.23054e+07 1.13597e+07 1.70603e+07 1.19593e+07 1.06863e+07
threshold=177.15410000000003 0 1 2 53.944300000000005 0.070126256500000012 3 0.091064719000000016 198.22680000000003
decision_type=2 1 1 1 2 2 1 2 2
left_child=3 -2 5 4 -1 -3 -7 8 -8
right_child=1 2 -4 -5 -6 6 7 -9 -10
leaf_value=-12.640466057124742 40.214723553457041 17.589068671444782 -7.4115606468320152 -8.638226307601391 2.6455091084874001 17.289156045614416 -6.3826429546828383 1.2514775025306915 -58.593061592917429
leaf_count=174 93 398 211 919 967 104 21 73 23
internal_value=0 199.772 137.003 -70.3267 5.89042 231.447 49.6511 -206.881 -636.372
internal_count=2983 923 830 2060 1141 619 221 117 44
cat_boundaries=0 1 2 3 4
cat_threshold=8 1 433 202
shrinkage=0.0529163


Tree=42
num_leaves=10
num_cat=3
split_feature=6 1 4 4 3 3 3 3 3
split_gain=3.55631e+07 8.2657e+06 8.34328e+06 6.94595e+06 5.16936e+06 6.01269e+06 5.35045e+06 4.08486e+06 5.55274e+06
threshold=0 1.0000000180025095e-35 1 2 0.015949533500000005 0.032166737500000007 0.13794972550000004 0.070126256500000012 0.047633911500000008
decision_type=1 2 1 1 2 2 2 2 2
left_child=-1 2 -2 -3 -4 -6 7 8 -7
right_child=1 3 4 -5 5 6 -8 -9 -10
leaf_value=-7.1840348101751585 -0.65853921364646084 -4.0849813579585881 36.397363239148341 4.8173131911203377 -1.2103232621101743 30.357142961531562 -4.4183071471252351 33.691044788159864 2.52372745289692
leaf_count=1029 110 288 35 1310 50 37 22 60 42
internal_value=0 91.6465 229.913 61.4173 325.615 279.812 373.885 446.41 297.012
internal_count=2983 1954 356 1598 246 211 161 139 79
cat_boundaries=0 1 2 3
cat_threshold=526 1122 17413
shrinkage=0.0523872


Tree=43
num_leaves=10
num_cat=3
split_feature=5 6 1 5 5 6 3 4 3
split_gain=4.19037e+07 2.64268e+07 2.02444e+07 1.5426e+07 1.16905e+07 1.24895e+07 1.09964e+07 1.04303e+07 1.02713e+07
threshold=177.15410000000003 0 5.7425000000000006 239.26960000000005 62.836500000000008 1 0.0097388080000000016 2 0.014288059000000001
decision_type=2 1 2 2 2 1 2 1 2
left_child=4 6 3 -3 -1 -6 -2 8 -4
right_child=1 2 7 -5 5 -7 -8 -9 -10
leaf_value=-11.160949041614066 29.463996315884884 25.314734397916322 -28.756785819657136 71.282858898077436 -7.7580583967791492 1.7538771134334816 -5.0866659440547544 19.613675883062026 7.5860803292496923
leaf_count=425 27 72 23 27 554 1081 301 242 231
internal_value=0 188.958 311.72 729.832 -67.4427 -29.035 -41.9605 234.551 79.6805
internal_count=2983 923 595 99 2060 1635 328 496 254
cat_boundaries=0 1 2 3
cat_threshold=526 526 3733
shrinkage=0.0518633


Tree=44
num_leaves=10
num_cat=3
split_feature=5 6 1 5 6 5 3 4 5
split_gain=3.77448e+07 2.38024e+07 1.81683e+07 1.38674e+07 1.07342e+07 1.00124e+07 9.88532e+06 9.42997e+06 9.36177e+06
threshold=177.15410000000003 0 5.7425000000000006 239.26960000000005 1 53.944300000000005 0.0097388080000000016 2 255.30140000000003
decision_type=2 1 2 2 1 2 2 1 2
left_child=4 6 3 -3 5 -1 -2 8 -4
right_child=1 2 7 -5 -6 -7 -8 -9 -10
leaf_value=-11.264881022585977 27.65653667803943 23.761810087099782 7.8407678643175256 66.91003595203702 -7.374233661536616 2.1139796404382665 -4.7746260571237329 18.450443621006997 -21.477482654162923
leaf_count=174 27 72 221 27 919 967 301 242 33
internal_value=0 179.37 295.877 691.98 -63.974 1.42356 -39.7843 222.781 75.548
internal_count=2983 923 595 99 2060 1141 328 496 254
cat_boundaries=0 1 2 3
cat_threshold=526 433 3733
shrinkage=0.0513447


Tree=45
num_leaves=10
num_cat=3
split_feature=5 1 4 3 5 5 5 4 8
split_gain=3.8193e+07 1.30216e+07 1.76082e+07 2.28803e+07 1.42054e+07 1.25233e+07 8.25061e+06 7.61914e+06 7.8939e+06
threshold=198.22680000000003 14.425000000000002 0 0.030695790500000004 246.37890000000002 117.94530000000002 211.82310000000004 1 2
decision_type=2 2 1 2 2 2 2 1 9
left_child=5 2 3 -2 6 -1 -4 -7 -9
right_child=1 -3 4 -5 -6 7 -8 8 -10
leaf_value=-6.5873430169647937 63.153046876625908 23.863970176520095 17.629862888700487 11.01772735343007 15.96452553060511 -6.7649630310399731 -14.610526023028314 9.3084623294330093 -0.35266470184789689
leaf_count=1180 29 169 24 87 82 269 141 322 680
internal_value=0 240.184 133.435 435.612 -25.0984 -55.4067 -195.176 13.4675 53.6051
internal_count=2983 532 363 116 247 2451 165 1271 1002
cat_boundaries=0 1 2 3
cat_threshold=2612 33799 1
shrinkage=0.0508312


Tree=46
num_leaves=10
num_cat=4
split_feature=5 5 6 5 4 5 6 5 4
split_gain=3.44157e+07 1.12737e+07 1.0937e+07 1.44325e+07 1.28143e+07 1.02515e+07 8.78763e+06 1.41562e+07 8.84468e+06
threshold=198.22680000000003 117.94530000000002 0 252.98820000000003 1 211.82310000000004 2 194.59650000000002 3
decision_type=2 2 1 2 1 2 1 2 1
left_child=1 -1 5 4 -4 -2 8 -8 -3
right_child=2 6 3 -5 -6 -7 7 -9 -10
leaf_value=-6.1899753686214236 33.976879181342426 -8.335868572353295 -0.56019505788113877 37.316082098100885 23.426615648329204 -0.74939041658879402 -1.8887968294628816 -34.047664556074558 6.9493321670993504
leaf_count=1180 24 107 118 75 106 209 549 37 578
internal_value=0 -52.6179 227.975 350.133 234.715 53.8761 12.7297 -76.5764 88.9482
internal_count=2983 2451 532 299 224 233 1271 586 685
cat_boundaries=0 1 2 3 4
cat_threshold=583 77 339 9219
shrinkage=0.0503229


Tree=47
num_leaves=10
num_cat=6
split_feature=10 4 2 6 1 1 6 9 1
split_gain=1.13499e+07 9.20274e+06 1.14433e+07 1.20505e+07 6.07419e+06 5.25895e+06 5.66306e+06 4.74273e+06 5.37367e+06
threshold=0 1 2 3 20.550000000000004 7.4800000000000013 4 5 6.682500000000001
decision_type=1 1 1 1 2 2 1 1 2
left_child=-1 -2 3 -3 5 7 -7 -5 -9
right_child=1 2 -4 4 -6 6 -8 8 -10
leaf_value=-8.2472634387438557 -3.0419435381898956 11.774708077020918 -11.881726117327158 -16.196249209949023 -16.617364867255866 7.5538556007543383 0.0021350088841133445 7.8280697108070179 -14.040874234518018
leaf_count=373 893 390 108 64 43 500 487 83 42
internal_value=0 20.9445 63.5793 85.2031 35.3175 49.1053 78.3683 -103.712 9.63685
internal_count=2983 2610 1717 1609 1219 1176 987 189 125
cat_boundaries=0 1 2 3 4 5 6
cat_threshold=4 42119 3 272 97 4
shrinkage=0.0498197


Tree=48
num_leaves=10
num_cat=2
split_feature=5 1 4 3 3 5 5 5 10
split_gain=3.09732e+07 1.18895e+07 1.61375e+07 1.82559e+07 1.12933e+07 1.02156e+07 1.01298e+07 6.55125e+06 7.06233e+06
threshold=198.22680000000003 13.725000000000003 0 0.031272346500000006 0.013540664500000002 246.37890000000002 117.94530000000002 194.59650000000002 1
decision_type=2 2 1 2 2 2 2 2 1
left_child=6 2 3 -2 -3 -4 -1 -8 -9
right_child=1 4 5 -5 -6 -7 7 8 -10
leaf_value=-5.7427544327256399 52.756379655960352 -14.590042619891834 -10.465851697996326 8.677913374573162 24.567700383369459 11.40971813066637 1.4772503073071379 -25.842573251598552 5.7064667320435252
leaf_count=1180 32 20 148 80 172 80 1198 45 28
internal_value=0 216.476 104.135 395.936 415.413 -54.195 -49.7145 12.2291 -278.612
internal_count=2983 532 340 112 192 228 2451 1271 73
cat_boundaries=0 1 2
cat_threshold=2612 1
shrinkage=0.0493215


Tree=49
num_leaves=10
num_cat=3
split_feature=5 1 4 5 5 9 1 4 5
split_gain=2.79932e+07 1.07456e+07 1.45849e+07 9.30046e+06 9.24819e+06 9.17555e+06 8.33573e+06 8.09152e+06 7.10121e+06
threshold=198.22680000000003 13.725000000000003 0 140.29960000000003 243.79860000000005 1 7.972500000000001 2 213.40600000000003
decision_type=2 2 1 2 2 1 2 1 2
left_child=3 2 -2 -1 8 -6 -7 -5 -4
right_child=1 -3 4 7 5 6 -8 -9 -10
leaf_value=-4.8216543500866873 18.379365408637874 19.283449947587965 9.6265076729207326 -5.3784911956656156 28.922205128458788 -28.263640058040512 10.508681917733384 4.0950809621172137 -17.029209919612537
leaf_count=1443 112 192 31 297 35 20 39 711 103
internal_value=0 205.799 98.9987 -47.2625 -51.522 186.682 -53.954 26.4402 -222.465
internal_count=2983 532 340 2451 228 94 59 1008 134
cat_boundaries=0 1 2 3
cat_threshold=2612 2 32903
shrinkage=0.0488283


Tree=50
num_leaves=10
num_cat=3
split_feature=6 4 6 1 1 3 3 3 3
split_gain=1.5412e+07 1.16315e+07 7.96463e+06 6.44499e+06 5.98721e+06 5.12892e+06 6.24785e+06 4.57487e+06 7.38089e+06
threshold=0 1 2 17.925000000000004 20.550000000000004 0.0073153055000000008 0.015331054500000002 0.028552082000000006 0.05374817350000001
decision_type=1 1 1 2 2 2 2 2 2
left_child=4 -2 5 7 -1 -3 -7 -4 -9
right_child=1 2 3 -5 -6 6 -8 8 -10
leaf_value=-4.4386884010795224 8.180724920599447 -13.812842515920824 -7.1468387691981867 -11.279985153431829 -28.873224810857344 28.215025125432586 4.9920041293162454 8.8568572673045747 -2.5838702099008954
leaf_count=992 558 31 196 165 24 29 407 202 379
internal_value=0 48.3033 -0.443131 -53.2855 -102.751 105.029 135.223 -15.7343 28.8333
internal_count=2983 1967 1409 942 1016 467 436 777 581
cat_boundaries=0 1 2 3
cat_threshold=549 38532 272
shrinkage=0.04834


Tree=51
num_leaves=10
num_cat=5
split_feature=6 4 6 6 3 3 3 3 2
split_gain=1.41047e+07 8.06677e+06 7.62231e+06 7.32738e+06 6.18082e+06 9.99825e+06 5.19524e+06 4.67987e+06 4.61018e+06
threshold=0 1 2 3 0.024217837500000002 0.037390187000000005 0.013540664500000002 0.0073153055000000008 4
decision_type=1 1 1 1 2 2 2 2 1
left_child=-1 2 4 7 6 -6 -2 -3 -5
right_child=1 3 -4 8 5 -7 -8 -9 -10
leaf_value=-6.0488569435715043 1.3391168149849957 -10.526306098168742 10.679652293264654 1.0992094485328954 -18.968495849228145 2.0185375593936601 21.7204046344415 4.5770571110030671 -6.2299915539058599
leaf_count=699 61 51 355 319 64 277 54 597 506
internal_value=0 34.9821 114.477 -9.26253 26.8927 -40.1278 227.962 69.7265 -71.3968
internal_count=2983 2284 811 1473 456 341 115 648 825
cat_boundaries=0 1 2 3 4 5
cat_threshold=517 40580 360 280 10
shrinkage=0.0478566


Tree=52
num_leaves=10
num_cat=2
split_feature=5 1 10 4 5 7 5 1 1
split_gain=1.14363e+07 9.39473e+06 1.02441e+07 8.15071e+06 1.10171e+07 1.70265e+07 7.28696e+06 6.90312e+06 6.40099e+06
threshold=108.94250000000001 18.925000000000004 0 1 220.74690000000001 1998.5000000000002 197.52810000000002 5.3225000000000007 7.4800000000000013
decision_type=2 2 1 1 2 2 2 2 2
left_child=-1 2 -2 -4 7 8 -3 -5 -6
right_child=1 6 3 4 5 -7 -8 -9 -10
leaf_value=-4.107421727840844 -6.2950434961837152 -2.3622019111998416 0.52172633468514795 15.275492539635612 23.646857195040429 5.1885162185376803 -22.841634932126755 2.8918473771636859 52.489592285354234
leaf_count=1055 223 156 649 123 39 89 52 566 31
internal_value=0 42.8115 67.0863 96.8725 160.561 399.727 -157.923 107.699 768.712
internal_count=2983 1928 1720 1497 848 159 208 689 70
cat_boundaries=0 1 2
cat_threshold=4 8531
shrinkage=0.047378


Tree=53
num_leaves=10
num_cat=3
split_feature=6 5 4 5 3 5 3 3 6
split_gain=1.21395e+07 1.34928e+07 1.10455e+07 1.82496e+07 2.28875e+07 1.57766e+07 1.09934e+07 1.52781e+07 9.92594e+06
threshold=0 108.94250000000001 1 220.74690000000001 0.063134622500000015 238.00640000000001 0.14114052000000002 0.15901831900000005 2
decision_type=1 2 1 2 2 2 2 2 1
left_child=-1 -2 3 -3 5 -5 8 -8 -4
right_child=1 2 6 4 -6 -7 7 -9 -10
leaf_value=-5.4969505073867975 -3.3173348689709869 5.8470793400821526 -7.9459883554903348 82.732412200373631 5.4982467332711593 26.501886914596536 47.778373612435345 0.86140536351062991 2.9164418305530608
leaf_count=699 813 404 244 21 44 23 26 37 672
internal_value=0 32.5183 89.8008 210.273 627.208 1137.19 26.8353 431.176 -0.68121
internal_count=2983 2284 1471 492 88 44 979 63 916
cat_boundaries=0 1 2 3
cat_threshold=517 40580 130
shrinkage=0.0469042


Tree=54
num_leaves=10
num_cat=2
split_feature=6 5 6 5 3 3 5 5 3
split_gain=1.13159e+07 1.4861e+07 2.06414e+07 1.2877e+07 1.47495e+07 1.07508e+07 1.36487e+07 7.99643e+06 7.86163e+06
threshold=0 190.83460000000002 1 246.37890000000002 0.064216457500000004 0.056504589000000015 213.40600000000003 44.775700000000008 0.022976495000000003
decision_type=1 2 1 2 2 2 2 2 2
left_child=-1 7 3 5 -5 -3 -7 -2 -4
right_child=1 2 8 4 -6 6 -8 -9 -10
leaf_value=-4.0836447451993934 -11.838837897070142 47.753064732890103 15.492019741767717 -25.130131293903528 28.157647020083949 44.414689539597767 -2.5665263657335395 0.74480715765282046 -2.582549061815111
leaf_count=1016 118 53 68 21 24 24 30 1410 219
internal_value=0 41.4912 203.865 487.593 70.8518 708.428 394.399 -4.88781 35.376
internal_count=2983 1967 439 152 45 107 54 1528 287
cat_boundaries=0 1 2
cat_threshold=549 272
shrinkage=0.0464352


Tree=55
num_leaves=10
num_cat=2
split_feature=5 4 3 5 5 3 4 1 5
split_gain=1.48091e+07 1.04859e+07 9.33444e+06 1.08596e+07 1.1934e+07 1.10691e+07 8.25973e+06 9.45524e+06 8.03199e+06
threshold=181.38050000000001 0 0.15377382800000003 186.83980000000005 245.29600000000002 0.022307389500000004 1 6.7125000000000012 45.523100000000007
decision_type=2 1 2 2 2 2 1 2 2
left_child=6 -2 3 -3 -5 -6 7 -1 -8
right_child=1 2 -4 4 5 -7 8 -9 -10
leaf_value=3.6758036458842018 -0.68663343888029771 28.737301991017183 38.521105557344171 0.91161647751980313 50.409012896780602 11.567717794497977 -10.184753100587217 -11.517853249973497 0.31765324095676134
leaf_count=115 375 49 23 273 20 69 171 350 1538
internal_value=0 109.84 213.087 183.304 123.5 441.499 -48.6446 -165.255 -15.8565
internal_count=2983 809 434 411 362 89 2174 465 1709
cat_boundaries=0 1 2
cat_threshold=11888 265
shrinkage=0.0459708


Tree=56
num_leaves=10
num_cat=2
split_feature=5 6 3 5 4 5 3 3 3
split_gain=1.34773e+07 1.1115e+07 1.19761e+07 1.06983e+07 1.00201e+07 9.05982e+06 2.20825e+07 1.88091e+07 1.36357e+07
threshold=181.38050000000001 0 0.013540664500000002 185.29110000000003 1 243.79860000000005 0.11936261050000001 0.083709897000000019 0.031674370500000007
decision_type=2 1 2 2 1 2 2 2 2
left_child=-1 2 -2 -4 -3 6 -6 8 -7
right_child=1 4 3 -5 5 7 -8 -9 -10
leaf_value=-2.1120983942804505 -24.031259748422169 -0.30772208411488922 28.437443167373605 -1.1067603458220536 4.9593135255997636 15.234252959584612 48.023065980862484 -9.1611035673282419 62.083404174630836
leaf_count=2174 43 158 28 272 207 22 28 20 31
internal_value=0 104.782 -33.4964 36.2702 202.926 307.323 221.711 625.022 936.839
internal_count=2983 809 343 300 466 308 235 73 53
cat_boundaries=0 1 2
cat_threshold=902 10848
shrinkage=0.0455111


Tree=57
num_leaves=10
num_cat=1
split_feature=5 6 3 5 1 1 5 3 3
split_gain=1.22778e+07 1.01258e+07 1.10622e+07 1.19574e+07 1.16925e+07 1.07146e+07 7.46947e+06 2.01436e+07 1.21689e+07
threshold=181.38050000000001 0 0.018813688500000005 185.29110000000003 15.050000000000002 19.800000000000004 246.37890000000002 0.117363061 0.11832156750000002
decision_type=2 1 2 2 2 2 2 2 2
left_child=-1 2 -2 -4 -5 6 8 -8 -3
right_child=1 5 3 4 -6 -7 7 -9 -10
leaf_value=-1.9958146660039888 -18.879977148043949 4.6396996358266813 32.027803868784225 -7.4879611586132544 12.821032259743683 -17.131469027266469 33.007302895045818 -18.029799613568461 31.678279360197553
leaf_count=2174 61 305 25 170 87 30 73 20 38
internal_value=0 100.009 -31.972 50.6203 -13.6038 193.684 237.615 488.982 169.461
internal_count=2983 809 343 282 257 466 436 93 343
cat_boundaries=0 1
cat_threshold=902
shrinkage=0.045056


Tree=58
num_leaves=10
num_cat=2
split_feature=5 6 3 1 4 1 1 5 5
split_gain=1.11964e+07 9.23387e+06 1.01199e+07 9.77083e+06 9.15562e+06 1.53162e+07 1.19124e+07 9.16285e+06 8.87988e+06
threshold=181.38050000000001 0 0.013540664500000002 19.800000000000004 1 15.65 5.7825000000000015 241.90250000000003 185.29110000000003
decision_type=2 1 2 2 1 2 2 2 2
left_child=-1 2 -2 4 5 6 -3 -7 -4
right_child=1 3 8 -5 -6 7 -8 -9 -10
leaf_value=-1.8868322651492475 -21.638962115671678 26.04410851805326 25.41775368724003 -16.195996809786983 1.77153433090306 22.808364315729673 2.4252888174713023 59.354131122507049 -0.96309376945090874
leaf_count=2174 43 62 28 30 179 39 135 21 272
internal_value=0 95.5032 -30.5314 184.957 226.909 342.421 221.018 798.095 33.6084
internal_count=2983 809 343 466 436 257 197 60 300
cat_boundaries=0 1 2
cat_threshold=902 159
shrinkage=0.0446055


Tree=59
num_leaves=10
num_cat=3
split_feature=6 5 7 1 5 4 5 1 4
split_gain=1.05239e+07 1.05928e+07 1.56419e+07 1.78668e+07 8.99929e+06 8.2297e+06 7.45212e+06 8.65533e+06 1.18212e+07
threshold=0 226.12330000000003 2003.0000000000002 14.125000000000002 246.37890000000002 1 53.048200000000008 5.5050000000000008 2
decision_type=1 2 2 2 2 1 2 2 1
left_child=5 6 -3 -4 -5 -1 -2 8 -8
right_child=1 2 3 4 -6 -7 7 -9 -10
leaf_value=-9.8248811510348517 -7.6220394859300864 22.101654778464862 -13.975515868906314 40.488669137317828 1.8335706674078436 -1.1546495648617547 -1.427263028724451 -0.12954306958870465 15.916858314090568
leaf_count=306 197 115 75 23 24 688 144 1251 160
internal_value=0 37.2841 235.89 -13.5349 469.886 -88.2038 10.6307 33.8442 185.189
internal_count=2983 1989 237 122 47 994 1752 1555 304
cat_boundaries=0 1 2 3
cat_threshold=645 2072 3666
shrinkage=0.0441594


Tree=60
num_leaves=10
num_cat=2
split_feature=5 5 3 10 3 5 5 4 5
split_gain=1.82318e+07 9.54982e+06 8.50312e+06 6.56613e+06 5.98256e+06 1.57873e+07 8.06639e+06 6.23917e+06 9.14784e+06
threshold=115.94790000000002 263.85810000000009 1.0000000180025095e-35 0 0.032854486500000009 251.85530000000003 240.78800000000004 1 191.36880000000002
decision_type=2 2 2 1 2 2 2 1 2
left_child=-1 2 -2 -4 5 6 -5 -6 -9
right_child=1 -3 3 4 7 -7 -8 8 -10
leaf_value=-3.5289196389963458 15.507751098165427 31.522354407678296 -4.5443667509277548 -0.56053203162859422 0.18540984387442297 -37.855506486836809 25.074183197987946 4.2012665863949685 14.596131315271782
leaf_count=1122 101 23 223 381 340 21 25 510 237
internal_value=0 80.6679 72.6546 56.2533 79.8496 -20.4459 23.2848 119.248 169.271
internal_count=2983 1861 1838 1737 1514 427 406 1087 747
cat_boundaries=0 1 2
cat_threshold=4 7297
shrinkage=0.0437178


Tree=61
num_leaves=10
num_cat=3
split_feature=5 6 5 4 5 6 5 3 5
split_gain=1.66728e+07 1.33329e+07 1.02594e+07 9.80365e+06 1.50565e+07 1.32538e+07 1.86682e+07 1.08079e+07 9.04143e+06
threshold=115.94790000000002 0 263.85810000000009 1 198.22680000000003 2 251.85530000000003 0.026062021500000004 149.55630000000002
decision_type=2 1 2 1 2 1 2 2 2
left_child=-1 -2 3 8 -5 6 7 -6 -3
right_child=1 2 -4 4 5 -7 -8 -9 -10
leaf_value=-3.3408965725586381 -3.3200742265048575 10.171742306644957 35.391479580511444 4.2524562976400286 59.064848117370772 3.9058251503274084 -2.192051641854075 27.435962459627842 -4.2497305332729089
leaf_count=1122 430 109 21 735 28 112 31 73 322
internal_value=0 77.1423 123.05 113.576 167.99 384.945 583.92 836.503 -13.6059
internal_count=2983 1861 1431 1410 979 244 132 101 431
cat_boundaries=0 1 2 3
cat_threshold=644 13377 305
shrinkage=0.0432806


Tree=62
num_leaves=10
num_cat=3
split_feature=5 6 5 4 5 6 5 3 1
split_gain=1.52614e+07 1.2217e+07 9.3898e+06 8.97746e+06 1.37975e+07 1.21094e+07 1.70873e+07 1.00958e+07 1.13592e+07
threshold=115.94790000000002 0 263.85810000000009 1 198.22680000000003 2 251.85530000000003 0.047190454000000007 9.7475000000000023
decision_type=2 1 2 1 2 1 2 2 2
left_child=-1 -2 3 -3 -5 6 7 8 -6
right_child=1 2 -4 4 5 -7 -8 -9 -10
leaf_value=-3.1643374253460581 -3.1478486566632373 -0.55775287754086389 33.521117455191373 4.0277232285914524 73.718055425701706 3.7131285376645815 -2.0762052316226773 22.861267289603727 29.100888980014812
leaf_count=1122 430 431 21 735 20 112 31 59 22
internal_value=0 73.8067 117.751 108.688 160.759 368.444 558.648 800.298 1175.02
internal_count=2983 1861 1431 1410 979 244 132 101 42
cat_boundaries=0 1 2 3
cat_threshold=644 13377 305
shrinkage=0.0428478


Tree=63
num_leaves=10
num_cat=3
split_feature=5 6 5 4 5 6 5 3 5
split_gain=1.39816e+07 1.1204e+07 8.60177e+06 8.22962e+06 1.26551e+07 1.10739e+07 1.56543e+07 9.29406e+06 8.27573e+06
threshold=115.94790000000002 0 263.85810000000009 1 198.22680000000003 2 251.85530000000003 0.026062021500000004 149.55630000000002
decision_type=2 1 2 1 2 1 2 2 2
left_child=-1 -2 3 8 -5 6 7 -6 -3
right_child=1 2 -4 4 5 -7 -8 -9 -10
leaf_value=-2.9984649226071296 -2.9858751471782914 9.5615053513104851 31.763961400500261 3.816592567054232 53.270802090132626 3.5313994083047207 -1.9673719703818646 24.524164229996078 -3.9612304581404501
leaf_count=1122 430 109 21 735 28 112 31 73 322
internal_value=0 70.6443 112.728 104.053 153.909 352.809 534.711 766.007 -12.472
internal_count=2983 1861 1431 1410 979 244 132 101 431
cat_boundaries=0 1 2 3
cat_threshold=644 13377 305
shrinkage=0.0424194


Tree=64
num_leaves=10
num_cat=3
split_feature=5 6 5 4 5 6 5 1 7
split_gain=1.28212e+07 1.02846e+07 7.88685e+06 7.54961e+06 1.1714e+07 1.11008e+07 1.65637e+07 1.44515e+07 7.768e+06
threshold=115.94790000000002 0 263.85810000000009 1 208.61250000000004 2 251.85530000000003 9.4075000000000006 2000.5000000000002
decision_type=2 1 2 1 2 1 2 2 2
left_child=-1 -2 3 8 -5 6 7 -6 -3
right_child=1 2 -4 4 5 -7 -8 -9 -10
leaf_value=-2.842559247712602 -2.833473965727062 -6.7446236791471268 30.112389683344709 3.7518348540247453 53.840829500020391 2.9951991660573114 -1.8650790013201737 19.504983718698856 4.587662263070805
leaf_count=1122 430 194 21 755 37 104 31 52 237
internal_value=0 67.6505 107.97 99.6646 147.416 349.743 540.09 804.365 -11.9429
internal_count=2983 1861 1431 1410 979 224 120 89 431
cat_boundaries=0 1 2 3
cat_threshold=644 13377 305
shrinkage=0.0419952


Tree=65
num_leaves=10
num_cat=3
split_feature=10 4 3 3 3 3 3 3 6
split_gain=1.28958e+07 1.24222e+07 1.15813e+07 1.42233e+07 6.57299e+06 7.04307e+06 6.21991e+06 8.0701e+06 4.62482e+06
threshold=0 1 0.073219394500000021 0.048859256000000011 0.022307389500000004 0.10421557700000002 0.079471710000000015 0.058432285000000007 2
decision_type=1 1 2 2 2 2 2 2 1
left_child=1 2 3 -1 -3 6 7 -6 -2
right_child=8 4 -4 -5 5 -7 -8 -9 -10
leaf_value=21.941665863314199 1.8305415995314427 -14.421821724422452 39.643988827174219 -17.227150259222025 11.9511822179606 -11.679904327782474 27.100442800546034 -12.097328456855127 -1.7734557143967231
leaf_count=59 953 36 36 22 83 35 27 34 1698
internal_value=0 197.574 443.697 271.874 41.0895 121.413 219.206 119.367 -11.4888
internal_count=2983 332 117 81 215 179 144 117 2651
cat_boundaries=0 1 2 3
cat_threshold=8 2059 321
shrinkage=0.0415752


Tree=66
num_leaves=10
num_cat=3
split_feature=10 4 3 3 3 3 3 3 4
split_gain=1.18458e+07 1.14108e+07 1.06383e+07 1.30653e+07 6.0378e+06 6.46961e+06 5.71347e+06 7.41301e+06 4.28698e+06
threshold=0 1 0.073219394500000021 0.048859256000000011 0.022307389500000004 0.10421557700000002 0.079471710000000015 0.058432285000000007 2
decision_type=1 1 2 2 2 2 2 2 1
left_child=1 2 3 -1 -3 6 7 -6 -2
right_child=8 4 -4 -5 5 -7 -8 -9 -10
leaf_value=20.819142055400526 -4.8891091499984949 -13.684009241473909 37.615824344107025 -16.345818384255288 11.339766308165423 -11.082366633725039 25.713998054293906 -11.478436070670419 0.16302712127723928
leaf_count=59 314 36 36 22 83 35 27 34 2337
internal_value=0 189.36 425.251 260.571 39.3812 116.366 210.093 114.405 -11.011
internal_count=2983 332 117 81 215 179 144 117 2651
cat_boundaries=0 1 2 3
cat_threshold=8 2059 9984
shrinkage=0.0411595


Tree=67
num_leaves=10
num_cat=3
split_feature=5 10 4 3 3 4 5 3 5
split_gain=1.13903e+07 1.49156e+07 1.22508e+07 1.60603e+07 1.14874e+07 5.62802e+06 8.49674e+06 8.37143e+06 1.09221e+07
threshold=108.94250000000001 0 1 0.070126256500000012 0.04516601650000001 2 248.82630000000003 0.117363061 257.83170000000001
decision_type=2 1 1 2 2 1 2 2 2
left_child=-1 2 3 4 -2 -3 -7 8 -8
right_child=1 5 -4 -5 -6 6 7 -9 -10
leaf_value=-3.0062673191596869 23.414892957118003 -4.709777466652362 1.7932015887940504 46.191255804302344 -12.835443937390473 1.010201056791354 31.140291974978368 -10.390148041478025 4.9643181630847506
leaf_count=1038 47 236 112 35 21 1364 48 23 59
internal_value=0 55.9511 304.358 531.577 299.891 25.0797 47.7536 292.352 410.005
internal_count=2983 1945 215 103 68 1730 1494 130 107
cat_boundaries=0 1 2 3
cat_threshold=8 2075 26368
shrinkage=0.0407479


Tree=68
num_leaves=10
num_cat=4
split_feature=6 4 5 8 3 3 3 5 4
split_gain=1.07194e+07 1.0334e+07 2.15899e+07 6.62022e+06 7.71126e+06 6.55071e+06 1.22239e+07 1.17629e+07 5.04531e+06
threshold=0 1 180.58050000000003 2 0.076840415000000009 0.018060937000000003 0.028969548000000001 184.7766 3
decision_type=1 1 2 9 2 2 2 2 1
left_child=1 2 -1 -4 -5 7 -7 -3 -2
right_child=8 5 3 4 -6 6 -8 -9 -10
leaf_value=3.063643028307609 0.31859122063766859 0.066048248560619346 13.549482257615864 23.573336673510159 54.664363655582683 17.438295571056134 0.37747621307430551 -29.455483280029426 -3.8253863715344636
leaf_count=205 1264 82 38 34 21 80 469 30 760
internal_value=0 96.8596 248.886 656.863 878.635 25.6333 70.9852 -194.384 -30.9517
internal_count=2983 959 298 93 55 661 549 112 2024
cat_boundaries=0 1 2 3 4
cat_threshold=336 3081 8 18678
shrinkage=0.0403404


Tree=69
num_leaves=10
num_cat=1
split_feature=5 8 3 5 1 5 3 1 3
split_gain=1.03378e+07 6.79456e+06 1.56995e+07 3.16314e+07 2.04763e+07 1.26812e+07 1.25448e+07 1.19812e+07 1.60054e+07
threshold=108.94250000000001 0 0.070126256500000012 177.15410000000003 11.050000000000002 145.89440000000005 0.050768671500000008 5.4025000000000007 0.032577136000000007
decision_type=2 9 2 2 2 2 2 2 2
left_child=-1 2 6 5 -5 -4 7 8 -2
right_child=1 -3 3 4 -6 -7 -8 -9 -10
leaf_value=-2.821731648668337 1.437139906927194 0.48025472554868492 13.396848767123988 44.673990870119987 8.8094084144621263 -12.802724408823767 -13.4290104894596 -1.2348859857656054 31.698804096940108
leaf_count=1038 63 1315 57 62 43 61 79 215 50
internal_value=0 52.9352 138.326 351.591 750.848 -3.68076 21.4766 107.638 371.266
internal_count=2983 1945 630 223 105 118 407 328 113
cat_boundaries=0 1
cat_threshold=1
shrinkage=0.039937


Tree=70
num_leaves=10
num_cat=1
split_feature=5 10 5 1 1 5 3 3 1
split_gain=4.91502e+06 3.93775e+06 3.67923e+06 7.36352e+06 7.49876e+06 7.15561e+06 6.01831e+06 4.07722e+06 4.52363e+06
threshold=44.775700000000008 0 256.3830000000001 7.0275000000000007 16.925000000000004 251.85530000000003 0.064688304000000016 0.087412170500000011 15.925000000000002
decision_type=2 1 2 2 2 2 2 2 2
left_child=-1 -2 5 -4 -5 7 -7 -3 -9
right_child=1 2 3 4 -6 6 -8 8 -10
leaf_value=-7.4232884866804305 -4.6441787341417005 -0.99573084169146087 -10.959355815794208 24.361350292782362 -3.6077835985304709 -0.8423140802022645 -30.117546125421512 5.0410843358878639 -2.7035512791307328
leaf_count=175 331 1765 24 43 23 21 23 413 165
internal_value=0 -15.0211 -1.33192 197.15 369.636 -8.81551 -408.352 -1.31247 71.5836
internal_count=2983 2808 2477 90 66 2387 44 2343 578
cat_boundaries=0 1
cat_threshold=4
shrinkage=0.0395376


Tree=71
num_leaves=10
num_cat=3
split_feature=4 5 5 10 5 1 6 5 5
split_gain=6.15526e+06 1.0964e+07 8.82876e+06 1.32582e+07 1.04118e+07 7.22464e+06 6.45226e+06 7.09691e+06 6.22893e+06
threshold=0 231.78000000000003 256.3830000000001 1 251.85530000000003 9.8475000000000019 2 239.26960000000005 162.87100000000001
decision_type=1 2 2 1 2 2 1 2 2
left_child=1 8 4 -4 6 -3 -2 -8 -1
right_child=2 5 3 -5 -6 -7 7 -9 -10
leaf_value=-5.4669197771658595 2.7853218645393443 -32.69388339364923 22.993390431030551 -9.8044159475834682 -25.090373199961672 -8.5493001005640483 -2.1672235445070531 13.452786342884439 3.0346622047831633
leaf_count=371 740 31 58 28 26 49 1429 46 205
internal_value=0 -108.887 0.192406 314.623 -11.8732 -457.443 -4.48838 -42.6337 -62.367
internal_count=2983 656 2327 86 2241 80 2215 1475 576
cat_boundaries=0 1 2 3
cat_threshold=9490 1 208
shrinkage=0.0391422


Tree=72
num_leaves=10
num_cat=3
split_feature=4 5 5 10 5 1 6 5 5
split_gain=5.68413e+06 1.01225e+07 8.15048e+06 1.22406e+07 9.61305e+06 6.67013e+06 6.0311e+06 6.10852e+06 5.75085e+06
threshold=0 231.78000000000003 256.3830000000001 1 251.85530000000003 9.8475000000000019 2 192.20040000000003 162.87100000000001
decision_type=1 2 2 1 2 2 1 2 2
left_child=1 8 4 -4 6 -3 7 -2 -1
right_child=2 5 3 -5 -6 -7 -8 -9 -10
leaf_value=-5.2004029856383918 0.75549924515362132 -31.100030139527991 21.872443200702918 -9.3264429233500721 -23.867197106254103 -8.1325147676070966 -1.9651209350653194 9.0097345707605232 2.8867198796448958
leaf_count=371 822 31 58 28 26 49 1232 161 205
internal_value=0 -104.625 0.196792 302.308 -11.3961 -439.537 -4.30012 53.8361 -59.9258
internal_count=2983 656 2327 86 2241 80 2215 983 576
cat_boundaries=0 1 2 3
cat_threshold=9490 1 464
shrinkage=0.0387508


Tree=73
num_leaves=10
num_cat=2
split_feature=4 5 1 6 5 3 3 5 5
split_gain=5.41304e+06 6.10397e+06 1.80448e+07 7.65684e+06 5.82866e+06 6.89231e+06 5.29097e+06 4.30922e+06 1.40574e+07
threshold=0 233.96290000000002 7.722500000000001 1 248.82630000000003 0.049582153000000011 0.14237714600000004 231.78000000000003 243.79860000000005
decision_type=1 2 2 1 2 2 2 2 2
left_child=1 3 -3 6 5 -4 -1 -2 -9
right_child=7 2 4 -5 -6 -7 -8 8 -10
leaf_value=4.2890833435685929 -1.6500259435204112 -16.866231897275522 44.712536236202574 -1.3693883913136757 7.4388746492002431 13.63091767047646 23.133530637025451 -27.103423325048652 -2.2224331804687818
leaf_count=254 1396 27 21 1015 32 21 24 43 150
internal_value=0 23.1866 260.116 4.85868 515.434 760.407 148.854 -61.9835 -202.43
internal_count=2983 1394 101 1293 74 42 278 1589 193
cat_boundaries=0 1 2
cat_threshold=55852 80
shrinkage=0.0383633


Tree=74
num_leaves=10
num_cat=3
split_feature=5 6 1 1 8 6 5 5 1
split_gain=4.39191e+06 3.14956e+06 3.50812e+06 6.23228e+06 9.25933e+06 6.32028e+06 1.05319e+07 6.26948e+06 5.37788e+06
threshold=44.775700000000008 0 10.550000000000002 9.8475000000000019 1 2 211.82310000000004 138.60090000000002 11.925000000000002
decision_type=2 1 2 2 9 1 2 2 2
left_child=-1 -2 3 5 -5 6 -3 -6 -4
right_child=1 2 8 4 7 -7 -8 -9 -10
leaf_value=-6.6526308413958075 -3.8725248591240535 -2.1650599740503758 -7.6455388935756092 -10.123286835768559 2.2055587511870347 2.2603047147567894 -28.985041715677038 26.674444710598955 -0.37452868100550091
leaf_count=175 331 176 167 22 23 812 24 44 1209
internal_value=0 -11.8819 0.564921 42.6389 296.342 20.3271 -134.996 481.17 -33.0962
internal_count=2983 2808 2477 1101 89 1012 200 67 1376
cat_boundaries=0 1 2 3
cat_threshold=516 1 288
shrinkage=0.0379797


Tree=75
num_leaves=10
num_cat=2
split_feature=5 3 1 3 3 5 4 5 8
split_gain=1.36382e+07 1.31149e+07 1.18297e+07 7.1191e+06 1.00364e+07 7.89538e+06 6.51387e+06 8.26094e+06 9.43254e+06
threshold=246.37890000000002 0.022307389500000004 16.150000000000002 0.033971541500000015 0.073672846500000014 258.94750000000005 0 161.93810000000002 1
decision_type=2 2 2 2 2 2 1 2 9
left_child=6 -2 3 -3 -5 -6 7 -1 -9
right_child=1 2 -4 4 5 -7 -8 8 -10
leaf_value=0.069008880164907346 33.209667983167918 -20.030174458846204 24.785179097055899 19.490673514873983 8.1308840402670679 -22.061348074764631 -1.5393781996408613 -12.554129784213989 10.564953154236839
leaf_count=642 30 21 35 36 25 24 1913 28 229
internal_value=0 282.849 155.107 -11.3333 117.48 -177.052 -8.02095 61.7984 213.994
internal_count=2983 171 141 106 85 49 2812 899 257
cat_boundaries=0 1 2
cat_threshold=32544 4
shrinkage=0.0375999


Tree=76
num_leaves=10
num_cat=2
split_feature=5 1 1 1 6 4 5 5 1
split_gain=1.26324e+07 1.09492e+07 9.69967e+06 9.20476e+06 7.2268e+06 1.66145e+07 1.26635e+07 1.13706e+07 6.22249e+06
threshold=246.37890000000002 16.150000000000002 12.825000000000001 9.8475000000000019 0 1 241.90250000000003 149.55630000000002 20.800000000000004
decision_type=2 2 2 2 1 1 2 2 2
left_child=4 2 3 -2 5 -1 8 -7 -6
right_child=1 -3 -4 -5 6 7 -8 -9 -10
leaf_value=-4.2543652588121059 4.5181952998720076 27.178759270903399 -13.657069291383102 31.742932019035219 -0.77644843953092468 2.5944457533089835 -28.188981969527116 15.634304451930879 -18.75870893911895
leaf_count=244 79 40 30 22 2140 213 24 164 27
internal_value=0 272.214 132.389 280.689 -7.72484 86.683 -34.7202 216.349 -26.8779
internal_count=2983 171 131 101 2812 621 2191 377 2167
cat_boundaries=0 1 2
cat_threshold=272 209
shrinkage=0.0372239


Tree=77
num_leaves=10
num_cat=2
split_feature=5 3 3 3 5 4 5 8 3
split_gain=1.17107e+07 1.21737e+07 6.83384e+06 1.20928e+07 8.97196e+06 5.79716e+06 7.49098e+06 9.57737e+06 5.19879e+06
threshold=246.37890000000002 0.022307389500000004 0.033971541500000015 0.073672846500000014 258.94750000000005 0 141.6996 1 0.05884564250000001
decision_type=2 2 2 2 2 1 2 9 2
left_child=5 -2 -3 -4 -5 6 -1 -8 -9
right_child=1 2 3 4 -6 -7 7 8 -10
leaf_value=-0.67570480033315361 30.974817707559719 -12.353198113231846 23.834622086760206 10.948898280680027 -15.46416266404146 -1.4191342912112699 -10.441797497799588 12.063649803054304 2.7163137022251829
leaf_count=523 30 25 45 40 31 1913 42 197 137
internal_value=0 262.081 139.008 241.211 -15.8355 -7.45242 58.4129 166.721 223.316
internal_count=2983 171 141 116 71 2812 899 376 334
cat_boundaries=0 1 2
cat_threshold=32544 4
shrinkage=0.0368516


Tree=78
num_leaves=10
num_cat=3
split_feature=6 4 1 1 1 3 1 4 3
split_gain=6.1019e+06 1.23639e+07 7.50871e+06 1.44616e+07 8.51858e+06 6.91288e+06 6.4679e+06 6.00578e+06 6.31204e+06
threshold=0 1 6.1850000000000014 5.6650000000000009 20.300000000000004 0.028552082000000006 7.472500000000001 2 0.071978724000000008
decision_type=1 1 2 2 2 2 2 1 2
left_child=7 5 3 -3 6 -2 -4 -1 -9
right_child=1 2 4 -5 -6 -7 -8 8 -10
leaf_value=1.2226769648326314 9.1803057098576879 -4.566579771073414 11.088571114466191 -37.343759548504948 -17.483749225234497 2.4363674540548361 -0.22734924798269054 -7.7657174738818675 -0.068742411710440182
leaf_count=437 279 172 75 20 35 736 649 333 247
internal_value=0 40.1482 -41.6473 -218.755 2.606 116.445 25.8991 -54.8846 -120.927
internal_count=2983 1966 951 192 759 1015 724 1017 580
cat_boundaries=0 1 2 3
cat_threshold=526 11053 21442
shrinkage=0.0364831


Tree=79
num_leaves=10
num_cat=2
split_feature=5 3 1 6 4 5 5 5 5
split_gain=1.08485e+07 1.11377e+07 1.01253e+07 6.51436e+06 1.47335e+07 1.16534e+07 1.05385e+07 6.9365e+06 1.20999e+07
threshold=246.37890000000002 0.022307389500000004 16.150000000000002 0 1 241.90250000000003 224.94040000000004 196.95970000000003 149.55630000000002
decision_type=2 2 2 1 1 2 2 2 2
left_child=3 -2 -3 4 -1 -5 7 8 -6
right_child=1 2 -4 5 6 -7 -8 -9 -10
leaf_value=-3.8679446519940219 29.084485641948355 -0.71268811971639934 21.692757794137957 -0.92298209307450474 2.3348289806130067 -26.229956713508521 31.832030272273244 -12.271949109336848 16.79229501752009
leaf_count=244 30 106 35 2167 213 24 22 25 117
internal_value=0 251.972 134.252 -7.44901 82.1857 -33.0785 204.29 168.088 206.562
internal_count=2983 171 141 2812 621 2191 377 355 330
cat_boundaries=0 1 2
cat_threshold=272 209
shrinkage=0.0361183


Tree=80
num_leaves=10
num_cat=4
split_feature=6 4 4 1 1 4 1 1 1
split_gain=9.64937e+06 9.21856e+06 6.6362e+06 6.07588e+06 4.81511e+06 2.91923e+06 6.40401e+06 8.37776e+06 6.15957e+06
threshold=0 1 2 17.925000000000004 20.425000000000004 3 5.7825000000000015 7.3550000000000013 17.225000000000005
decision_type=1 1 1 2 2 1 2 2 2
left_child=1 5 3 -2 -5 6 -1 -8 -9
right_child=2 -3 -4 4 -6 -7 7 8 -10
leaf_value=16.832285326545307 -2.5647528291316193 -1.888250809089246 0.94744879881169042 -14.126773419784078 0.62028569666097166 2.8361575668961203 -14.90777264573831 11.090995343179012 -4.65990210210136
leaf_count=73 891 453 650 111 38 570 25 130 42
internal_value=0 61.6612 -52.7148 -102.003 -289.894 123.288 209.966 123.992 202.613
internal_count=2983 1293 1690 1040 149 840 270 197 172
cat_boundaries=0 1 2 3 4
cat_threshold=120 18650 3534 16450
shrinkage=0.0357571


Tree=81
num_leaves=10
num_cat=1
split_feature=6 5 5 3 3 5 5 5 3
split_gain=8.97192e+06 2.30966e+07 8.22118e+06 1.11497e+07 1.42101e+07 6.88531e+06 1.3254e+07 9.03987e+06 8.5161e+06
threshold=0 224.94040000000004 231.78000000000003 0.034874119000000002 0.021743468500000005 168.26320000000004 153.26560000000003 214.55470000000003 0.030695790500000004
decision_type=1 2 2 2 2 2 2 2 2
left_child=1 5 -3 4 -4 6 -1 -7 -8
right_child=-2 2 3 -5 -6 7 8 -9 -10
leaf_value=0.38277812884798207 -1.7991569728845138 30.826691295909306 14.684410972430134 17.469671880265647 -26.114704009983086 7.0800394150741219 3.5739369108466796 -13.131230957048997 -18.817764057682147
leaf_count=722 1690 31 23 94 20 263 29 31 80
internal_value=0 59.4636 405.78 300.552 -121.242 8.27559 -38.2572 139.802 -363.291
internal_count=2983 1293 168 137 43 1125 831 294 109
cat_boundaries=0 1
cat_threshold=120
shrinkage=0.0353995


Tree=82
num_leaves=10
num_cat=5
split_feature=6 4 4 3 6 3 3 1 8
split_gain=8.34962e+06 8.44173e+06 6.18318e+06 5.7134e+06 5.66126e+06 1.11323e+07 6.29794e+06 5.65314e+06 7.75453e+06
threshold=0 1 2 0.077156072000000006 3 0.013540664500000002 0.031272346500000006 18.650000000000002 4
decision_type=1 1 1 2 1 2 2 2 9
left_child=1 -1 7 -3 5 -4 -6 -2 -9
right_child=2 3 4 -5 6 -7 -8 8 -10
leaf_value=4.0768665464273033 -2.8159997207154954 -4.3646546989725756 -17.443918370559157 4.3360867560296139 4.0995583631368309 9.1050645064843998 -3.4247712985433303 -25.595619841759465 -4.7358346928462751
leaf_count=840 759 323 22 130 196 164 451 33 65
internal_value=0 57.3586 -49.0357 -52.144 12.47 161.519 -32.1851 -108.273 -335.565
internal_count=2983 1293 1690 453 833 186 647 857 98
cat_boundaries=0 1 2 3 4 5
cat_threshold=120 18650 3406 128 1
shrinkage=0.0350455


Tree=83
num_leaves=10
num_cat=1
split_feature=5 6 5 5 5 1 1 5 5
split_gain=8.03162e+06 7.66118e+06 1.84691e+07 1.54907e+07 7.45055e+06 8.574e+06 1.67026e+07 6.38257e+06 1.23622e+07
threshold=256.3830000000001 0 224.94040000000004 214.55470000000003 231.78000000000003 7.3975000000000009 12.550000000000002 168.26320000000004 153.26560000000003
decision_type=2 1 2 2 2 2 2 2 2
left_child=1 2 7 -3 -4 -6 -7 8 -1
right_child=-2 3 4 -5 5 6 -8 -9 -10
leaf_value=0.29862551908903812 9.282772598950725 -0.72753302828256528 29.047756626879952 -10.907511028140922 -7.966775084161271 38.346076779901509 2.6837261204776564 4.6023606569453079 -12.23667298101253
leaf_count=722 106 1422 31 206 25 25 43 294 109
internal_value=0 -12.7355 46.0214 -57.7418 412.665 271.143 455.248 6.01825 -38.7835
internal_count=2983 2877 1249 1628 124 93 68 1125 831
cat_boundaries=0 1
cat_threshold=120
shrinkage=0.0346951


Tree=84
num_leaves=10
num_cat=1
split_feature=5 3 3 6 5 5 5 3 3
split_gain=7.48397e+06 1.04687e+07 7.53271e+06 7.13879e+06 1.72098e+07 1.44344e+07 6.98413e+06 7.10511e+06 8.27182e+06
threshold=256.3830000000001 0.038727034500000007 0.075470005000000021 0 224.94040000000004 214.55470000000003 230.64970000000002 0.067196971500000008 0.047633911500000008
decision_type=2 2 2 1 2 2 2 2 2
left_child=3 -2 -3 4 -1 -5 -6 8 -8
right_child=1 2 -4 5 6 -7 7 -9 -10
leaf_value=0.19954371481570146 -5.8696526584922033 30.104182000877213 7.1123078622259284 -0.69526827987740936 31.234917885783112 -10.423783311300756 11.760979759010874 23.304631163539 -13.673374707522816
leaf_count=1125 37 29 40 1422 22 206 48 32 22
internal_value=0 258.27 488.398 -12.2937 44.4247 -55.7385 398.348 288.129 109.681
internal_count=2983 106 69 2877 1249 1628 124 102 70
cat_boundaries=0 1
cat_threshold=120
shrinkage=0.0343481


Tree=85
num_leaves=10
num_cat=1
split_feature=6 5 5 5 5 3 3 3 5
split_gain=6.88484e+06 1.12427e+07 8.01442e+06 6.98043e+06 1.74628e+07 1.11419e+07 1.33892e+07 6.78812e+06 6.05754e+06
threshold=0 252.98820000000003 260.31070000000005 213.40600000000003 190.03720000000001 0.089020175000000021 0.057416153000000004 0.026663700000000002 53.048200000000008
decision_type=1 2 2 2 2 2 2 2 2
left_child=3 -2 -3 4 8 6 7 -5 -1
right_child=1 2 -4 5 -6 -7 -8 -9 -10
leaf_value=-7.4928024184252369 -1.5775995838786321 22.098118156077955 1.1787949712657109 -12.468358672830922 24.22320733566724 17.525562378078959 -27.711788398888991 10.246176838172268 3.9276553161174039
leaf_count=61 2227 40 45 29 47 21 32 32 449
internal_value=0 -32.629 324.167 81.7242 129.085 -142.51 -291.068 -16.2489 75.3332
internal_count=2983 2312 85 671 557 114 93 61 510
cat_boundaries=0 1
cat_threshold=18
shrinkage=0.0340047


Tree=86
num_leaves=10
num_cat=1
split_feature=6 5 5 5 5 1 5 1 5
split_gain=6.42457e+06 1.04911e+07 7.47863e+06 6.51376e+06 1.64899e+07 1.06304e+07 8.53044e+06 5.4309e+06 4.90218e+06
threshold=0 252.98820000000003 260.31070000000005 213.40600000000003 181.38050000000001 15.65 223.87460000000002 20.800000000000004 53.048200000000008
decision_type=1 2 2 2 2 2 2 2 2
left_child=3 7 -3 4 8 6 -5 -2 -1
right_child=1 2 -4 5 -6 -7 -8 -9 -10
leaf_value=-7.165632136988199 -1.3351950717723302 21.133211887472299 1.1273237299447745 -28.510314852308518 17.847305460968723 16.387836973589476 -4.0864602418483509 -17.436341346627916 3.0614889712666944
leaf_count=61 2203 40 45 21 85 22 71 24 411
internal_value=0 -31.5194 313.144 78.9452 124.696 -137.664 -286.992 -44.816 51.6793
internal_count=2983 2312 85 671 557 114 92 2227 472
cat_boundaries=0 1
cat_threshold=18
shrinkage=0.0336646


Tree=87
num_leaves=10
num_cat=2
split_feature=4 5 8 3 3 1 5 5 1
split_gain=6.61374e+06 1.32129e+07 6.79297e+06 8.02417e+06 1.8892e+07 1.14075e+07 6.93553e+06 7.88402e+06 6.92139e+06
threshold=0 165.33550000000002 1 0.017102369000000003 0.049165354500000001 7.9000000000000012 248.82630000000003 241.90250000000003 9.6475000000000026
decision_type=1 2 9 2 2 2 2 2 2
left_child=-1 -2 3 -3 8 -6 7 -4 -5
right_child=1 2 6 4 5 -7 -8 -9 -10
leaf_value=-1.6057940385563108 -0.88569060781434927 -5.8896524435144197 2.8920303830639993 43.966169449141496 -9.6844928928126208 15.562014520339153 15.829322005467327 -18.867060546315123 18.334738402248529
leaf_count=1660 861 24 246 25 33 50 42 20 22
internal_value=0 46.2797 183.056 354.54 452.619 165.754 97.314 37.6863 959.209
internal_count=2983 1323 462 154 130 83 308 266 47
cat_boundaries=0 1 2
cat_threshold=2637 1
shrinkage=0.033328


Tree=88
num_leaves=10
num_cat=2
split_feature=4 5 6 1 5 3 3 1 5
split_gain=6.18154e+06 1.23468e+07 9.56098e+06 1.22475e+07 1.30796e+07 8.11298e+06 7.36562e+06 6.63986e+06 6.45842e+06
threshold=0 165.33550000000002 1 14.125000000000002 239.26960000000005 0.019458268000000004 0.079471710000000015 7.9400000000000004 223.87460000000002
decision_type=1 2 1 2 2 2 2 2 2
left_child=-1 -2 3 5 -5 -3 -7 -4 -9
right_child=1 2 7 4 -6 6 -8 8 -10
leaf_value=-1.5370706769297442 -0.84761060362261864 2.5021134216839402 7.0428301214624103 -3.4337933468060773 23.167875725770696 28.184767762863864 9.509056209503143 0.7448680620202448 -15.492767662191797
leaf_count=1660 861 31 94 89 26 67 35 80 40
internal_value=0 44.7373 176.955 304.902 78.2095 523.84 659.998 13.788 -141.468
internal_count=2983 1323 462 248 115 133 102 214 120
cat_boundaries=0 1 2
cat_threshold=2637 419
shrinkage=0.0329947


Tree=89
num_leaves=10
num_cat=2
split_feature=6 5 5 5 5 3 3 3 4
split_gain=5.79998e+06 9.24099e+06 7.08097e+06 6.40881e+06 1.321e+07 1.1866e+07 1.58268e+07 5.7442e+06 5.18006e+06
threshold=0 252.98820000000003 260.31070000000005 217.60210000000004 181.38050000000001 0.089020175000000021 0.057416153000000004 0.026663700000000002 1
decision_type=1 2 2 2 2 2 2 2 1
left_child=3 8 -3 4 -1 6 7 -5 -2
right_child=1 2 -4 5 -6 -7 -8 -9 -10
leaf_value=1.679774908505469 0.62317765219932142 19.597441156547056 0.70889095129269475 -11.601079074575207 15.210004149866966 17.854569565773524 -29.751230175808363 9.0691986567571803 -2.6102438620655084
leaf_count=472 856 40 45 26 92 20 29 32 1371
internal_value=0 -29.6553 293.822 75.3019 118.992 -147.951 -307.618 -6.02448 -42.1349
internal_count=2983 2312 85 671 564 107 87 58 2227
cat_boundaries=0 1 2
cat_threshold=18 34226
shrinkage=0.0326647


Tree=90
num_leaves=10
num_cat=1
split_feature=5 5 3 5 5 6 3 5 7
split_gain=7.05881e+06 5.84667e+06 1.11208e+07 9.48698e+06 4.07556e+06 4.06952e+06 4.97044e+06 7.29054e+06 5.88897e+06
threshold=263.02390000000008 257.83170000000001 0.078138080000000013 255.30140000000003 44.775700000000008 0 0.0167280055 167.09870000000004 2000.5000000000002
decision_type=2 2 2 2 2 1 2 2 2
left_child=1 3 -3 4 -1 -6 7 -7 -9
right_child=-2 2 -4 -5 5 6 -8 8 -10
leaf_value=-4.9765304071309799 -15.971672504652762 20.232855697701648 -9.5584342906877247 -22.066071941937526 1.4846488374953737 -0.5527676972308585 -1.8194764612025012 -1.0731048441938522 18.615207051570028
leaf_count=179 30 38 20 21 1175 155 1294 24 47
internal_value=0 -6.36811 307.996 -12.6663 -7.77291 1.93213 -32.1546 104.466 369.843
internal_count=2983 2953 58 2895 2874 2695 1520 226 71
cat_boundaries=0 1
cat_threshold=401
shrinkage=0.0323381


end of trees

feature importances:
Item_MRP=281
Item_Visibility=137
Item_Weight=122
Item_Type=91
Outlet_Identifier=91
Outlet_Type=54
Outlet_Establishment_Year=21
Outlet_Size=14
Outlet_Location_Type=5
Item_Fat_Content=3

parameters:
[boosting: gbdt]
[objective: regression]
[metric: l1,l2]
[tree_learner: serial]
[device_type: cpu]
[data: ]
[valid: ]
[num_iterations: 100]
[learning_rate: 0.0239205]
[num_leaves: 10]
[num_threads: 0]
[max_depth: -1]
[min_data_in_leaf: 20]
[min_sum_hessian_in_leaf: 0.001]
[bagging_fraction: 0.5]
[bagging_freq: 5]
[bagging_seed: 3]
[feature_fraction: 0.9]
[feature_fraction_seed: 2]
[early_stopping_round: 0]
[max_delta_step: 0]
[lambda_l1: 0]
[lambda_l2: 0]
[min_gain_to_split: 0]
[drop_rate: 0.1]
[max_drop: 50]
[skip_drop: 0.5]
[xgboost_dart_mode: 0]
[uniform_drop: 0]
[drop_seed: 4]
[top_rate: 0.2]
[other_rate: 0.1]
[min_data_per_group: 100]
[max_cat_threshold: 32]
[cat_l2: 10]
[cat_smooth: 10]
[max_cat_to_onehot: 4]
[top_k: 20]
[monotone_constraints: ]
[feature_contri: ]
[forcedsplits_filename: ]
[refit_decay_rate: 0.9]
[verbosity: 0]
[max_bin: 255]
[min_data_in_bin: 3]
[bin_construct_sample_cnt: 200000]
[histogram_pool_size: -1]
[data_random_seed: 1]
[output_model: LightGBM_model.txt]
[snapshot_freq: -1]
[input_model: ]
[output_result: LightGBM_predict_result.txt]
[initscore_filename: ]
[valid_data_initscores: ]
[pre_partition: 0]
[enable_bundle: 1]
[max_conflict_rate: 0]
[is_enable_sparse: 1]
[sparse_threshold: 0.8]
[use_missing: 1]
[zero_as_missing: 0]
[two_round: 0]
[save_binary: 0]
[enable_load_from_binary_file: 1]
[header: 0]
[label_column: ]
[weight_column: ]
[group_column: ]
[ignore_column: ]
[categorical_feature: ]
[predict_raw_score: 0]
[predict_leaf_index: 0]
[predict_contrib: 0]
[num_iteration_predict: -1]
[pred_early_stop: 0]
[pred_early_stop_freq: 10]
[pred_early_stop_margin: 10]
[convert_model_language: ]
[convert_model: gbdt_prediction.cpp]
[num_class: 1]
[is_unbalance: 0]
[scale_pos_weight: 1]
[sigmoid: 1]
[boost_from_average: 1]
[reg_sqrt: 0]
[alpha: 0.9]
[fair_c: 1]
[poisson_max_delta_step: 0.7]
[tweedie_variance_power: 1.5]
[max_position: 20]
[label_gain: ]
[metric_freq: 1]
[is_provide_training_metric: 0]
[eval_at: ]
[num_machines: 1]
[local_listen_port: 12400]
[time_out: 120]
[machine_list_filename: ]
[machines: ]
[gpu_platform_id: -1]
[gpu_device_id: -1]
[gpu_use_dp: 0]

end of parameters

pandas_categorical:[]
