tree
version=v2
num_class=1
num_tree_per_iteration=1
label_index=0
max_feature_idx=10
objective=regression
feature_names=Item_Identifier Item_Weight Item_Fat_Content Item_Visibility Item_Type Item_MRP Outlet_Identifier Outlet_Establishment_Year Outlet_Size Outlet_Location_Type Outlet_Type
feature_infos=616:750:753:856:981:1023:1279:1312:1358:19:37:59:116:175:244:284:301:398:407:427:483:534:553:578:591:601:602:656:665:687:705:749:815:826:838:853:861:903:968:1071:1094:1133:1141:1153:1155:1168:1192:1211:1231:1233:1235:1261:1276:1320:1383:1438:1453:1515:6:7:21:25:34:39:41:42:44:65:85:87:101:103:104:111:121:125:129:142:145:149:156:160:166:212:215:231:233:247:248:276:290:310:314:319:337:344:358:370:372:390:397:421:436:438:440:455:464:467:481:512:530:541:547:552:564:585:593:609:610:614:627:651:658:712:718:730:731:738:752:761:763:767:805:823:881:882:890:891:896:898:905:912:913:919:933:937:941:946:950:954:957:988:993:1004:1032:1053:1066:1076:1086:1088:1107:1109:1142:1146:1150:1164:1179:1206:1210:1242:1262:1278:1305:1330:1334:1335:1337:1345:1347:1350:1367:1369:1386:1391:1397:1401:1407:1421:1430:1435:1442:1451:1462:1471:1479:1494:1499:1523:1529:1534:1538:1543:1545:1554:1:13:17:18:22:23:27:32:35:38:45:51:64:73:75:77:82:83:91:92:93:97:112:117:123:131:134:137:146:147:150:154:159:168:177:178:180:184:198:200:201:203:204:205:206:207:227:240:241:253:254:262:265:266:281:283:285:302:303:304:307:311:312:315:316:323:324:328:339:347:352:359:360:374:375:376:382:391:399:404:405:419:423:433:441:443:446:451:468:472:479:488:497:500:504:506:509:513:519:531:538:542:543:548:550:558:565:566:567:569:573:574:583:584:586:587:605:606:620:621:629:634:635:652:659:669:676:677:688:690:696:698:699:700:703:706:708:711:722:729:739:743:751:756:757:759:771:774:775:781:785:786:787:795:802:812:813:820:821:825:829:832:835:843:844:848:862:866:871:880:892:893:900:902:911:921:923:930:932:938:940:942:944:947:951:956:960:961:962:963:975:976:977:983:985:992:1013:1019:1029:1030:1038:1040:1042:1044:1048:1049:1052:1057:1059:1068:1077:1085:1089:1090:1091:1092:1098:1099:1102:1104:1115:1117:1120:1125:1132:1138:1139:1148:1152:1154:1162:1165:1169:1174:1176:1190:1194:1197:1205:1209:1215:1219:1222:1227:1230:1232:1237:1246:1254:1256:1263:1265:1266:1268:1281:1285:1286:1288:1292:1297:1302:1307:1309:1315:1318:1319:1329:1336:1341:1349:1355:1357:1362:1363:1366:1373:1380:1381:1390:1408:1432:1439:1448:1454:1468:1469:1472:1473:1476:1495:1506:1508:1518:1532:1535:1542:1550:1555:1558:0:2:4:31:36:43:50:52:53:54:55:57:63:68:69:70:71:72:78:79:80:81:86:105:107:108:109:110:113:114:115:118:119:132:133:139:140:141:152:158:162:165:167:174:181:183:187:191:193:195:199:209:213:214:217:220:221:223:226:228:232:234:239:246:250:263:269:270:272:275:278:282:286:287:295:305:308:313:320:325:327:330:331:332:333:334:336:338:340:343:345:348:350:356:363:365:366:371:381:383:388:400:402:411:413:414:415:416:420:422:424:428:429:439:442:447:449:450:454:456:458:460:462:465:466:469:470:473:477:478:480:482:484:485:489:495:498:499:516:517:520:522:523:526:527:528:532:537:539:546:551:554:555:556:559:562:563:568:571:572:580:582:592:594:596:597:600:603:607:608:612:613:615:617:618:631:637:639:644:647:648:653:657:660:668:670:672:673:675:679:680:683:691:693:695:701:702:707:709:710:714:715:717:719:725:733:736:737:744:747:748:765:766:770:778:783:790:794:797:798:799:801:803:804:806:808:809:811:816:834:836:837:839:840:841:842:846:847:849:850:857:865:868:872:874:876:877:884:886:887:888:889:894:901:910:915:920:922:926:927:935:936:939:949:958:974:979:982:984:986:989:990:997:998:999:1000:1007:1009:1021:1024:1027:1031:1034:1035:1037:1043:1058:1060:1063:1065:1073:1080:1081:1082:1087:1095:1101:1108:1112:1113:1121:1126:1127:1129:1130:1131:1134:1135:1136:1137:1143:1144:1149:1158:1159:1160:1161:1163:1166:1167:1170:1171:1172:1178:1180:1182:1183:1193:1195:1199:1202:1204:1208:1212:1214:1220:1221:1223:1225:1228:1238:1240:1245:1247:1248:1249:1250:1251:1252:1253:1257:1258:1259:1260:1264:1267:1269:1272:1274:1280:1290:1291:1296:1299:1308:1311:1325:1339:1342:1344:1346:1348:1354:1356:1368:1370:1374:1375:1379:1382:1384:1389:1395:1402:1411:1412:1414:1416:1417:1418:1423:1426:1429:1431:1434:1441:1445:1449:1455:1459:1460:1461:1463:1464:1466:1478:1484:1488:1490:1496:1501:1504:1509:1510:1511:1513:1517:1525:1526:1528:1533:1536:1541:1547:1557:3:8:9:10:12:14:20:28:29:33:40:47:49:58:60:62:66:67:74:84:89:94:98:99:100:106:124:126:127:130:136:138:143:144:153:157:161:169:170:172:176:185:186:192:196:202:208:211:216:218:219:236:242:243:245:256:257:258:259:264:267:268:279:288:292:293:294:297:298:306:317:326:335:346:349:354:361:364:373:377:378:380:384:389:392:393:394:395:396:401:403:408:417:425:426:434:435:437:445:448:453:457:461:475:476:486:487:491:501:502:508:514:518:521:525:536:544:545:549:557:560:561:575:576:579:588:590:604:611:623:624:625:630:632:633:638:643:649:650:654:662:663:666:667:671:678:681:682:685:689:692:697:704:716:720:721:723:727:734:740:741:745:754:755:760:762:764:772:773:776:780:788:789:792:807:810:818:824:827:845:858:859:860:863:867:870:873:875:879:895:897:904:906:907:908:909:914:916:918:924:928:929:931:948:959:965:970:971:972:978:980:987:996:1008:1015:1017:1018:1028:1047:1050:1054:1055:1056:1062:1067:1070:1075:1079:1083:1111:1118:1119:1122:1123:1128:1145:1147:1151:1156:1157:1184:1185:1186:1187:1189:1196:1201:1203:1207:1213:1216:1234:1236:1243:1270:1277:1294:1295:1300:1301:1303:1306:1310:1313:1316:1317:1321:1322:1326:1331:1332:1333:1338:1340:1343:1351:1352:1353:1359:1360:1361:1364:1365:1372:1378:1385:1388:1392:1396:1403:1409:1410:1415:1419:1420:1422:1424:1425:1427:1428:1433:1437:1444:1447:1450:1458:1467:1475:1477:1481:1482:1483:1486:1487:1491:1492:1493:1497:1520:1522:1527:1539:1540:1546:1548:1551:1553 [-999:21.350000000000001] 1:2:0:3:4 [0:0.32111500999999998] 13:6:9:5:4:0:3:8:14:10:1:7:11:15:2:12 [31.289999999999999:266.6884] 1:5:9:8:6:7:3:2:0:4 [1985:2009] 2:0:3:1 2:1:0 1:0:3:2
tree_sizes=877 889 876 890 865 883 887 888 874 848 894 884 880 881 895 863 866 875 852 873 863 870 860 872 854 847 882 863 890 862 874 838 885 843 849 873 860 874 850 878 874 888 875 870 874 861 879 846 894 870 855 857 896 888 896 884 865 885 877 875 889

Tree=0
num_leaves=10
num_cat=2
split_feature=5 10 7 10 5 5 5 7 5
split_gain=2.37179e+09 1.06467e+09 5.52689e+08 3.72317e+08 3.7857e+08 3.52684e+08 1.06996e+08 1.03872e+08 4.67168e+07
threshold=152.45240000000004 0 1986.0000000000002 1 93.727800000000016 220.74690000000001 220.74690000000001 1986.0000000000002 140.29960000000003
decision_type=2 1 2 1 2 2 2 2 2
left_child=3 -2 6 -1 -5 -4 -3 -6 -9
right_child=1 2 5 4 7 -7 -8 8 -10
leaf_value=2041.6338775778956 2065.4255226068517 2405.4288748806962 2253.0492970407108 2108.2966173311856 2269.1191917958149 2353.6450325295855 2555.2580882729885 2167.8841902514482 2216.0020070331743
leaf_count=220 131 118 720 651 95 322 41 513 172
internal_value=0 994.502 1289.77 -799.153 -612.955 1024.78 3026.39 -143.065 -278.964
internal_count=2983 1332 1201 1651 1431 1042 159 780 685
cat_boundaries=0 1 2
cat_threshold=1 1
shrinkage=1


Tree=1
num_leaves=10
num_cat=2
split_feature=5 10 1 10 5 5 5 1 5
split_gain=2.00792e+09 9.01333e+08 4.67897e+08 3.15197e+08 3.20491e+08 2.98577e+08 9.24374e+07 8.7936e+07 4.14813e+07
threshold=152.45240000000004 0 1.0000000180025095e-35 1 93.727800000000016 220.74690000000001 199.25840000000002 1.0000000180025095e-35 58.574600000000011
decision_type=2 1 2 1 2 2 2 2 2
left_child=3 -2 6 -1 8 -4 -3 -6 -5
right_child=1 2 5 4 7 -7 -8 -9 -10
leaf_value=-147.78803716369629 -125.89734510721686 176.94625904598234 46.735289441339077 -106.34362157373543 61.521201904860547 139.29342603766281 303.98370966165106 -20.508349613866876 -66.001960685604743
leaf_count=220 131 102 720 330 95 322 57 685 321
internal_value=0 915.041 1186.72 -735.301 -563.98 942.9 2784.58 -131.634 -1082
internal_count=2983 1332 1201 1651 1431 1042 159 780 651
cat_boundaries=0 1 2
cat_threshold=1 1
shrinkage=0.0799


Tree=2
num_leaves=10
num_cat=2
split_feature=5 5 5 8 1 1 1 9 7
split_gain=1.69987e+09 3.42255e+08 2.44021e+08 1.51163e+08 2.14375e+08 1.68518e+08 7.35042e+07 6.86207e+07 1.34437e+08
threshold=152.45240000000004 220.74690000000001 98.688400000000016 0 1.0000000180025095e-35 4.892500000000001 4.892500000000001 1 1997.5000000000002
decision_type=2 2 2 1 2 2 2 1 2
left_child=2 3 -1 4 -2 -5 -3 8 -7
right_child=1 6 -4 5 -6 7 -8 -9 -10
leaf_value=-84.385674921047908 171.42541848736781 219.64583600056963 -22.945528855051027 -119.39568630682139 35.753529273478662 40.094896794060787 116.7612780321498 47.455358286674247 -117.86360270213001
leaf_count=836 118 51 815 52 201 98 339 420 53
internal_value=0 841.93 -676.55 515.77 1075.59 229.123 1629.73 386.073 -192.084
internal_count=2983 1332 1651 942 319 623 390 571 151
cat_boundaries=0 1 2
cat_threshold=4 4
shrinkage=0.0799


Tree=3
num_leaves=10
num_cat=2
split_feature=5 10 1 10 5 5 5 1 5
split_gain=1.43908e+09 6.79242e+08 3.42825e+08 2.66899e+08 2.39113e+08 2.18976e+08 7.4748e+07 7.21116e+07 6.53714e+07
threshold=152.45240000000004 0 1.0000000180025095e-35 1 108.34250000000002 220.74690000000001 220.74690000000001 1.0000000180025095e-35 62.836500000000008
decision_type=2 1 2 1 2 2 2 2 2
left_child=3 -2 6 -1 8 -4 -3 -6 -5
right_child=1 2 5 4 7 -7 -8 -9 -10
leaf_value=-131.66957826288396 -110.86449343958266 157.72852898293186 39.569034360966597 -88.43765973430007 81.166380729746464 118.83465617251159 282.95958628361399 -7.1361527510362848 -44.194128393090629
leaf_count=220 131 118 720 378 67 322 41 497 489
internal_value=0 774.659 1010.5 -622.494 -464.845 801.8 2378.23 41.9736 -794.539
internal_count=2983 1332 1201 1651 1431 1042 159 564 867
cat_boundaries=0 1 2
cat_threshold=1 1
shrinkage=0.0799


Tree=4
num_leaves=10
num_cat=4
split_feature=10 1 10 3 6 4 1 3 3
split_gain=8.11331e+08 3.59379e+08 3.62365e+07 1.70519e+07 1.06102e+07 1.02507e+07 9.70388e+06 9.90039e+06 1.25971e+07
threshold=0 1.0000000180025095e-35 1 0.076840415000000009 2 3 8.9925000000000015 0.039107700000000009 0.028552082000000006
decision_type=1 2 1 2 1 1 2 2 2
left_child=-1 3 4 -2 5 6 -3 8 -8
right_child=1 2 -4 -5 -6 -7 7 -9 -10
leaf_value=-114.00473103980256 80.798278495140664 3.9346635734400022 -20.359387937530219 119.83905830770456 3.9020902340064589 5.2095924669989229 35.508789306490058 21.739064760152793 97.009404673868815
leaf_count=351 228 92 331 104 1303 309 73 162 30
internal_value=0 191.718 51.3277 1164.3 102.791 204.546 320.092 426.2 668.606
internal_count=2983 2632 2300 332 1969 666 357 265 103
cat_boundaries=0 1 2 3 4
cat_threshold=1 2 66 41808
shrinkage=0.0799


Tree=5
num_leaves=10
num_cat=2
split_feature=5 8 1 1 5 5 9 7 7
split_gain=1.13291e+09 1.67451e+08 2.16084e+08 1.89286e+08 1.47851e+08 1.14769e+08 4.97844e+07 9.66376e+07 4.8829e+07
threshold=141.13120000000004 0 1.0000000180025095e-35 5.0650000000000004 76.432800000000015 198.22680000000003 1 1997.5000000000002 2003.0000000000002
decision_type=2 1 2 2 2 2 1 2 2
left_child=4 3 -3 -2 -1 6 7 -4 -7
right_child=1 2 5 -5 -6 8 -8 -9 -10
leaf_value=-85.592682334683573 152.88500620218949 -98.034772012534503 27.612742830281338 50.755078283607638 -31.687401155759702 54.497819052360619 34.640826622058526 -94.321194948291776 117.7861579668745
leaf_count=492 176 78 118 339 956 209 427 64 124
internal_value=0 607.241 372.551 1072.06 -625.823 504.996 246.889 -191.053 977.029
internal_count=2983 1535 1020 515 1448 942 609 182 333
cat_boundaries=0 1 2
cat_threshold=4 4
shrinkage=0.0799


Tree=6
num_leaves=10
num_cat=2
split_feature=5 10 1 5 10 5 1 5 3
split_gain=9.60973e+08 5.56508e+08 2.10458e+08 1.56227e+08 1.15785e+08 1.15189e+08 6.25503e+07 3.82677e+07 2.19925e+07
threshold=129.78100000000003 0 5.0650000000000004 180.58050000000003 1 76.432800000000015 5.0650000000000004 190.83460000000002 0.038105698500000007
decision_type=2 1 2 2 1 2 2 2 2
left_child=4 -2 7 -4 -1 -6 -7 -3 -9
right_child=1 2 3 -5 5 6 -8 8 -10
leaf_value=-107.04477435065932 -89.628905474549839 110.91218691403478 16.880421699376587 74.162457356582891 -73.162606685353083 37.624835755877918 -29.655144829328467 243.85923963394166 151.17196428656146
leaf_count=183 179 117 562 662 412 101 697 26 44
internal_value=0 539.254 749.972 599.016 -598.394 -486.274 -264.578 1738.04 2322.89
internal_count=2983 1590 1411 1224 1393 1210 798 187 70
cat_boundaries=0 1 2
cat_threshold=1 1
shrinkage=0.0799


Tree=7
num_leaves=10
num_cat=2
split_feature=5 6 1 7 5 5 6 1 5
split_gain=8.13545e+08 3.46757e+08 1.58219e+08 1.53424e+08 1.12759e+08 9.66201e+07 7.4067e+07 5.29541e+07 4.00941e+07
threshold=129.78100000000003 0 1.0000000180025095e-35 2008.0000000000002 180.58050000000003 76.432800000000015 1 5.0650000000000004 190.83460000000002
decision_type=2 1 2 2 2 2 1 2 2
left_child=5 3 8 -2 -4 -1 -7 -8 -3
right_child=1 2 4 -5 -6 6 7 -9 -10
leaf_value=-72.467942507931653 -82.467555884756592 101.26055934286035 19.38643353907791 21.855082571819999 71.971900012503241 -89.419100560767248 34.61861201990618 -27.285698919784149 180.16013955886365
leaf_count=492 179 115 475 181 576 103 101 697 64
internal_value=0 496.168 745.282 -365.522 603.328 -550.583 -355.967 -240.425 1620.41
internal_count=2983 1590 1230 360 1051 1393 901 798 179
cat_boundaries=0 1 2
cat_threshold=25 17
shrinkage=0.0799


Tree=8
num_leaves=10
num_cat=3
split_feature=5 10 1 10 5 5 1 5 6
split_gain=6.92729e+08 3.84668e+08 1.35636e+08 1.03248e+08 9.6861e+07 9.14904e+07 5.57389e+07 2.66814e+07 2.15123e+07
threshold=144.06280000000001 0 5.0650000000000004 1 76.432800000000015 180.58050000000003 1.0000000180025095e-35 177.78700000000001 2
decision_type=2 1 2 1 2 2 2 2 1
left_child=3 -2 7 -1 -5 -4 -6 -3 -7
right_child=1 2 5 4 6 8 -8 -9 -10
leaf_value=-91.585796885089479 -75.03811301943351 82.8097885239833 16.887498697527452 -61.526726049610481 39.656865627931197 76.174695730740666 -22.01511231047817 145.83167851142883 40.200053728677105
leaf_count=196 166 74 468 412 106 388 797 102 274
internal_value=0 494.709 676.961 -469.169 -368.25 549.777 -184.927 1493.54 789.021
internal_count=2983 1472 1306 1511 1315 1130 903 176 662
cat_boundaries=0 1 2 3
cat_threshold=1 1 582
shrinkage=0.0799


Tree=9
num_leaves=10
num_cat=5
split_feature=10 1 4 8 7 1 4 1 9
split_gain=3.90555e+08 1.77093e+08 2.00229e+07 1.48428e+07 1.70322e+07 1.3346e+07 1.27389e+07 1.0523e+07 1.19026e+07
threshold=0 5.0650000000000004 1 2 2003.0000000000002 7.3050000000000006 3 12.050000000000002 4
decision_type=1 2 1 1 2 2 1 2 1
left_child=-1 6 -3 4 5 -4 -2 8 -5
right_child=1 2 3 7 -6 -7 -8 -9 -10
leaf_value=-77.286221563643778 30.523115586653851 -5.6146851123971606 64.928495986793152 21.334778248907508 39.013363616701128 -2.8685999525253578 76.425761847554355 11.762092924142172 -11.784566784199923
leaf_count=362 103 942 21 87 200 158 232 538 340
internal_value=0 140.815 41.3089 119.151 287.725 63.6452 819.836 54.1789 -63.0363
internal_count=2983 2621 2286 1344 379 179 335 965 427
cat_boundaries=0 1 2 3 4 5
cat_threshold=1 49589 8 25730 1
shrinkage=0.0799


Tree=10
num_leaves=10
num_cat=2
split_feature=10 1 7 4 3 3 3 3 1
split_gain=3.28112e+08 1.68924e+08 1.72397e+07 1.59368e+07 7.89945e+06 1.58679e+07 1.41256e+07 1.39038e+07 7.59866e+06
threshold=0 1.0000000180025095e-35 2008.0000000000002 1 0.021236404500000004 0.052175590000000008 0.081252732000000008 0.13338375650000003 8.9000000000000004
decision_type=1 2 2 1 2 2 2 2 2
left_child=-1 4 3 -3 -2 -6 -7 -8 -5
right_child=1 2 -4 8 5 6 7 -9 -10
leaf_value=-70.928246190399008 39.123551167715164 16.164522585285496 -14.290285545739836 -9.4153486786881082 95.697372763228643 29.455189329997914 97.682973390391567 29.847018094362529 4.3994563290827085
leaf_count=356 63 641 312 340 100 74 62 28 1007
internal_value=0 135.303 39.6886 73.9867 807.824 883.751 692.309 958.429 11.3354
internal_count=2983 2627 2300 1988 327 264 164 90 1347
cat_boundaries=0 1 2
cat_threshold=1 34372
shrinkage=0.0799


Tree=11
num_leaves=10
num_cat=3
split_feature=5 10 5 1 10 1 5 5 10
split_gain=5.73201e+08 2.20557e+08 1.29529e+08 8.36163e+07 7.69332e+07 4.96187e+07 4.92711e+07 2.34132e+07 2.22151e+07
threshold=165.33550000000002 0 93.097500000000011 1.0000000180025095e-35 1 1.0000000180025095e-35 199.25840000000002 52.065300000000001 2
decision_type=2 1 2 2 1 2 2 2 1
left_child=2 -2 7 -3 -4 -6 -5 -1 -9
right_child=1 3 4 6 5 -7 -8 8 -10
leaf_value=-69.227631559394084 -55.768329607295989 122.50896583404541 -66.67051306567852 32.018011046904299 43.147833176137922 -8.4064190231082687 70.297088965089074 13.708679473488981 -46.04764695824484
leaf_count=293 119 118 130 438 138 874 421 44 408
internal_value=0 587.397 -321.865 743.957 -110.251 -17.2252 635.529 -646.243 -503.513
internal_count=2983 1096 1887 977 1142 1012 859 745 452
cat_boundaries=0 1 2 3
cat_threshold=1 1 8
shrinkage=0.0799


Tree=12
num_leaves=10
num_cat=3
split_feature=5 6 5 1 6 5 5 1 6
split_gain=4.85263e+08 1.78278e+08 1.10351e+08 7.07882e+07 6.71519e+07 4.17121e+07 2.66782e+07 2.12831e+07 1.87331e+07
threshold=165.33550000000002 0 102.16740000000001 1.0000000180025095e-35 1 199.25840000000002 52.065300000000001 1.0000000180025095e-35 2
decision_type=2 1 2 2 1 2 2 2 1
left_child=2 -2 6 -3 -4 -5 -1 -6 -8
right_child=1 3 4 5 7 -7 8 -9 -10
leaf_value=-63.696343283543086 -47.334731308245104 112.72049835130341 -34.612674206214656 29.459772038848648 40.259528747108021 64.68035112347728 -5.5160281048658009 2.8510241521452464 -41.435781382862352
leaf_count=293 119 118 321 438 118 421 133 548 474
internal_value=0 540.464 -296.148 677.58 -65.226 584.75 -549.391 116.88 -429.773
internal_count=2983 1096 1887 977 987 859 900 666 607
cat_boundaries=0 1 2 3
cat_threshold=17 153 96
shrinkage=0.0799


Tree=13
num_leaves=10
num_cat=2
split_feature=5 5 5 8 1 7 5 8 1
split_gain=4.1624e+08 8.08256e+07 5.56088e+07 3.10205e+07 2.75955e+07 2.69809e+07 1.67648e+07 1.56512e+07 4.31813e+07
threshold=143.54570000000004 192.20040000000003 63.866800000000005 0 6.2475000000000014 2008.0000000000002 117.26370000000001 1 5.7825000000000015
decision_type=2 2 2 1 2 2 2 1 2
left_child=2 3 -1 5 -5 -2 -4 8 -3
right_child=1 7 6 4 -6 -7 -8 -9 -10
leaf_value=-52.494877462341549 53.930572838321098 120.02334050422245 -25.574301003862843 -38.203825887756352 11.204068849453567 -2.4908379017145603 -3.9051072028175939 43.111078275856556 44.582121674681794
leaf_count=444 182 72 732 85 478 77 331 434 148
internal_value=0 387.356 -359.779 178.626 46.8663 465.039 -235.631 649.704 866.983
internal_count=2983 1476 1507 822 563 259 1063 654 220
cat_boundaries=0 1 2
cat_threshold=4 4
shrinkage=0.0799


Tree=14
num_leaves=10
num_cat=2
split_feature=5 10 5 10 1 1 5 5 7
split_gain=3.52429e+08 1.53301e+08 7.97874e+07 5.76589e+07 5.08237e+07 3.38287e+07 3.13412e+07 1.60404e+07 1.48583e+07
threshold=165.33550000000002 0 93.097500000000011 1 1.0000000180025095e-35 1.0000000180025095e-35 199.25840000000002 115.94790000000002 2008.0000000000002
decision_type=2 1 2 1 2 2 2 2 2
left_child=2 -2 -1 -4 -3 -5 -6 -7 -8
right_child=1 4 3 5 6 7 8 -9 -10
leaf_value=-40.543510959662015 -48.858148705427986 96.361897445197826 -57.023634900498024 36.266131584909687 25.476217090762766 -21.086452020905803 62.005945291049393 1.6228961871254424 18.454308092892578
leaf_count=745 119 118 130 138 438 305 363 569 58
internal_value=0 460.129 -252.841 -86.7578 590.654 -6.22336 506.12 -78.8735 700.951
internal_count=2983 1096 1887 1142 977 1012 859 874 421
cat_boundaries=0 1 2
cat_threshold=1 1
shrinkage=0.0799


Tree=15
num_leaves=10
num_cat=4
split_feature=10 1 7 4 3 3 9 3 8
split_gain=1.81549e+08 6.13007e+07 1.15328e+07 9.73608e+06 2.55601e+07 8.50165e+06 7.74083e+06 7.46182e+06 1.45539e+07
threshold=0 1.0000000180025095e-35 2008.0000000000002 1 0.016197938000000005 0.014651768500000004 2 0.023961306000000002 3
decision_type=1 2 2 1 2 2 1 2 1
left_child=-1 3 5 4 -2 6 -3 8 -7
right_child=1 2 -4 -5 -6 7 -8 -9 -10
leaf_value=-51.817957406438438 139.42336810348829 -24.40642539845382 -9.315567331427566 25.933824403496743 47.6042410232563 55.38883372305007 3.8274543630699429 7.2098153675942989 8.2920990731851578
leaf_count=353 24 96 322 190 100 63 175 1535 125
internal_value=0 115.228 59.0129 529.856 757.158 87.3701 -77.2743 113.266 301.308
internal_count=2983 2630 2316 314 124 1994 271 1723 188
cat_boundaries=0 1 2 3 4
cat_threshold=1 608 1 8
shrinkage=0.0799


Tree=16
num_leaves=10
num_cat=4
split_feature=5 10 5 5 1 4 6 5 10
split_gain=3.29798e+08 1.61049e+08 5.5319e+07 3.71326e+07 2.8378e+07 2.03748e+07 1.90907e+07 1.67093e+07 1.51085e+07
threshold=140.29960000000003 0 198.22680000000003 111.53860000000002 1.0000000180025095e-35 1 2 50.850800000000007 3
decision_type=2 1 2 2 2 1 1 2 1
left_child=3 -2 6 7 -4 -6 -3 -1 -5
right_child=1 2 4 8 5 -7 -8 -9 -10
leaf_value=-50.545610712552687 -41.976308651141011 36.492744830274276 113.38641986731245 -53.57854804391043 17.453001989002832 62.422736122823757 12.361837828968209 -27.619701023222202 1.6965814459609689
leaf_count=273 189 456 54 35 116 301 446 791 322
internal_value=0 340.09 459.223 -325.663 736.999 648.669 314.176 -419.299 -46.5901
internal_count=2983 1562 1373 1421 471 417 902 1064 357
cat_boundaries=0 1 2 3 4
cat_threshold=1 41472 610 1
shrinkage=0.0799


Tree=17
num_leaves=10
num_cat=3
split_feature=5 6 5 5 7 6 4 3 5
split_gain=2.80359e+08 1.29449e+08 4.39614e+07 3.65849e+07 2.36296e+07 1.8209e+07 1.85771e+07 1.84933e+07 1.48253e+07
threshold=143.54570000000004 0 233.96290000000002 112.67020000000001 2005.5000000000002 1 2 0.10122605400000001 59.607500000000009
decision_type=2 1 2 2 2 1 1 2 2
left_child=3 -2 5 8 -4 7 -7 -3 -1
right_child=1 2 4 -5 -6 6 -8 -9 -10
leaf_value=-42.861715331179447 -36.378511624525387 56.420584384708903 79.118382412594556 -2.164358419800652 24.449788184268236 -11.166211131845078 25.253840717677516 2.3788817198617118 -23.471824027734943
leaf_count=398 181 231 188 394 69 101 687 49 685
internal_value=0 325.151 431.94 -288.02 806.518 345.847 256.625 567.508 -382.948
internal_count=2983 1506 1325 1477 257 1068 788 280 1083
cat_boundaries=0 1 2 3
cat_threshold=17 96 32932
shrinkage=0.0799


Tree=18
num_leaves=10
num_cat=5
split_feature=5 10 5 5 6 4 3 10 10
split_gain=2.37223e+08 1.13601e+08 3.9232e+07 3.09722e+07 2.31607e+07 2.17267e+07 1.96711e+07 1.56204e+07 1.5131e+07
threshold=143.54570000000004 0 198.22680000000003 112.67020000000001 1 2 0.025910030500000004 3 4
decision_type=2 1 2 2 1 1 2 1 1
left_child=3 -2 -3 8 6 -6 -4 -5 -1
right_child=1 2 4 7 5 -7 -8 -9 -10
leaf_value=-0.34503179021839581 -35.481730933366428 21.792266915987721 142.69993246157097 -48.047932281167164 5.2588283402156826 50.238983608456017 69.110059102772453 3.5039523368516425 -31.360308131833268
leaf_count=112 181 854 33 42 110 250 78 352 971
internal_value=0 299.023 400.533 -265.007 632.236 463.187 1044.66 -24.924 -352.351
internal_count=2983 1506 1325 1477 471 360 111 394 1083
cat_boundaries=0 1 2 3 4 5
cat_threshold=1 96 41474 1 8
shrinkage=0.0799


Tree=19
num_leaves=10
num_cat=3
split_feature=5 10 5 5 10 6 3 3 3
split_gain=2.01229e+08 9.89932e+07 3.57842e+07 2.47538e+07 2.0656e+07 1.9435e+07 1.92633e+07 2.30687e+07 1.66532e+07
threshold=140.29960000000003 0 198.22680000000003 81.113100000000017 1 2 0.032577136000000007 0.075470005000000021 0.025910030500000004
decision_type=2 1 2 2 1 1 2 2 2
left_child=3 -2 -3 -1 -5 8 -7 -8 -4
right_child=1 2 5 4 -6 6 7 -9 -10
leaf_value=-33.502718175362425 -32.953981965306447 19.40206900569552 131.29820704641631 -47.241905101013188 -7.5780289689559961 7.4385860290312547 71.29710339329111 22.647839170151464 63.588165226141605
leaf_count=553 189 902 33 94 774 111 127 122 78
internal_value=0 266.086 359.488 -253.952 -148.604 582.899 427.678 594.004 961.193
internal_count=2983 1562 1373 1421 868 471 360 249 111
cat_boundaries=0 1 2 3
cat_threshold=1 1 96
shrinkage=0.0799


Tree=20
num_leaves=10
num_cat=4
split_feature=5 10 5 6 5 4 6 1 1
split_gain=1.69685e+08 7.01525e+07 3.25839e+07 2.85188e+07 2.44112e+07 2.01609e+07 3.05619e+07 2.19745e+07 2.06598e+07
threshold=158.22750000000005 0 98.688400000000016 1 182.03050000000005 2 3 5.182500000000001 7.4275000000000011
decision_type=2 1 2 1 2 1 1 2 2
left_child=2 -2 -1 -4 -3 7 -7 -6 -9
right_child=1 4 3 -5 5 6 -8 8 -10
leaf_value=-26.550084199249643 -29.590615172991544 14.130336143301783 -29.335419827942403 2.6533531120392997 110.00874125407991 53.314072373890376 4.8063403786538981 -24.498142918329652 54.457865814802133
leaf_count=843 138 357 224 741 42 133 218 23 264
internal_value=0 299.465 -188.659 -63.1855 388.601 499.771 302.309 680.563 602.383
internal_count=2983 1175 1808 965 1037 680 351 329 287
cat_boundaries=0 1 2 3 4
cat_threshold=1 25 17520 832
shrinkage=0.0799


Tree=21
num_leaves=10
num_cat=3
split_feature=5 6 6 5 5 1 6 1 1
split_gain=1.4419e+08 5.80793e+07 2.90204e+07 2.40219e+07 2.27197e+07 1.37204e+07 1.15978e+07 1.0843e+07 1.15319e+07
threshold=156.88010000000003 0 1 111.53860000000002 198.22680000000003 5.3225000000000007 2 16.050000000000004 17.425000000000004
decision_type=2 1 1 2 2 2 1 2 2
left_child=2 -2 -1 -4 5 -3 -5 -6 -9
right_child=1 4 3 6 7 -7 -8 8 -10
leaf_value=14.408799278327592 -25.419627626552707 49.778384837192682 -25.669539933937031 -22.847903409559713 34.307870885406473 13.692519244250398 1.2732172186201223 102.57492645809289 47.358021674266389
leaf_count=198 142 77 964 167 324 532 456 33 90
internal_value=0 271.798 -176.686 -220.973 350.817 228.474 -69.3234 525.348 778.127
internal_count=2983 1198 1785 1587 1056 609 623 447 123
cat_boundaries=0 1 2 3
cat_threshold=17 32 25
shrinkage=0.0799


Tree=22
num_leaves=10
num_cat=5
split_feature=10 1 3 3 4 10 2 4 3
split_gain=6.82963e+07 3.07676e+07 1.08289e+07 1.36658e+07 9.60302e+06 7.44604e+06 7.73938e+06 5.94049e+06 6.40272e+06
threshold=0 1.0000000180025095e-35 0.079471710000000015 0.092147634500000006 1 2 3 4 0.096893702500000012
decision_type=1 2 2 2 1 1 1 1 2
left_child=-1 2 4 -4 -2 6 -3 -8 -9
right_child=1 5 3 -5 -6 -7 7 8 -10
leaf_value=-31.984423465962482 34.26934326361652 -0.62197782428988346 103.47143924907047 32.133056573928201 1.8927733127952517 -9.4873089001520352 -0.76062981080914671 19.634286712870548 -1.633499541952671
leaf_count=368 117 1199 24 60 123 335 243 397 117
internal_value=0 59.8084 348.246 657.265 240.089 19.0168 42.61 120.934 181.613
internal_count=2983 2615 324 84 240 2291 1956 757 514
cat_boundaries=0 1 2 3 4 5
cat_threshold=1 18024 2 18 8726
shrinkage=0.0799


Tree=23
num_leaves=10
num_cat=3
split_feature=5 6 5 6 5 7 5 7 6
split_gain=1.22014e+08 4.58818e+07 3.13035e+07 2.80875e+07 1.27385e+07 1.26098e+07 1.14688e+07 1.29997e+07 1.02641e+07
threshold=171.54350000000002 0 59.607500000000009 1 240.78800000000004 2000.5000000000002 231.78000000000003 1998.5000000000002 2
decision_type=2 1 2 1 2 2 2 2 1
left_child=2 5 -1 -4 6 -2 -3 -8 -5
right_child=1 4 3 8 -6 -7 7 -9 -10
leaf_value=-31.3605695132952 -22.43315763101814 33.249691792571461 -25.063848611958104 11.265256480408523 54.979906360768084 10.153007803119698 35.147836187995914 -44.810543882225176 -4.8121927160953222
leaf_count=393 121 453 373 344 161 203 25 27 883
internal_value=0 289.874 -139.622 -77.5097 436.616 -24.4824 365.083 -79.7123 -3.1303
internal_count=2983 990 1993 1600 666 324 505 52 1227
cat_boundaries=0 1 2 3
cat_threshold=149 25 36
shrinkage=0.0799


Tree=24
num_leaves=10
num_cat=5
split_feature=5 10 5 6 5 4 4 6 3
split_gain=1.04e+08 3.88153e+07 2.23979e+07 1.78828e+07 1.75294e+07 1.8264e+07 1.31253e+07 1.28035e+07 1.20066e+07
threshold=156.88010000000003 0 81.113100000000017 1 198.22680000000003 2 3 4 0.019458268000000004
decision_type=2 1 2 1 2 1 1 1 2
left_child=2 -2 -1 -4 6 -6 -3 8 -8
right_child=1 4 3 -5 5 -7 7 -9 -10
leaf_value=-25.406547255473303 -20.799664430137419 0.8450880671858787 2.5380681235501896 -16.746862658384092 2.876470091738105 43.826295907150843 -1.2910861714115849 10.827257324107416 58.066065459278647
leaf_count=551 142 262 693 541 100 347 27 208 112
internal_value=0 230.543 -150.344 -75.492 296.549 446.934 186.168 309.521 543.342
internal_count=2983 1198 1785 1234 1056 447 609 347 139
cat_boundaries=0 1 2 3 4 5
cat_threshold=1 678 34434 10592 352
shrinkage=0.0799


Tree=25
num_leaves=10
num_cat=6
split_feature=6 4 1 7 4 4 8 6 1
split_gain=5.95814e+07 1.81612e+07 9.50717e+06 7.91431e+06 7.2378e+06 6.77299e+06 6.79511e+06 4.78692e+06 6.74736e+06
threshold=0 1 5.7425000000000006 2000.5000000000002 2 3 4 5 12.425000000000002
decision_type=1 1 2 2 1 1 1 1 2
left_child=3 7 -3 -1 -5 6 -4 -2 -9
right_child=1 2 5 4 -6 -7 -8 8 -10
leaf_value=-26.603997929782143 21.423674788286114 15.661936436107785 -27.655554731380604 0.55857267187436421 -17.903237592423757 1.5367352768531213 -3.592732208290967 -0.69717002887555524 18.723750244972738
leaf_count=367 437 202 125 212 395 601 187 224 233
internal_value=0 85.277 -0.290684 -214.833 -146.947 -43.7272 -160.48 190.82 112.734
internal_count=2983 2009 1115 974 607 913 312 894 457
cat_boundaries=0 1 2 3 4 5 6
cat_threshold=153 8522 50480 3220 8 292
shrinkage=0.0799


Tree=26
num_leaves=10
num_cat=2
split_feature=5 6 5 4 5 3 5 5 3
split_gain=6.8744e+07 5.1176e+07 3.15606e+07 1.53201e+07 1.44198e+07 1.30795e+07 2.03875e+07 1.41489e+07 1.26504e+07
threshold=120.66110000000002 0 247.66050000000004 1 198.22680000000003 0.044480850500000009 232.81160000000003 228.36940000000004 0.089020175000000021
decision_type=2 1 2 1 2 2 2 2 2
left_child=-1 -2 3 -3 -5 7 -7 -6 -4
right_child=1 2 8 4 5 6 -8 -9 -10
leaf_value=-15.315911723813116 -10.403637190880048 -2.6441546988028333 74.326936082248679 14.28339285140747 33.191244059512925 41.170032196858948 -40.660558315262428 99.074747391630467 10.638068619739093
leaf_count=1243 566 256 85 620 46 77 26 38 26
internal_value=0 116.229 234.153 183.165 249.091 495.576 256.743 788.432 743.54
internal_count=2983 1740 1174 1063 807 187 103 84 111
cat_boundaries=0 1 2
cat_threshold=153 19604
shrinkage=0.0799


Tree=27
num_leaves=10
num_cat=4
split_feature=5 6 5 4 5 10 5 7 4
split_gain=5.8459e+07 4.66424e+07 2.62929e+07 1.14628e+07 1.95782e+07 2.8006e+07 1.13814e+07 9.03727e+06 1.08382e+07
threshold=119.06110000000001 0 247.66050000000004 1 232.81160000000003 2 53.944300000000005 1986.0000000000002 3
decision_type=2 1 2 1 2 1 2 2 1
left_child=6 2 7 4 -3 -6 -1 -2 -9
right_child=1 3 -4 -5 5 -7 -8 8 -10
leaf_value=-27.973522668854738 31.409923289554015 -3.8306085058644412 59.979892422771449 -15.087909398582209 115.36974441095435 0.51594231329650586 -10.023178632373167 31.33407881151744 6.4762266418298609
leaf_count=301 184 296 94 427 23 33 899 134 592
internal_value=0 103.688 244.738 -80.2135 53.1282 596.847 -181.799 195.165 144.995
internal_count=2983 1783 1004 779 352 56 1200 910 726
cat_boundaries=0 1 2 3 4
cat_threshold=614 33129 2 40960
shrinkage=0.0799


Tree=28
num_leaves=10
num_cat=1
split_feature=5 6 5 3 3 5 3 3 5
split_gain=4.969e+07 3.72968e+07 2.22237e+07 1.32826e+07 1.34205e+07 1.37181e+07 1.82145e+07 1.64275e+07 1.21754e+07
threshold=123.98750000000001 0 198.22680000000003 0.011079774500000002 0.13669928500000003 254.10270000000006 0.064216457500000004 0.044480850500000009 228.36940000000004
decision_type=2 1 2 2 2 2 2 2 2
left_child=-1 -2 -3 -4 5 7 -7 -5 -9
right_child=1 2 3 4 -6 6 -8 8 -10
leaf_value=-12.420481296618496 -8.7893696305157683 9.212203042772547 -18.228176683662678 60.376350775953441 -23.470815104566302 31.326256712239584 117.9856641679883 39.2932233555727 -7.2133421121348507
leaf_count=1316 544 776 29 91 21 30 32 75 69
internal_value=0 104.485 207.519 419.737 478.82 533.447 951.861 423.056 212.876
internal_count=2983 1667 1123 347 318 297 62 235 144
cat_boundaries=0 1
cat_threshold=153
shrinkage=0.0799


Tree=29
num_leaves=10
num_cat=4
split_feature=5 6 5 4 5 10 5 6 3
split_gain=4.24713e+07 3.51848e+07 1.93505e+07 1.0312e+07 1.74662e+07 2.21039e+07 9.63534e+06 8.59589e+06 8.42335e+06
threshold=119.06110000000001 0 247.66050000000004 1 232.81160000000003 2 53.944300000000005 3 0.089020175000000021
decision_type=2 1 2 1 2 1 2 1 2
left_child=6 2 -2 4 -3 -6 -1 -8 -4
right_child=1 3 8 -5 5 -7 7 -9 -10
leaf_value=-24.746041889438477 13.461640868607367 -3.4672492837697355 64.760931612808179 -14.637900874912738 100.77896087103272 1.1769898457238168 5.9303203077403372 -12.42492500172828 8.2704095197157432
leaf_count=301 910 327 72 394 25 33 209 690 22
internal_value=0 88.4844 210.999 -71.2105 45.1363 552.051 -154.853 -103.003 645.053
internal_count=2983 1783 1004 779 385 58 1200 899 94
cat_boundaries=0 1 2 3 4
cat_threshold=614 34153 2 288
shrinkage=0.0799


Tree=30
num_leaves=10
num_cat=3
split_feature=5 6 6 1 5 5 1 5 4
split_gain=6.75301e+07 2.59815e+07 1.31263e+07 1.12806e+07 1.41258e+07 1.04346e+07 9.69726e+06 1.12759e+07 1.08488e+07
threshold=157.54460000000003 0 1 17.150000000000002 220.74690000000001 261.35810000000004 9.8475000000000019 211.82310000000004 2
decision_type=2 1 1 2 2 2 2 2 1
left_child=2 3 -1 4 -2 -6 7 -3 -8
right_child=1 6 -4 -5 5 -7 8 -9 -10
leaf_value=10.034497121771899 23.08095153037765 3.0736343118679987 -12.625374900480583 3.5252170824374969 62.422720237721776 0.15908242275238038 -8.1743057334603488 -33.604814711296264 18.439935018659696
leaf_count=177 301 154 1581 103 122 20 138 82 305
internal_value=0 176.197 -129.645 336.059 411.522 671.504 42.0796 -121.033 129.925
internal_count=2983 1225 1758 546 443 142 679 236 443
cat_boundaries=0 1 2 3
cat_threshold=610 32 8457
shrinkage=0.0799


Tree=31
num_leaves=10
num_cat=7
split_feature=10 10 1 4 1 4 4 4 6
split_gain=2.58188e+07 1.54752e+07 9.61125e+06 1.12892e+07 1.19895e+07 9.86801e+06 7.16831e+06 6.66818e+06 6.11309e+06
threshold=0 1 18.050000000000004 2 11.925000000000002 3 4 5 6
decision_type=1 1 2 1 2 1 1 1 1
left_child=6 -2 3 -3 7 -4 -1 8 -5
right_child=1 2 5 4 -6 -7 -8 -9 -10
leaf_value=35.350031906318662 -18.443086171320694 -5.5949809533295998 -31.811375686195916 1.5585559766996475 15.921440736235335 -3.7901849987371254 9.818696431334482 6.4976074947336526 -22.956138026502821
leaf_count=124 355 756 102 137 520 317 206 348 118
internal_value=0 -36.5105 -6.49204 24.0472 87.223 -143.445 260.088 -7.9522 -127.956
internal_count=2983 2653 2298 1879 1123 419 330 603 255
cat_boundaries=0 1 2 3 4 5 6 7
cat_threshold=8 1 16691 8208 1112 8704 582
shrinkage=0.0799


Tree=32
num_leaves=10
num_cat=2
split_feature=5 6 5 6 5 5 1 5 7
split_gain=5.66051e+07 2.02126e+07 9.81973e+06 1.04644e+07 9.02297e+06 8.47289e+06 7.68244e+06 9.4084e+06 9.36508e+06
threshold=157.54460000000003 0 76.432800000000015 1 177.78700000000001 161.35650000000001 9.8475000000000019 211.82310000000004 2008.0000000000002
decision_type=2 1 2 1 2 2 2 2 2
left_child=2 4 -1 -4 5 -2 7 8 -3
right_child=1 6 3 -5 -6 -7 -8 -9 -10
leaf_value=-18.714366418450531 49.081845120584042 -4.9761100141274008 16.048667522409993 -7.9983519936919629 30.856479630575922 -1.1919740137305141 9.6960544255708729 -30.013901568324393 49.347134462086359
leaf_count=517 26 130 120 1121 399 121 443 82 24
internal_value=0 161.582 -118.43 -70.1906 302.618 96.3704 43.0809 -102.019 43.6777
internal_count=2983 1225 1758 1241 546 147 679 236 154
cat_boundaries=0 1 2
cat_threshold=610 32
shrinkage=0.0799


Tree=33
num_leaves=10
num_cat=6
split_feature=5 6 4 10 5 4 5 4 6
split_gain=4.82881e+07 1.91823e+07 1.9117e+07 1.39064e+07 1.41109e+07 1.06163e+07 8.44023e+06 9.83989e+06 1.30255e+07
threshold=179.89890000000003 0 1 2 171.54350000000002 3 76.432800000000015 4 5
decision_type=2 1 1 1 2 1 2 1 1
left_child=3 2 -2 4 -1 -3 -5 -8 -9
right_child=1 5 -4 6 -6 -7 7 8 -10
leaf_value=5.4380963474022472 -3.8448473165456662 -15.178827958938042 35.848969023697663 -18.214210234033089 71.439102714389307 12.098162942750964 -12.579244479156072 -15.690565804970474 7.0295110389962341
leaf_count=205 104 133 351 460 23 242 698 216 551
internal_value=0 201.778 336.527 -82.135 151.39 28.5475 -109.794 -72.69 6.40259
internal_count=2983 830 455 2153 228 375 1925 1465 767
cat_boundaries=0 1 2 3 4 5 6
cat_threshold=614 33539 8 8714 17528 21
shrinkage=0.0799


Tree=34
num_leaves=10
num_cat=6
split_feature=10 10 1 4 3 1 4 4 6
split_gain=1.68154e+07 1.09866e+07 8.4233e+06 9.26296e+06 1.21001e+07 1.06096e+07 8.80707e+06 5.86558e+06 5.82808e+06
threshold=0 1 18.050000000000004 2 0.032854486500000009 7.1250000000000009 3 4 5
decision_type=1 1 2 1 2 2 1 1 1
left_child=7 -2 3 -3 -5 -6 -4 -1 -7
right_child=1 2 6 4 5 8 -8 -9 -10
leaf_value=29.854323001169803 -15.426248465344067 -4.8508714865051115 -29.786444034876141 -5.0537853111491629 -10.659217637808455 3.4620472426799909 -3.3384635084658223 7.1162942439803372 21.106853867916794
leaf_count=124 355 756 102 378 108 183 317 206 454
internal_value=0 -29.3413 -4.04824 24.5415 81.7464 156.413 -132.258 210.02 205.55
internal_count=2983 2653 2298 1879 1123 745 419 330 637
cat_boundaries=0 1 2 3 4 5 6
cat_threshold=8 1 16691 8208 1112 264
shrinkage=0.0799


Tree=35
num_leaves=10
num_cat=2
split_feature=5 5 6 4 5 1 5 5 5
split_gain=4.3074e+07 1.79679e+07 1.71989e+07 1.84917e+07 1.28745e+07 1.15789e+07 2.54352e+07 2.39372e+07 1.9382e+07
threshold=166.09870000000004 263.85810000000009 0 1 82.226300000000009 10.550000000000002 198.22680000000003 219.38240000000002 180.58050000000003
decision_type=2 2 1 1 2 2 2 2 2
left_child=4 2 3 -2 -1 6 8 -7 -5
right_child=1 -3 -4 5 -6 7 -8 -9 -10
leaf_value=-15.92137482866163 9.9616761393094837 89.089512191429137 1.4745910489718372 78.859675382243495 -1.5454670876135437 55.411710122366586 108.2761613453 -14.736992174875512 -23.038966855562649
leaf_count=569 358 20 496 22 1321 75 43 53 26
internal_value=0 175.888 158.383 273.606 -73.51 500.986 796.569 329.985 296.177
internal_count=2983 1093 1073 577 1890 219 91 128 48
cat_boundaries=0 1 2
cat_threshold=678 41826
shrinkage=0.0799


Tree=36
num_leaves=10
num_cat=4
split_feature=5 4 6 6 5 5 6 5 3
split_gain=3.6499e+07 1.53483e+07 2.4076e+07 1.28035e+07 1.47769e+07 1.08993e+07 9.57578e+06 7.045e+06 9.33919e+06
threshold=166.09870000000004 0 1 2 256.3830000000001 82.226300000000009 3 183.37660000000002 0.015668748000000003
decision_type=2 1 1 1 2 2 1 2 2
left_child=5 2 -2 4 -3 -1 -7 -4 -9
right_child=1 3 7 -5 -6 6 -8 8 -10
leaf_value=-14.649256914244217 3.6587754437092426 11.301247783477427 61.2958902844994 -7.1276876620006195 79.768253323849763 -13.391172432196766 2.4036418213834461 -6.5432497552669409 39.860934037847024
leaf_count=569 242 236 73 315 22 313 1008 33 172
internal_value=0 161.939 284.241 45.2001 206.508 -67.6366 -17.7971 483.015 405.394
internal_count=2983 1093 520 573 258 1890 1321 278 205
cat_boundaries=0 1 2 3 4
cat_threshold=25629 339 326 25
shrinkage=0.0799


Tree=37
num_leaves=10
num_cat=3
split_feature=5 5 6 5 5 6 2 3 3
split_gain=3.09072e+07 1.46319e+07 1.36218e+07 1.13638e+07 9.23554e+06 8.344e+06 6.05842e+06 5.40997e+06 5.37481e+06
threshold=166.09870000000004 263.85810000000009 0 261.35810000000004 81.113100000000017 1 2 0.091064719000000016 0.0056157900000000016
decision_type=2 2 1 2 2 1 1 2 2
left_child=4 2 3 8 -1 -6 7 -7 -2
right_child=1 -3 -4 -5 5 6 -8 -9 -10
leaf_value=-13.617426833190825 50.289895835836312 79.61566177581787 0.71652486072159094 -40.015458517866136 -12.487054729264937 -6.2536795418504161 10.012410434445952 12.4076939084086 19.159811621158521
leaf_count=557 38 20 496 20 316 512 382 123 519
internal_value=0 148.969 133.172 235.7 -62.2906 -17.1036 27.4092 -32.5162 266.378
internal_count=2983 1093 1073 577 1890 1333 1017 635 557
cat_boundaries=0 1 2 3
cat_threshold=678 25 26
shrinkage=0.0799


Tree=38
num_leaves=10
num_cat=5
split_feature=5 4 6 3 3 5 6 4 6
split_gain=2.61708e+07 1.32739e+07 1.103e+07 2.19627e+07 1.08782e+07 1.22528e+07 8.402e+06 8.34472e+06 8.10885e+06
threshold=166.09870000000004 0 1 0.11936261050000001 0.073219394500000021 214.55470000000003 2 3 4
decision_type=2 1 1 2 2 2 1 1 1
left_child=6 2 -2 4 -4 -6 7 -1 -3
right_child=1 8 3 -5 5 -7 -8 -9 -10
leaf_value=8.8765381569102804 3.0051625832324156 19.726146532001671 37.517606966463873 106.21956836643218 29.288327015874664 -36.683508962297438 -9.281095667921857 -6.9218346540525149 -0.60820003928611943
leaf_count=442 136 153 162 24 41 32 1053 395 545
internal_value=0 137.072 280.994 402.644 325.13 4.62035 -57.3266 17.8625 50.8724
internal_count=2983 1093 395 259 235 73 1890 837 698
cat_boundaries=0 1 2 3 4 5
cat_threshold=24597 275 864 11594 6
shrinkage=0.0799


Tree=39
num_leaves=10
num_cat=3
split_feature=6 4 1 3 1 3 1 3 4
split_gain=1.3447e+07 3.51301e+06 3.63379e+06 3.9255e+06 3.34975e+06 6.50562e+06 6.23433e+06 5.86628e+06 5.66344e+06
threshold=0 1 5.3225000000000007 0.13669928500000003 8.7725000000000026 0.072600760000000014 7.7975000000000003 0.0067454390000000015 2
decision_type=1 1 2 2 2 2 2 2 1
left_child=-1 2 -2 -4 5 7 -7 -3 -9
right_child=1 4 3 -5 -6 6 -8 8 -10
leaf_value=-8.5287954102327053 23.584581564378226 27.084494884732305 4.9156004604520662 31.794271594124869 -0.77108834593544306 13.302595624520855 55.164229420895047 11.195315584512056 -9.7420879645940577
leaf_count=707 93 49 555 37 1030 143 27 118 224
internal_value=0 50.2372 109.812 82.5472 24.0617 86.3869 249.702 15.3802 -30.9835
internal_count=2983 2276 685 592 1591 561 170 391 342
cat_boundaries=0 1 2 3
cat_threshold=25 24594 1416
shrinkage=0.0799


Tree=40
num_leaves=10
num_cat=3
split_feature=5 10 10 3 4 3 3 7 5
split_gain=2.64097e+07 2.78853e+07 1.69251e+07 1.27776e+07 1.66607e+07 1.41441e+07 1.08927e+07 1.12013e+07 1.07893e+07
threshold=177.15410000000003 0 1 0.070126256500000012 2 0.091064719000000016 0.032166737500000007 1992.0000000000002 198.22680000000003
decision_type=2 1 1 2 1 2 2 2 2
left_child=-1 -2 3 6 -5 8 -3 -8 -6
right_child=1 2 -4 4 5 -7 7 -9 -10
leaf_value=-4.2620301043687281 53.490553144664148 9.0820372701197396 -12.189384081623503 20.901708918961933 -17.369247624242874 -1.4252381427908596 -2.3638139372599127 44.821332460636008 -96.5821116662067
leaf_count=2060 93 195 211 104 21 73 40 163 23
internal_value=0 150.209 92.0273 175.4 -17.4081 -265.113 282.461 444.603 -735.619
internal_count=2983 923 830 619 221 117 398 203 44
cat_boundaries=0 1 2 3
cat_threshold=8 2 24672
shrinkage=0.0799


Tree=41
num_leaves=10
num_cat=1
split_feature=6 5 3 1 5 5 5 3 3
split_gain=2.60485e+07 2.64521e+07 1.23609e+07 1.3041e+07 2.05273e+07 2.26613e+07 1.03927e+07 1.34874e+07 1.01036e+07
threshold=0 181.38050000000001 0.021236404500000004 9.4075000000000006 255.30140000000003 222.37590000000003 198.22680000000003 0.0167280055 0.068931822000000018
decision_type=1 2 2 2 2 2 2 2 2
left_child=1 -1 6 4 5 -4 -3 -8 -5
right_child=-2 2 3 8 -6 -7 7 -9 -10
leaf_value=1.1487050534522514 -7.5639122392811915 -34.180263285948101 43.205321677022035 34.166535669098501 -16.312127679604291 125.78791508041908 46.008333986358643 -34.351828859710693 0.57946497624287241
leaf_count=1189 1333 38 79 127 24 29 40 20 104
internal_value=0 92.6554 296.559 381.641 632.379 818.276 -18.5887 240.571 238.362
internal_count=2983 1650 461 363 132 108 98 60 231
cat_boundaries=0 1
cat_threshold=992
shrinkage=0.0799


Tree=42
num_leaves=10
num_cat=3
split_feature=6 4 1 1 3 3 7 4 3
split_gain=2.20667e+07 6.53931e+06 5.17201e+06 8.09396e+06 4.33267e+06 1.01635e+07 6.16007e+06 5.98836e+06 7.9178e+06
threshold=0 1 14.825000000000001 13.225000000000003 0.10582393500000002 0.067196971500000008 2000.5000000000002 2 0.017102369000000003
decision_type=1 1 2 2 2 2 2 1 2
left_child=1 2 3 4 5 7 -7 8 -1
right_child=-2 -3 -4 -5 -6 6 -8 -9 -10
leaf_value=30.626460122059392 -6.9640555659266212 2.3700475940784655 2.9346929043096899 50.992741013118199 -2.5358902977621556 60.866868483165817 12.126655326416016 24.497874910768914 -9.0020739047378306
leaf_count=43 1333 940 231 42 80 49 25 112 128
internal_value=0 85.2522 157.415 218.903 178.604 225.739 555.702 139.459 11.3866
internal_count=2983 1650 710 479 437 357 74 283 171
cat_boundaries=0 1 2 3
cat_threshold=992 37710 33344
shrinkage=0.0799


Tree=43
num_leaves=10
num_cat=3
split_feature=5 6 3 1 1 3 3 4 9
split_gain=1.96832e+07 1.57319e+07 1.93069e+07 1.19727e+07 1.44815e+07 1.07159e+07 9.23337e+06 1.05235e+07 1.22809e+07
threshold=177.15410000000003 0 0.022667346500000001 9.5500000000000025 6.7825000000000015 0.067834574000000009 0.04516601650000001 1 2
decision_type=2 1 2 2 2 2 2 1 1
left_child=-1 2 -2 4 5 -4 -3 8 -8
right_child=1 6 3 -5 -6 -7 7 -9 -10
leaf_value=-3.736232678101544 -12.11539137129928 14.462685574736581 12.017761600330898 19.455519793140095 112.33300122773544 68.134054188359571 40.619475481717338 -15.503402363618818 -7.3007398854715282
leaf_count=2060 66 259 42 120 23 45 58 227 83
internal_value=0 128.966 314.506 461.942 700.243 513.685 35.7884 -65.4466 145.046
internal_count=2983 923 296 230 110 87 627 368 141
cat_boundaries=0 1 2 3
cat_threshold=800 24898 2
shrinkage=0.0799


Tree=44
num_leaves=10
num_cat=3
split_feature=6 5 1 5 4 5 5 5 4
split_gain=1.73908e+07 1.90279e+07 1.56258e+07 1.0082e+07 1.11282e+07 1.14886e+07 1.20241e+07 1.1093e+07 6.94361e+06
threshold=0 190.83460000000002 4.892500000000001 53.944300000000005 1 186.83980000000005 181.38050000000001 152.45240000000004 2
decision_type=1 2 2 2 1 2 2 2 1
left_child=1 3 -3 -1 5 6 -5 -6 -4
right_child=-2 2 8 4 7 -7 -8 -9 -10
leaf_value=-16.412783215521806 -6.2083789134623135 59.026128187848698 28.513983416532394 -1.7481313032498298 6.1169374773840195 -49.896698323415116 46.945695469856261 35.646325000701466 3.719459923484782
leaf_count=174 1333 61 123 677 247 30 34 121 183
internal_value=0 75.3566 276.599 18.3787 53.4918 -18.0691 7.26416 192.837 184.471
internal_count=2983 1650 367 1283 1109 741 711 368 306
cat_boundaries=0 1 2 3
cat_threshold=992 25841 24611
shrinkage=0.0799


Tree=45
num_leaves=10
num_cat=3
split_feature=5 1 4 3 3 5 8 9 1
split_gain=2.15675e+07 1.45826e+07 1.87662e+07 1.93856e+07 1.00351e+07 9.84296e+06 7.6023e+06 7.00556e+06 9.35005e+06
threshold=198.22680000000003 13.725000000000003 0 0.030695790500000004 0.03635649450000001 246.37890000000002 1 2 7.972500000000001
decision_type=2 2 1 2 2 2 1 1 2
left_child=-1 2 3 -2 6 -4 -3 -7 -9
right_child=1 4 5 -5 -6 7 -8 8 -10
leaf_value=-3.5411237229047123 89.758650561516632 -24.190380539187675 -21.653182721436988 12.991191255124976 47.414210237825245 42.858834735821141 27.735387545910591 -47.701957197448834 23.31103954891994
leaf_count=2451 28 27 148 84 111 31 54 20 29
internal_value=0 177.806 53.3916 369.776 398.124 -113.275 130.498 164.362 -71.012
internal_count=2983 532 340 112 192 228 81 80 49
cat_boundaries=0 1 2 3
cat_threshold=1801 4 4
shrinkage=0.0799


Tree=46
num_leaves=10
num_cat=2
split_feature=5 4 5 5 3 6 5 7 5
split_gain=1.82587e+07 9.65495e+06 1.67355e+07 8.87098e+06 7.88659e+06 7.4584e+06 1.11644e+07 1.70895e+07 9.15965e+06
threshold=198.22680000000003 0 257.83170000000001 258.94750000000005 0.011079774500000002 1 232.81160000000003 1992.0000000000002 241.90250000000003
decision_type=2 1 2 2 2 1 2 2 2
left_child=-1 2 5 4 -3 6 -2 -8 -7
right_child=1 3 -4 -5 -6 8 7 -9 -10
leaf_value=-3.2581880153000959 28.918090976032985 75.354804641505652 44.233822492710743 -23.362133103698234 24.175459903173405 -42.222337875082999 32.726328604271302 -62.623801753888806 8.8251974127769461
leaf_count=2451 64 21 48 23 227 66 21 28 34
internal_value=0 163.6 19.4501 290.975 356.811 -100.012 79.8299 -272.334 -282.924
internal_count=2983 532 261 271 248 213 113 49 100
cat_boundaries=0 1 2
cat_threshold=42034 422
shrinkage=0.0799


Tree=47
num_leaves=10
num_cat=6
split_feature=4 6 1 6 1 6 6 1 4
split_gain=7.96813e+06 9.6827e+06 4.83344e+06 4.82268e+06 4.43687e+06 7.22978e+06 5.49637e+06 4.12037e+06 6.17638e+06
threshold=0 1 20.550000000000004 2 7.4800000000000013 3 4 14.425000000000002 5
decision_type=1 1 2 1 2 1 1 2 1
left_child=3 -2 4 -1 5 -3 7 8 -6
right_child=1 2 -4 -5 6 -7 -8 -9 -10
leaf_value=1.798980687703879 13.252295326954819 1.3362399782313357 -24.742818962629318 -9.9220514485185163 -11.193536566194147 -22.714463204891718 -2.2163786896866151 16.452912352663688 11.849219481641473
leaf_count=335 420 222 50 675 118 116 632 247 168
internal_value=0 32.988 -3.77802 -75.7805 6.37297 -94.4974 35.6384 109.259 29.5994
internal_count=2983 1973 1553 1010 1503 338 1165 533 286
cat_boundaries=0 1 2 3 4 5 6
cat_threshold=54448 96 386 282 644 8256
shrinkage=0.0799


Tree=48
num_leaves=10
num_cat=1
split_feature=5 1 4 3 3 5 3 5 3
split_gain=1.53668e+07 1.19172e+07 1.51462e+07 1.59479e+07 8.59533e+06 7.89763e+06 1.24055e+07 1.88556e+07 7.20426e+06
threshold=198.22680000000003 13.725000000000003 0 0.030695790500000004 0.013540664500000002 243.79860000000005 0.076160129000000007 214.55470000000003 0.077615634500000016
decision_type=2 2 1 2 2 2 2 2 2
left_child=-1 2 3 -2 -3 6 7 -4 -7
right_child=1 4 5 -5 -6 8 -8 -9 -10
leaf_value=-2.9693303490588221 80.290434491906836 -21.651476839160917 20.273706429456627 10.661587032663254 33.689845581501586 21.06738909083353 8.7966878591574158 -65.013563556281184 -30.38580725176438
leaf_count=2451 28 20 23 84 172 71 52 59 23
internal_value=0 150.333 37.8613 322.504 349.501 -111.23 -271.989 -514.287 106.105
internal_count=2983 532 340 112 192 228 134 82 94
cat_boundaries=0 1
cat_threshold=1801
shrinkage=0.0799


Tree=49
num_leaves=10
num_cat=3
split_feature=5 1 4 5 5 5 10 8 5
split_gain=1.30093e+07 1.00889e+07 1.28226e+07 6.87359e+06 7.26767e+06 6.75407e+06 6.2997e+06 6.27045e+06 5.46864e+06
threshold=198.22680000000003 13.725000000000003 0 65.449700000000021 194.59650000000002 246.37890000000002 1 2 211.82310000000004
decision_type=2 2 1 2 2 2 1 1 2
left_child=3 2 -2 -1 -5 8 -6 -3 -4
right_child=1 7 5 4 6 -7 -8 -9 -10
leaf_value=-11.728072943264568 23.709208326236343 4.2769937298281988 17.158849327651314 0.19218653787837189 -44.004551633741592 10.16877918659687 4.2660719614233287 35.428867997529288 -25.234561761281203
leaf_count=444 112 60 23 1934 45 80 28 132 125
internal_value=0 138.321 34.8362 -34.1938 -9.28581 -102.342 -319.021 321.576 -233.372
internal_count=2983 532 340 2451 2007 228 73 192 148
cat_boundaries=0 1 2 3
cat_threshold=1801 2 4
shrinkage=0.0799


Tree=50
num_leaves=10
num_cat=5
split_feature=6 4 1 4 3 3 6 3 6
split_gain=1.15559e+07 8.28031e+06 5.98114e+06 7.91157e+06 6.03633e+06 6.39766e+06 5.33492e+06 4.77217e+06 8.4106e+06
threshold=0 1 17.725000000000005 2 0.14114052000000002 0.15901831900000005 3 0.051815700499999999 4
decision_type=1 1 2 1 2 2 1 2 1
left_child=-1 6 4 -4 7 -6 -2 8 -3
right_child=1 2 3 -5 5 -7 -8 -9 -10
leaf_value=-9.2198608112630112 21.733561447439715 11.867289966493674 5.6873797434276083 -22.219080261729435 48.95344210777283 4.3811062387505402 5.3290220605059417 -5.1058386788797376 -5.8569969185426922
leaf_count=699 175 406 105 157 34 52 476 595 284
internal_value=0 30.679 -7.52189 -146.01 18.8885 275.378 125.168 1.7226 58.3127
internal_count=2983 2284 1633 262 1371 86 651 1285 690
cat_boundaries=0 1 2 3 4 5
cat_threshold=529 5538 16905 264 166
shrinkage=0.0799


Tree=51
num_leaves=10
num_cat=5
split_feature=6 4 6 3 3 6 4 3 7
split_gain=9.81251e+06 7.06449e+06 4.67504e+06 5.37955e+06 9.0298e+06 4.54361e+06 4.64937e+06 3.91507e+06 3.55408e+06
threshold=0 1 2 0.024217837500000002 0.03692190750000001 3 4 0.012475526000000002 2005.5000000000002
decision_type=1 1 1 2 2 1 1 2 2
left_child=-1 2 -2 7 -5 -3 -7 -4 -8
right_child=1 5 3 4 -6 6 8 -9 -10
leaf_value=-8.4935841973782598 16.745579406850045 3.0003568510291916 2.1932576346874235 -36.90613807152566 3.5089067251939041 2.6260409676954839 -20.842732402909039 34.012050391923466 -5.4092040486875845
leaf_count=699 289 951 47 42 221 271 150 52 261
internal_value=0 28.2999 115.577 36.9117 -36.8612 -6.98493 -68.7329 236.623 -134.914
internal_count=2983 2284 651 362 263 1633 682 99 411
cat_boundaries=0 1 2 3 4 5
cat_threshold=529 5538 296 226 8201
shrinkage=0.0799


Tree=52
num_leaves=10
num_cat=1
split_feature=5 4 5 1 5 1 1 7 5
split_gain=6.78245e+06 6.62307e+06 8.97027e+06 7.93795e+06 1.26468e+07 7.40832e+06 1.13148e+07 3.95243e+06 3.51055e+06
threshold=43.777000000000008 0 220.74690000000001 18.050000000000004 176.70150000000004 7.0275000000000007 12.125000000000002 2003.0000000000002 232.81160000000003
decision_type=2 1 2 2 2 2 2 2 2
left_child=-1 2 -2 -3 -5 -4 -7 8 -6
right_child=1 3 5 4 7 6 -8 -9 -10
leaf_value=-15.156556762444646 3.8767707790517374 0.32540584285458951 -1.7831850202910104 -0.76234917564723215 -57.770672107242582 90.853457604084852 19.489066107868503 -14.281824879201254 -20.594939393417043
leaf_count=183 718 1699 30 180 50 23 37 39 24
internal_value=0 9.0139 84.7751 -22.0315 -174.152 383.428 586.301 -436.364 -572.136
internal_count=2983 2800 808 1992 293 90 60 113 74
cat_boundaries=0 1
cat_threshold=5542
shrinkage=0.0799


Tree=53
num_leaves=10
num_cat=2
split_feature=6 5 4 5 3 5 5 3 5
split_gain=8.52639e+06 8.62807e+06 8.72169e+06 1.78383e+07 1.95863e+07 8.11454e+06 6.39427e+06 5.41037e+06 7.53346e+06
threshold=0 53.048200000000008 1 189.32010000000005 0.019458268000000004 196.52810000000002 231.78000000000003 0.056915072500000004 173.75540000000004
decision_type=1 2 1 2 2 2 2 2 2
left_child=5 -2 3 7 -5 -1 -6 -3 -9
right_child=1 2 -4 4 6 -7 -8 8 -10
leaf_value=-2.9114460883051798 -13.057255358778457 -2.2312824397098048 0.954414629596959 111.17962234656923 42.550571701574327 -21.695682580677314 -0.61037604221767849 10.342591972339475 62.588547121143343
leaf_count=838 196 234 1256 21 56 178 36 148 20
internal_value=0 35.4835 57.6969 165.826 520.078 -76.8703 321.17 70.3726 207.288
internal_count=2983 1967 1771 515 113 1016 92 402 168
cat_boundaries=0 1 2
cat_threshold=657 5542
shrinkage=0.0799


Tree=54
num_leaves=10
num_cat=1
split_feature=6 5 5 3 3 3 5 5 3
split_gain=7.23916e+06 8.54385e+06 7.37188e+06 7.81899e+06 1.16007e+07 8.4213e+06 8.32208e+06 9.50326e+06 9.17605e+06
threshold=0 224.94040000000004 108.94250000000001 0.14114052000000002 0.15901831900000005 0.051815700499999999 220.74690000000001 210.52570000000006 0.021743468500000005
decision_type=1 2 2 2 2 2 2 2 2
left_child=1 -1 -2 5 -5 6 7 -4 -8
right_child=2 -3 3 4 -6 -7 8 -9 -10
leaf_value=-4.2884001357589741 -4.1295035406744667 -32.665059851690181 7.6346195004423656 64.153922406114859 4.1776582688446045 -2.8942784017962748 53.551517383026628 -45.833056713403359 10.577092789005329
leaf_count=623 813 76 600 35 50 632 53 22 79
internal_value=0 -90.985 24.6279 66.9715 361.374 48.9165 120.281 71.8834 348.335
internal_count=2983 699 2284 1471 85 1386 754 622 132
cat_boundaries=0 1
cat_threshold=529
shrinkage=0.0799


Tree=55
num_leaves=10
num_cat=2
split_feature=5 10 4 3 3 5 5 5 5
split_gain=6.53699e+06 5.63663e+06 6.65337e+06 1.48818e+07 1.21488e+07 1.02846e+07 6.80694e+06 7.50798e+06 6.70268e+06
threshold=45.523100000000007 0 1 0.096893702500000012 0.056915072500000004 165.33550000000002 195.22940000000003 160.67490000000004 217.60210000000004
decision_type=2 1 1 2 2 2 2 2 2
left_child=-1 2 3 6 8 -6 7 -2 -4
right_child=1 -3 4 -5 5 -7 -8 -9 -10
leaf_value=-14.268988090774416 11.305893823707104 -0.73484362798316727 14.287503099013435 -65.289586446271613 27.093612392393748 94.133629730893873 43.827422921518178 -41.918901997873057 -35.842933053370885
leaf_count=204 64 2465 90 21 48 21 26 23 21
internal_value=0 6.87688 133.062 -41.0344 251.003 594.457 99.5664 -34.6061 60.1172
internal_count=2983 2779 314 134 180 69 113 87 111
cat_boundaries=0 1 2
cat_threshold=8 25224
shrinkage=0.0799


Tree=56
num_leaves=10
num_cat=4
split_feature=6 4 5 5 3 2 4 5 3
split_gain=7.28813e+06 8.5058e+06 7.95929e+06 5.67084e+06 4.68615e+06 3.5163e+06 9.24378e+06 9.09201e+06 1.06626e+07
threshold=0 1 258.94750000000005 45.523100000000007 0.07473065600000002 2 3 127.30070000000002 0.016197938000000005
decision_type=1 1 2 2 2 1 1 2 2
left_child=1 -1 3 -2 -4 -5 7 -7 -9
right_child=2 -3 4 5 -6 6 -8 8 -10
leaf_value=-16.866787860883743 -14.965467096332292 -0.96330628034413546 53.825015677935284 7.342131873519933 3.8947321706140041 2.4971814237587764 3.8791517766950685 16.669192798396519 -38.50615873473614
leaf_count=306 124 688 30 651 20 122 903 28 111
internal_value=0 -74.8233 29.6077 19.5984 423.691 33.7338 0.414439 -161.77 -342.825
internal_count=2983 994 1989 1939 50 1815 1164 261 139
cat_boundaries=0 1 2 3 4
cat_threshold=785 584 12 33939
shrinkage=0.0799


Tree=57
num_leaves=10
num_cat=1
split_feature=6 5 7 1 5 1 3 5 1
split_gain=6.20007e+06 7.02937e+06 1.7324e+07 1.54291e+07 1.04574e+07 8.18905e+06 9.0678e+06 5.1225e+06 4.7784e+06
threshold=0 226.12330000000003 2003.0000000000002 14.125000000000002 246.37890000000002 7.3550000000000013 0.067196971500000008 245.29600000000002 6.0750000000000002
decision_type=1 2 2 2 2 2 2 2 2
left_child=-1 8 5 -4 -5 7 -7 -3 -2
right_child=1 2 3 4 -6 6 -8 -9 -10
leaf_value=-5.5148962067632565 8.4275376592874522 40.335064273761567 -28.360011315954289 68.526423087244453 -6.8678051288922619 30.102572599658963 88.782999868932265 -13.193690063251497 -1.7361651762731765
leaf_count=994 376 21 75 23 24 40 29 25 1376
internal_value=0 27.2982 189.07 -73.4238 375.81 467.541 685.424 140.718 5.57054
internal_count=2983 1989 237 122 47 115 69 46 1752
cat_boundaries=0 1
cat_threshold=785
shrinkage=0.0799


Tree=58
num_leaves=10
num_cat=3
split_feature=6 4 5 5 3 1 5 4 5
split_gain=5.25538e+06 7.26398e+06 6.67426e+06 4.86359e+06 3.85928e+06 3.29334e+06 8.16597e+06 6.35511e+06 1.14107e+07
threshold=0 1 258.94750000000005 53.048200000000008 0.07473065600000002 6.0750000000000002 235.59320000000002 2 146.60890000000003
decision_type=1 1 2 2 2 2 2 1 2
left_child=1 -1 3 -2 -4 6 7 8 -5
right_child=2 -3 4 5 -6 -7 -8 -9 -10
leaf_value=-15.135083108195927 -10.625748629521475 -0.4531134380478743 48.964290950520834 18.214250216085698 3.6527070500659944 0.79672391548348731 -39.171765201023646 20.237699593331019 -27.789046211280194
leaf_count=306 197 688 30 79 20 1366 21 215 61
internal_value=0 -63.5625 25.1171 15.9413 385.978 32.7835 115.659 151.502 -21.3772
internal_count=2983 994 1989 1939 50 1742 376 355 140
cat_boundaries=0 1 2 3
cat_threshold=785 584 24961
shrinkage=0.0799


Tree=59
num_leaves=10
num_cat=3
split_feature=1 5 5 6 4 5 1 4 1
split_gain=4.90916e+06 5.60178e+06 1.26612e+07 8.32902e+06 7.35719e+06 1.46782e+07 8.98111e+06 7.08308e+06 8.29231e+06
threshold=20.800000000000004 181.38050000000001 183.37660000000002 0 1 254.10270000000006 16.800000000000004 2 6.8750000000000009
decision_type=2 2 2 1 1 2 2 1 2
left_child=1 -1 -3 7 -5 6 -6 8 -4
right_child=-2 2 3 4 5 -7 -8 -9 -10
leaf_value=-2.1418244781077709 -33.632514785248894 52.677231127679008 17.443444634190083 -4.9217258366630823 3.2689123334681933 63.019578808937069 38.606867587810449 2.6921712593675737 -34.636672452467479
leaf_count=2153 28 35 25 135 207 40 59 212 89
internal_value=0 -0.232769 71.1049 44.2647 132.139 216.855 139.012 -76.3199 -267.126
internal_count=2983 2955 802 767 441 306 266 326 114
cat_boundaries=0 1 2 3
cat_threshold=345 33049 8712
shrinkage=0.0799


Tree=60
num_leaves=10
num_cat=2
split_feature=5 3 7 4 1 3 1 3 4
split_gain=1.10333e+07 6.77947e+06 5.39915e+06 8.92101e+06 7.00556e+06 1.14896e+07 6.59555e+06 6.3871e+06 6.19378e+06
threshold=108.34250000000002 1.0000000180025095e-35 2000.5000000000002 0 20.150000000000002 0.063134622500000015 18.300000000000004 0.018060937000000003 1
decision_type=2 2 2 1 2 2 2 2 1
left_child=-1 -2 3 6 8 -6 -3 -5 -4
right_child=1 2 4 7 5 -7 -8 -9 -10
leaf_value=-5.3422948617474901 24.371590236046114 8.4207435569576372 1.0940691895797336 -43.120077799606328 9.0728044903967113 84.60409354179383 -14.298844580113887 -6.7441060503057075 16.007466379577586
leaf_count=983 109 617 483 34 36 20 94 329 278
internal_value=0 62.5241 48.5459 1.9416 109.81 451.167 66.8573 -123.643 84.6907
internal_count=2983 2000 1891 1074 817 56 711 363 761
cat_boundaries=0 1 2
cat_threshold=11877 9785
shrinkage=0.0799


end of trees

feature importances:
Item_MRP=180
Item_Weight=77
Item_Visibility=76
Outlet_Identifier=68
Item_Type=64
Outlet_Type=42
Outlet_Establishment_Year=24
Outlet_Size=9
Outlet_Location_Type=6
Item_Fat_Content=3

parameters:
[boosting: gbdt]
[objective: regression]
[metric: l2,l1]
[tree_learner: serial]
[device_type: cpu]
[data: ]
[valid: ]
[num_iterations: 100]
[learning_rate: 0.0799]
[num_leaves: 10]
[num_threads: 0]
[max_depth: -1]
[min_data_in_leaf: 20]
[min_sum_hessian_in_leaf: 0.001]
[bagging_fraction: 0.5]
[bagging_freq: 5]
[bagging_seed: 3]
[feature_fraction: 0.9]
[feature_fraction_seed: 2]
[early_stopping_round: 0]
[max_delta_step: 0]
[lambda_l1: 0]
[lambda_l2: 0]
[min_gain_to_split: 0]
[drop_rate: 0.1]
[max_drop: 50]
[skip_drop: 0.5]
[xgboost_dart_mode: 0]
[uniform_drop: 0]
[drop_seed: 4]
[top_rate: 0.2]
[other_rate: 0.1]
[min_data_per_group: 100]
[max_cat_threshold: 32]
[cat_l2: 10]
[cat_smooth: 10]
[max_cat_to_onehot: 4]
[top_k: 20]
[monotone_constraints: ]
[feature_contri: ]
[forcedsplits_filename: ]
[refit_decay_rate: 0.9]
[verbosity: 0]
[max_bin: 255]
[min_data_in_bin: 3]
[bin_construct_sample_cnt: 200000]
[histogram_pool_size: -1]
[data_random_seed: 1]
[output_model: LightGBM_model.txt]
[snapshot_freq: -1]
[input_model: ]
[output_result: LightGBM_predict_result.txt]
[initscore_filename: ]
[valid_data_initscores: ]
[pre_partition: 0]
[enable_bundle: 1]
[max_conflict_rate: 0]
[is_enable_sparse: 1]
[sparse_threshold: 0.8]
[use_missing: 1]
[zero_as_missing: 0]
[two_round: 0]
[save_binary: 0]
[enable_load_from_binary_file: 1]
[header: 0]
[label_column: ]
[weight_column: ]
[group_column: ]
[ignore_column: ]
[categorical_feature: ]
[predict_raw_score: 0]
[predict_leaf_index: 0]
[predict_contrib: 0]
[num_iteration_predict: -1]
[pred_early_stop: 0]
[pred_early_stop_freq: 10]
[pred_early_stop_margin: 10]
[convert_model_language: ]
[convert_model: gbdt_prediction.cpp]
[num_class: 1]
[is_unbalance: 0]
[scale_pos_weight: 1]
[sigmoid: 1]
[boost_from_average: 1]
[reg_sqrt: 0]
[alpha: 0.9]
[fair_c: 1]
[poisson_max_delta_step: 0.7]
[tweedie_variance_power: 1.5]
[max_position: 20]
[label_gain: ]
[metric_freq: 1]
[is_provide_training_metric: 0]
[eval_at: ]
[num_machines: 1]
[local_listen_port: 12400]
[time_out: 120]
[machine_list_filename: ]
[machines: ]
[gpu_platform_id: -1]
[gpu_device_id: -1]
[gpu_use_dp: 0]

end of parameters

pandas_categorical:[["DRA12", "DRA24", "DRA59", "DRB01", "DRB13", "DRB24", "DRB25", "DRB48", "DRC01", "DRC12", "DRC13", "DRC24", "DRC25", "DRC27", "DRC36", "DRC49", "DRD01", "DRD12", "DRD13", "DRD15", "DRD24", "DRD25", "DRD27", "DRD37", "DRD49", "DRD60", "DRE01", "DRE03", "DRE12", "DRE13", "DRE15", "DRE25", "DRE27", "DRE37", "DRE48", "DRE49", "DRE60", "DRF01", "DRF03", "DRF13", "DRF15", "DRF23", "DRF25", "DRF27", "DRF36", "DRF37", "DRF48", "DRF49", "DRF51", "DRF60", "DRG01", "DRG03", "DRG11", "DRG13", "DRG15", "DRG23", "DRG25", "DRG27", "DRG36", "DRG37", "DRG39", "DRG48", "DRG49", "DRG51", "DRH01", "DRH03", "DRH11", "DRH13", "DRH15", "DRH23", "DRH25", "DRH36", "DRH37", "DRH39", "DRH49", "DRH51", "DRH59", "DRI01", "DRI03", "DRI11", "DRI13", "DRI23", "DRI25", "DRI37", "DRI39", "DRI47", "DRI49", "DRI51", "DRI59", "DRJ01", "DRJ11", "DRJ13", "DRJ23", "DRJ24", "DRJ25", "DRJ35", "DRJ37", "DRJ39", "DRJ47", "DRJ49", "DRJ51", "DRJ59", "DRK01", "DRK11", "DRK12", "DRK13", "DRK23", "DRK35", "DRK37", "DRK39", "DRK47", "DRK49", "DRK59", "DRL01", "DRL11", "DRL23", "DRL35", "DRL37", "DRL47", "DRL49", "DRL59", "DRL60", "DRM11", "DRM23", "DRM35", "DRM37", "DRM47", "DRM48", "DRM49", "DRM59", "DRN11", "DRN35", "DRN36", "DRN37", "DRN47", "DRN59", "DRO35", "DRO47", "DRO59", "DRP35", "DRP47", "DRQ35", "DRY23", "DRZ11", "DRZ24", "FDA01", "FDA02", "FDA03", "FDA04", "FDA07", "FDA08", "FDA09", "FDA10", "FDA11", "FDA13", "FDA14", "FDA15", "FDA16", "FDA19", "FDA20", "FDA21", "FDA22", "FDA23", "FDA25", "FDA26", "FDA27", "FDA28", "FDA31", "FDA32", "FDA33", "FDA34", "FDA35", "FDA36", "FDA37", "FDA38", "FDA39", "FDA40", "FDA43", "FDA44", "FDA45", "FDA46", "FDA47", "FDA48", "FDA49", "FDA50", "FDA51", "FDA52", "FDA55", "FDA56", "FDA57", "FDA58", "FDB02", "FDB03", "FDB04", "FDB05", "FDB08", "FDB09", "FDB10", "FDB11", "FDB12", "FDB14", "FDB15", "FDB16", "FDB17", "FDB20", "FDB21", "FDB22", "FDB23", "FDB26", "FDB27", "FDB28", "FDB29", "FDB32", "FDB33", "FDB34", "FDB35", "FDB36", "FDB37", "FDB38", "FDB39", "FDB40", "FDB41", "FDB44", "FDB45", "FDB46", "FDB47", "FDB49", "FDB50", "FDB51", "FDB52", "FDB53", "FDB56", "FDB57", "FDB58", "FDB59", "FDB60", "FDC02", "FDC03", "FDC04", "FDC05", "FDC08", "FDC09", "FDC10", "FDC11", "FDC14", "FDC15", "FDC16", "FDC17", "FDC20", "FDC21", "FDC22", "FDC23", "FDC26", "FDC28", "FDC29", "FDC32", "FDC33", "FDC34", "FDC35", "FDC37", "FDC38", "FDC39", "FDC40", "FDC41", "FDC44", "FDC45", "FDC46", "FDC47", "FDC48", "FDC50", "FDC51", "FDC52", "FDC53", "FDC56", "FDC57", "FDC58", "FDC59", "FDC60", "FDD02", "FDD03", "FDD04", "FDD05", "FDD08", "FDD09", "FDD10", "FDD11", "FDD14", "FDD16", "FDD17", "FDD20", "FDD21", "FDD22", "FDD23", "FDD26", "FDD28", "FDD29", "FDD32", "FDD33", "FDD34", "FDD35", "FDD36", "FDD38", "FDD39", "FDD40", "FDD41", "FDD44", "FDD45", "FDD46", "FDD47", "FDD48", "FDD50", "FDD51", "FDD52", "FDD53", "FDD56", "FDD57", "FDD58", "FDD59", "FDE02", "FDE04", "FDE05", "FDE08", "FDE09", "FDE10", "FDE11", "FDE14", "FDE16", "FDE17", "FDE20", "FDE21", "FDE22", "FDE23", "FDE24", "FDE26", "FDE28", "FDE29", "FDE32", "FDE33", "FDE34", "FDE35", "FDE36", "FDE38", "FDE39", "FDE40", "FDE41", "FDE44", "FDE45", "FDE46", "FDE47", "FDE50", "FDE51", "FDE52", "FDE53", "FDE56", "FDE57", "FDE58", "FDE59", "FDF02", "FDF04", "FDF05", "FDF08", "FDF09", "FDF10", "FDF11", "FDF12", "FDF14", "FDF16", "FDF17", "FDF20", "FDF21", "FDF22", "FDF24", "FDF26", "FDF28", "FDF29", "FDF32", "FDF33", "FDF34", "FDF35", "FDF38", "FDF39", "FDF40", "FDF41", "FDF44", "FDF45", "FDF46", "FDF47", "FDF50", "FDF52", "FDF53", "FDF56", "FDF57", "FDF58", "FDF59", "FDG02", "FDG04", "FDG05", "FDG08", "FDG09", "FDG10", "FDG12", "FDG14", "FDG16", "FDG17", "FDG20", "FDG21", "FDG22", "FDG24", "FDG26", "FDG28", "FDG29", "FDG31", "FDG32", "FDG33", "FDG34", "FDG35", "FDG38", "FDG40", "FDG41", "FDG44", "FDG45", "FDG46", "FDG47", "FDG50", "FDG52", "FDG53", "FDG56", "FDG57", "FDG58", "FDG59", "FDG60", "FDH02", "FDH04", "FDH05", "FDH08", "FDH09", "FDH10", "FDH12", "FDH14", "FDH16", "FDH17", "FDH19", "FDH20", "FDH21", "FDH22", "FDH24", "FDH26", "FDH27", "FDH28", "FDH31", "FDH32", "FDH33", "FDH34", "FDH35", "FDH38", "FDH40", "FDH41", "FDH44", "FDH45", "FDH46", "FDH47", "FDH48", "FDH50", "FDH52", "FDH53", "FDH56", "FDH57", "FDH58", "FDH60", "FDI02", "FDI04", "FDI05", "FDI07", "FDI08", "FDI09", "FDI10", "FDI12", "FDI14", "FDI15", "FDI16", "FDI19", "FDI20", "FDI21", "FDI22", "FDI24", "FDI26", "FDI27", "FDI28", "FDI32", "FDI33", "FDI34", "FDI35", "FDI36", "FDI38", "FDI40", "FDI41", "FDI44", "FDI45", "FDI46", "FDI48", "FDI50", "FDI52", "FDI53", "FDI56", "FDI57", "FDI58", "FDI60", "FDJ02", "FDJ03", "FDJ04", "FDJ07", "FDJ08", "FDJ09", "FDJ10", "FDJ12", "FDJ14", "FDJ15", "FDJ16", "FDJ20", "FDJ21", "FDJ22", "FDJ26", "FDJ27", "FDJ28", "FDJ32", "FDJ33", "FDJ34", "FDJ36", "FDJ38", "FDJ40", "FDJ41", "FDJ44", "FDJ45", "FDJ46", "FDJ48", "FDJ50", "FDJ52", "FDJ53", "FDJ55", "FDJ56", "FDJ57", "FDJ58", "FDJ60", "FDK02", "FDK03", "FDK04", "FDK08", "FDK09", "FDK10", "FDK14", "FDK15", "FDK16", "FDK20", "FDK21", "FDK22", "FDK24", "FDK25", "FDK26", "FDK27", "FDK28", "FDK32", "FDK33", "FDK34", "FDK36", "FDK38", "FDK40", "FDK41", "FDK43", "FDK44", "FDK45", "FDK46", "FDK48", "FDK50", "FDK51", "FDK52", "FDK55", "FDK56", "FDK57", "FDK58", "FDK60", "FDL02", "FDL03", "FDL04", "FDL08", "FDL09", "FDL10", "FDL12", "FDL13", "FDL14", "FDL15", "FDL16", "FDL20", "FDL21", "FDL22", "FDL24", "FDL25", "FDL26", "FDL27", "FDL28", "FDL32", "FDL33", "FDL34", "FDL36", "FDL38", "FDL39", "FDL40", "FDL43", "FDL44", "FDL45", "FDL46", "FDL48", "FDL50", "FDL51", "FDL52", "FDL56", "FDL57", "FDL58", "FDM01", "FDM02", "FDM03", "FDM04", "FDM08", "FDM09", "FDM10", "FDM12", "FDM13", "FDM14", "FDM15", "FDM16", "FDM20", "FDM21", "FDM22", "FDM24", "FDM25", "FDM27", "FDM28", "FDM32", "FDM33", "FDM34", "FDM36", "FDM38", "FDM39", "FDM40", "FDM44", "FDM45", "FDM46", "FDM50", "FDM51", "FDM52", "FDM56", "FDM57", "FDM58", "FDM60", "FDN01", "FDN02", "FDN03", "FDN04", "FDN08", "FDN09", "FDN10", "FDN12", "FDN13", "FDN15", "FDN16", "FDN20", "FDN21", "FDN22", "FDN23", "FDN24", "FDN25", "FDN27", "FDN28", "FDN31", "FDN32", "FDN33", "FDN34", "FDN38", "FDN39", "FDN40", "FDN44", "FDN45", "FDN46", "FDN48", "FDN49", "FDN50", "FDN51", "FDN52", "FDN56", "FDN57", "FDN58", "FDN60", "FDO01", "FDO03", "FDO04", "FDO08", "FDO09", "FDO10", "FDO11", "FDO12", "FDO13", "FDO15", "FDO16", "FDO19", "FDO20", "FDO21", "FDO22", "FDO23", "FDO24", "FDO25", "FDO27", "FDO28", "FDO31", "FDO32", "FDO33", "FDO34", "FDO36", "FDO37", "FDO38", "FDO39", "FDO40", "FDO44", "FDO45", "FDO46", "FDO48", "FDO49", "FDO50", "FDO51", "FDO52", "FDO56", "FDO57", "FDO58", "FDO60", "FDP01", "FDP03", "FDP04", "FDP07", "FDP08", "FDP09", "FDP10", "FDP11", "FDP12", "FDP13", "FDP15", "FDP16", "FDP19", "FDP20", "FDP21", "FDP22", "FDP23", "FDP24", "FDP25", "FDP26", "FDP27", "FDP28", "FDP31", "FDP32", "FDP33", "FDP34", "FDP36", "FDP37", "FDP38", "FDP39", "FDP40", "FDP44", "FDP45", "FDP46", "FDP48", "FDP49", "FDP51", "FDP52", "FDP56", "FDP57", "FDP58", "FDP59", "FDP60", "FDQ01", "FDQ03", "FDQ04", "FDQ07", "FDQ08", "FDQ09", "FDQ10", "FDQ11", "FDQ12", "FDQ13", "FDQ14", "FDQ15", "FDQ16", "FDQ19", "FDQ20", "FDQ21", "FDQ22", "FDQ23", "FDQ24", "FDQ25", "FDQ26", "FDQ27", "FDQ28", "FDQ31", "FDQ32", "FDQ33", "FDQ34", "FDQ36", "FDQ37", "FDQ39", "FDQ40", "FDQ44", "FDQ45", "FDQ46", "FDQ47", "FDQ48", "FDQ49", "FDQ51", "FDQ52", "FDQ55", "FDQ56", "FDQ57", "FDQ58", "FDQ59", "FDQ60", "FDR01", "FDR02", "FDR03", "FDR04", "FDR07", "FDR08", "FDR09", "FDR10", "FDR11", "FDR12", "FDR13", "FDR14", "FDR15", "FDR16", "FDR19", "FDR20", "FDR21", "FDR22", "FDR23", "FDR24", "FDR25", "FDR26", "FDR27", "FDR28", "FDR31", "FDR32", "FDR33", "FDR34", "FDR35", "FDR36", "FDR37", "FDR39", "FDR40", "FDR43", "FDR44", "FDR45", "FDR46", "FDR47", "FDR48", "FDR49", "FDR51", "FDR52", "FDR55", "FDR56", "FDR57", "FDR58", "FDR59", "FDR60", "FDS01", "FDS02", "FDS03", "FDS04", "FDS07", "FDS08", "FDS09", "FDS10", "FDS11", "FDS12", "FDS13", "FDS14", "FDS15", "FDS16", "FDS19", "FDS20", "FDS21", "FDS22", "FDS23", "FDS24", "FDS25", "FDS26", "FDS27", "FDS28", "FDS31", "FDS32", "FDS33", "FDS34", "FDS35", "FDS36", "FDS37", "FDS39", "FDS40", "FDS43", "FDS44", "FDS45", "FDS46", "FDS47", "FDS48", "FDS49", "FDS50", "FDS51", "FDS52", "FDS55", "FDS56", "FDS57", "FDS58", "FDS59", "FDS60", "FDT01", "FDT02", "FDT03", "FDT04", "FDT07", "FDT08", "FDT09", "FDT10", "FDT11", "FDT12", "FDT13", "FDT14", "FDT15", "FDT16", "FDT19", "FDT20", "FDT21", "FDT22", "FDT23", "FDT24", "FDT25", "FDT26", "FDT27", "FDT28", "FDT31", "FDT32", "FDT33", "FDT34", "FDT35", "FDT36", "FDT37", "FDT38", "FDT39", "FDT40", "FDT43", "FDT44", "FDT45", "FDT46", "FDT47", "FDT48", "FDT49", "FDT50", "FDT51", "FDT52", "FDT55", "FDT56", "FDT57", "FDT58", "FDT59", "FDT60", "FDU01", "FDU02", "FDU03", "FDU04", "FDU07", "FDU08", "FDU09", "FDU10", "FDU11", "FDU12", "FDU13", "FDU14", "FDU15", "FDU16", "FDU19", "FDU20", "FDU21", "FDU22", "FDU23", "FDU24", "FDU25", "FDU26", "FDU27", "FDU28", "FDU31", "FDU32", "FDU33", "FDU34", "FDU35", "FDU36", "FDU37", "FDU38", "FDU39", "FDU40", "FDU43", "FDU44", "FDU45", "FDU46", "FDU47", "FDU48", "FDU49", "FDU50", "FDU51", "FDU52", "FDU55", "FDU56", "FDU57", "FDU58", "FDU59", "FDU60", "FDV01", "FDV02", "FDV03", "FDV04", "FDV07", "FDV08", "FDV09", "FDV10", "FDV11", "FDV12", "FDV13", "FDV14", "FDV15", "FDV16", "FDV19", "FDV20", "FDV21", "FDV22", "FDV23", "FDV24", "FDV25", "FDV26", "FDV27", "FDV28", "FDV31", "FDV32", "FDV33", "FDV34", "FDV35", "FDV36", "FDV37", "FDV38", "FDV39", "FDV40", "FDV43", "FDV44", "FDV45", "FDV46", "FDV47", "FDV48", "FDV49", "FDV50", "FDV51", "FDV52", "FDV55", "FDV56", "FDV57", "FDV58", "FDV59", "FDV60", "FDW01", "FDW02", "FDW03", "FDW04", "FDW07", "FDW08", "FDW09", "FDW10", "FDW11", "FDW12", "FDW13", "FDW14", "FDW15", "FDW16", "FDW19", "FDW20", "FDW21", "FDW22", "FDW23", "FDW24", "FDW25", "FDW26", "FDW27", "FDW28", "FDW31", "FDW32", "FDW33", "FDW34", "FDW35", "FDW36", "FDW37", "FDW38", "FDW39", "FDW40", "FDW43", "FDW44", "FDW45", "FDW46", "FDW47", "FDW48", "FDW49", "FDW50", "FDW51", "FDW52", "FDW55", "FDW56", "FDW57", "FDW58", "FDW59", "FDW60", "FDX01", "FDX02", "FDX03", "FDX04", "FDX07", "FDX08", "FDX09", "FDX10", "FDX11", "FDX12", "FDX13", "FDX14", "FDX15", "FDX16", "FDX19", "FDX20", "FDX21", "FDX22", "FDX23", "FDX24", "FDX25", "FDX26", "FDX27", "FDX28", "FDX31", "FDX32", "FDX33", "FDX34", "FDX35", "FDX36", "FDX37", "FDX38", "FDX39", "FDX40", "FDX43", "FDX44", "FDX45", "FDX46", "FDX47", "FDX48", "FDX49", "FDX50", "FDX51", "FDX52", "FDX55", "FDX56", "FDX57", "FDX58", "FDX59", "FDX60", "FDY01", "FDY02", "FDY03", "FDY04", "FDY07", "FDY08", "FDY09", "FDY10", "FDY11", "FDY12", "FDY13", "FDY14", "FDY15", "FDY16", "FDY19", "FDY20", "FDY21", "FDY22", "FDY24", "FDY25", "FDY26", "FDY27", "FDY28", "FDY31", "FDY32", "FDY33", "FDY34", "FDY35", "FDY36", "FDY37", "FDY38", "FDY39", "FDY40", "FDY43", "FDY44", "FDY45", "FDY46", "FDY47", "FDY48", "FDY49", "FDY50", "FDY51", "FDY52", "FDY55", "FDY56", "FDY57", "FDY58", "FDY59", "FDY60", "FDZ01", "FDZ02", "FDZ03", "FDZ04", "FDZ07", "FDZ08", "FDZ09", "FDZ10", "FDZ12", "FDZ13", "FDZ14", "FDZ15", "FDZ16", "FDZ19", "FDZ20", "FDZ21", "FDZ22", "FDZ23", "FDZ25", "FDZ26", "FDZ27", "FDZ28", "FDZ31", "FDZ32", "FDZ33", "FDZ34", "FDZ35", "FDZ36", "FDZ37", "FDZ38", "FDZ39", "FDZ40", "FDZ43", "FDZ44", "FDZ45", "FDZ46", "FDZ47", "FDZ48", "FDZ49", "FDZ50", "FDZ51", "FDZ52", "FDZ55", "FDZ56", "FDZ57", "FDZ58", "FDZ59", "FDZ60", "NCA05", "NCA06", "NCA17", "NCA18", "NCA29", "NCA30", "NCA41", "NCA42", "NCA53", "NCA54", "NCB06", "NCB07", "NCB18", "NCB19", "NCB30", "NCB31", "NCB42", "NCB43", "NCB54", "NCB55", "NCC06", "NCC07", "NCC18", "NCC19", "NCC30", "NCC31", "NCC42", "NCC43", "NCC54", "NCC55", "NCD06", "NCD07", "NCD18", "NCD19", "NCD30", "NCD31", "NCD42", "NCD43", "NCD54", "NCD55", "NCE06", "NCE07", "NCE18", "NCE19", "NCE30", "NCE31", "NCE42", "NCE43", "NCE54", "NCE55", "NCF06", "NCF07", "NCF18", "NCF19", "NCF30", "NCF31", "NCF42", "NCF43", "NCF54", "NCF55", "NCG06", "NCG07", "NCG18", "NCG19", "NCG30", "NCG42", "NCG43", "NCG54", "NCG55", "NCH06", "NCH07", "NCH18", "NCH29", "NCH30", "NCH42", "NCH43", "NCH54", "NCH55", "NCI06", "NCI17", "NCI18", "NCI29", "NCI30", "NCI31", "NCI42", "NCI43", "NCI54", "NCI55", "NCJ05", "NCJ06", "NCJ17", "NCJ18", "NCJ19", "NCJ29", "NCJ30", "NCJ31", "NCJ42", "NCJ43", "NCJ54", "NCK05", "NCK06", "NCK07", "NCK17", "NCK18", "NCK19", "NCK29", "NCK30", "NCK31", "NCK42", "NCK53", "NCK54", "NCL05", "NCL06", "NCL07", "NCL17", "NCL18", "NCL19", "NCL29", "NCL30", "NCL31", "NCL41", "NCL42", "NCL53", "NCL54", "NCL55", "NCM05", "NCM06", "NCM07", "NCM17", "NCM18", "NCM19", "NCM26", "NCM29", "NCM30", "NCM31", "NCM41", "NCM42", "NCM43", "NCM53", "NCM54", "NCM55", "NCN05", "NCN06", "NCN07", "NCN14", "NCN17", "NCN18", "NCN19", "NCN26", "NCN29", "NCN30", "NCN41", "NCN42", "NCN43", "NCN53", "NCN54", "NCN55", "NCO02", "NCO05", "NCO06", "NCO07", "NCO14", "NCO17", "NCO18", "NCO26", "NCO29", "NCO30", "NCO41", "NCO42", "NCO43", "NCO53", "NCO54", "NCO55", "NCP02", "NCP05", "NCP06", "NCP14", "NCP17", "NCP18", "NCP29", "NCP30", "NCP41", "NCP42", "NCP43", "NCP50", "NCP53", "NCP54", "NCP55", "NCQ02", "NCQ05", "NCQ06", "NCQ17", "NCQ18", "NCQ29", "NCQ30", "NCQ38", "NCQ41", "NCQ42", "NCQ43", "NCQ50", "NCQ53", "NCQ54", "NCR05", "NCR06", "NCR17", "NCR18", "NCR29", "NCR30", "NCR38", "NCR41", "NCR42", "NCR50", "NCR53", "NCR54", "NCS05", "NCS06", "NCS17", "NCS18", "NCS29", "NCS30", "NCS38", "NCS41", "NCS42", "NCS53", "NCS54", "NCT05", "NCT06", "NCT17", "NCT18", "NCT29", "NCT30", "NCT41", "NCT42", "NCT53", "NCT54", "NCU05", "NCU06", "NCU17", "NCU18", "NCU29", "NCU30", "NCU41", "NCU42", "NCU53", "NCU54", "NCV05", "NCV06", "NCV17", "NCV18", "NCV29", "NCV30", "NCV41", "NCV42", "NCV53", "NCV54", "NCW05", "NCW06", "NCW17", "NCW18", "NCW29", "NCW30", "NCW41", "NCW42", "NCW53", "NCW54", "NCX05", "NCX06", "NCX17", "NCX18", "NCX29", "NCX30", "NCX41", "NCX42", "NCX53", "NCX54", "NCY05", "NCY06", "NCY17", "NCY18", "NCY29", "NCY30", "NCY41", "NCY42", "NCY53", "NCY54", "NCZ05", "NCZ06", "NCZ17", "NCZ18", "NCZ29", "NCZ30", "NCZ41", "NCZ42", "NCZ53", "NCZ54"], ["LF", "Low Fat", "Regular", "low fat", "reg"], ["Baking Goods", "Breads", "Breakfast", "Canned", "Dairy", "Frozen Foods", "Fruits and Vegetables", "Hard Drinks", "Health and Hygiene", "Household", "Meat", "Others", "Seafood", "Snack Foods", "Soft Drinks", "Starchy Foods"], ["OUT010", "OUT013", "OUT017", "OUT018", "OUT019", "OUT027", "OUT035", "OUT045", "OUT046", "OUT049"], [-999, "High", "Medium", "Small"], ["Tier 1", "Tier 2", "Tier 3"], ["Grocery Store", "Supermarket Type1", "Supermarket Type2", "Supermarket Type3"]]
